FANN_FLO_2.1
num_layers=4
learning_rate=0.000750
connection_rate=1.000000
network_type=0
learning_momentum=0.000000
training_algorithm=0
train_error_function=1
train_stop_function=0
cascade_output_change_fraction=0.010000
quickprop_decay=-0.000100
quickprop_mu=1.750000
rprop_increase_factor=1.200000
rprop_decrease_factor=0.500000
rprop_delta_min=0.000000
rprop_delta_max=50.000000
rprop_delta_zero=0.100000
cascade_output_stagnation_epochs=12
cascade_candidate_change_fraction=0.010000
cascade_candidate_stagnation_epochs=12
cascade_max_out_epochs=150
cascade_max_cand_epochs=150
cascade_num_candidate_groups=2
bit_fail_limit=3.49999994039535522461e-01
cascade_candidate_limit=1.00000000000000000000e+03
cascade_weight_multiplier=4.00000005960464477539e-01
cascade_activation_functions_count=10
cascade_activation_functions=3 5 7 8 10 11 14 15 16 17 
cascade_activation_steepnesses_count=4
cascade_activation_steepnesses=2.50000000000000000000e-01 5.00000000000000000000e-01 7.50000000000000000000e-01 1.00000000000000000000e+00 
layer_sizes=626 61 61 95 
scale_included=0
neurons (num_inputs, activation_function, activation_steepness)=(0, 0, 0.00000000000000000000e+00) (0, 0, 0.00000000000000000000e+00) (0, 0, 0.00000000000000000000e+00) (0, 0, 0.00000000000000000000e+00) (0, 0, 0.00000000000000000000e+00) (0, 0, 0.00000000000000000000e+00) (0, 0, 0.00000000000000000000e+00) (0, 0, 0.00000000000000000000e+00) (0, 0, 0.00000000000000000000e+00) (0, 0, 0.00000000000000000000e+00) (0, 0, 0.00000000000000000000e+00) (0, 0, 0.00000000000000000000e+00) (0, 0, 0.00000000000000000000e+00) (0, 0, 0.00000000000000000000e+00) (0, 0, 0.00000000000000000000e+00) (0, 0, 0.00000000000000000000e+00) (0, 0, 0.00000000000000000000e+00) (0, 0, 0.00000000000000000000e+00) (0, 0, 0.00000000000000000000e+00) (0, 0, 0.00000000000000000000e+00) (0, 0, 0.00000000000000000000e+00) (0, 0, 0.00000000000000000000e+00) (0, 0, 0.00000000000000000000e+00) (0, 0, 0.00000000000000000000e+00) (0, 0, 0.00000000000000000000e+00) (0, 0, 0.00000000000000000000e+00) (0, 0, 0.00000000000000000000e+00) (0, 0, 0.00000000000000000000e+00) (0, 0, 0.00000000000000000000e+00) (0, 0, 0.00000000000000000000e+00) (0, 0, 0.00000000000000000000e+00) (0, 0, 0.00000000000000000000e+00) (0, 0, 0.00000000000000000000e+00) (0, 0, 0.00000000000000000000e+00) (0, 0, 0.00000000000000000000e+00) (0, 0, 0.00000000000000000000e+00) (0, 0, 0.00000000000000000000e+00) (0, 0, 0.00000000000000000000e+00) (0, 0, 0.00000000000000000000e+00) (0, 0, 0.00000000000000000000e+00) (0, 0, 0.00000000000000000000e+00) (0, 0, 0.00000000000000000000e+00) (0, 0, 0.00000000000000000000e+00) (0, 0, 0.00000000000000000000e+00) (0, 0, 0.00000000000000000000e+00) (0, 0, 0.00000000000000000000e+00) (0, 0, 0.00000000000000000000e+00) (0, 0, 0.00000000000000000000e+00) (0, 0, 0.00000000000000000000e+00) (0, 0, 0.00000000000000000000e+00) (0, 0, 0.00000000000000000000e+00) (0, 0, 0.00000000000000000000e+00) (0, 0, 0.00000000000000000000e+00) (0, 0, 0.00000000000000000000e+00) (0, 0, 0.00000000000000000000e+00) (0, 0, 0.00000000000000000000e+00) (0, 0, 0.00000000000000000000e+00) (0, 0, 0.00000000000000000000e+00) (0, 0, 0.00000000000000000000e+00) (0, 0, 0.00000000000000000000e+00) (0, 0, 0.00000000000000000000e+00) (0, 0, 0.00000000000000000000e+00) (0, 0, 0.00000000000000000000e+00) (0, 0, 0.00000000000000000000e+00) (0, 0, 0.00000000000000000000e+00) (0, 0, 0.00000000000000000000e+00) (0, 0, 0.00000000000000000000e+00) (0, 0, 0.00000000000000000000e+00) (0, 0, 0.00000000000000000000e+00) (0, 0, 0.00000000000000000000e+00) (0, 0, 0.00000000000000000000e+00) (0, 0, 0.00000000000000000000e+00) (0, 0, 0.00000000000000000000e+00) (0, 0, 0.00000000000000000000e+00) (0, 0, 0.00000000000000000000e+00) (0, 0, 0.00000000000000000000e+00) (0, 0, 0.00000000000000000000e+00) (0, 0, 0.00000000000000000000e+00) (0, 0, 0.00000000000000000000e+00) (0, 0, 0.00000000000000000000e+00) (0, 0, 0.00000000000000000000e+00) (0, 0, 0.00000000000000000000e+00) (0, 0, 0.00000000000000000000e+00) (0, 0, 0.00000000000000000000e+00) (0, 0, 0.00000000000000000000e+00) (0, 0, 0.00000000000000000000e+00) (0, 0, 0.00000000000000000000e+00) (0, 0, 0.00000000000000000000e+00) (0, 0, 0.00000000000000000000e+00) (0, 0, 0.00000000000000000000e+00) (0, 0, 0.00000000000000000000e+00) (0, 0, 0.00000000000000000000e+00) (0, 0, 0.00000000000000000000e+00) (0, 0, 0.00000000000000000000e+00) (0, 0, 0.00000000000000000000e+00) (0, 0, 0.00000000000000000000e+00) (0, 0, 0.00000000000000000000e+00) (0, 0, 0.00000000000000000000e+00) (0, 0, 0.00000000000000000000e+00) (0, 0, 0.00000000000000000000e+00) (0, 0, 0.00000000000000000000e+00) (0, 0, 0.00000000000000000000e+00) (0, 0, 0.00000000000000000000e+00) (0, 0, 0.00000000000000000000e+00) (0, 0, 0.00000000000000000000e+00) (0, 0, 0.00000000000000000000e+00) (0, 0, 0.00000000000000000000e+00) (0, 0, 0.00000000000000000000e+00) (0, 0, 0.00000000000000000000e+00) (0, 0, 0.00000000000000000000e+00) (0, 0, 0.00000000000000000000e+00) (0, 0, 0.00000000000000000000e+00) (0, 0, 0.00000000000000000000e+00) (0, 0, 0.00000000000000000000e+00) (0, 0, 0.00000000000000000000e+00) (0, 0, 0.00000000000000000000e+00) (0, 0, 0.00000000000000000000e+00) (0, 0, 0.00000000000000000000e+00) (0, 0, 0.00000000000000000000e+00) (0, 0, 0.00000000000000000000e+00) (0, 0, 0.00000000000000000000e+00) (0, 0, 0.00000000000000000000e+00) (0, 0, 0.00000000000000000000e+00) (0, 0, 0.00000000000000000000e+00) (0, 0, 0.00000000000000000000e+00) (0, 0, 0.00000000000000000000e+00) (0, 0, 0.00000000000000000000e+00) (0, 0, 0.00000000000000000000e+00) (0, 0, 0.00000000000000000000e+00) (0, 0, 0.00000000000000000000e+00) (0, 0, 0.00000000000000000000e+00) (0, 0, 0.00000000000000000000e+00) (0, 0, 0.00000000000000000000e+00) (0, 0, 0.00000000000000000000e+00) (0, 0, 0.00000000000000000000e+00) (0, 0, 0.00000000000000000000e+00) (0, 0, 0.00000000000000000000e+00) (0, 0, 0.00000000000000000000e+00) (0, 0, 0.00000000000000000000e+00) (0, 0, 0.00000000000000000000e+00) (0, 0, 0.00000000000000000000e+00) (0, 0, 0.00000000000000000000e+00) (0, 0, 0.00000000000000000000e+00) (0, 0, 0.00000000000000000000e+00) (0, 0, 0.00000000000000000000e+00) (0, 0, 0.00000000000000000000e+00) (0, 0, 0.00000000000000000000e+00) (0, 0, 0.00000000000000000000e+00) (0, 0, 0.00000000000000000000e+00) (0, 0, 0.00000000000000000000e+00) (0, 0, 0.00000000000000000000e+00) (0, 0, 0.00000000000000000000e+00) (0, 0, 0.00000000000000000000e+00) (0, 0, 0.00000000000000000000e+00) (0, 0, 0.00000000000000000000e+00) (0, 0, 0.00000000000000000000e+00) (0, 0, 0.00000000000000000000e+00) (0, 0, 0.00000000000000000000e+00) (0, 0, 0.00000000000000000000e+00) (0, 0, 0.00000000000000000000e+00) (0, 0, 0.00000000000000000000e+00) (0, 0, 0.00000000000000000000e+00) (0, 0, 0.00000000000000000000e+00) (0, 0, 0.00000000000000000000e+00) (0, 0, 0.00000000000000000000e+00) (0, 0, 0.00000000000000000000e+00) (0, 0, 0.00000000000000000000e+00) (0, 0, 0.00000000000000000000e+00) (0, 0, 0.00000000000000000000e+00) (0, 0, 0.00000000000000000000e+00) (0, 0, 0.00000000000000000000e+00) (0, 0, 0.00000000000000000000e+00) (0, 0, 0.00000000000000000000e+00) (0, 0, 0.00000000000000000000e+00) (0, 0, 0.00000000000000000000e+00) (0, 0, 0.00000000000000000000e+00) (0, 0, 0.00000000000000000000e+00) (0, 0, 0.00000000000000000000e+00) (0, 0, 0.00000000000000000000e+00) (0, 0, 0.00000000000000000000e+00) (0, 0, 0.00000000000000000000e+00) (0, 0, 0.00000000000000000000e+00) (0, 0, 0.00000000000000000000e+00) (0, 0, 0.00000000000000000000e+00) (0, 0, 0.00000000000000000000e+00) (0, 0, 0.00000000000000000000e+00) (0, 0, 0.00000000000000000000e+00) (0, 0, 0.00000000000000000000e+00) (0, 0, 0.00000000000000000000e+00) (0, 0, 0.00000000000000000000e+00) (0, 0, 0.00000000000000000000e+00) (0, 0, 0.00000000000000000000e+00) (0, 0, 0.00000000000000000000e+00) (0, 0, 0.00000000000000000000e+00) (0, 0, 0.00000000000000000000e+00) (0, 0, 0.00000000000000000000e+00) (0, 0, 0.00000000000000000000e+00) (0, 0, 0.00000000000000000000e+00) (0, 0, 0.00000000000000000000e+00) (0, 0, 0.00000000000000000000e+00) (0, 0, 0.00000000000000000000e+00) (0, 0, 0.00000000000000000000e+00) (0, 0, 0.00000000000000000000e+00) (0, 0, 0.00000000000000000000e+00) (0, 0, 0.00000000000000000000e+00) (0, 0, 0.00000000000000000000e+00) (0, 0, 0.00000000000000000000e+00) (0, 0, 0.00000000000000000000e+00) (0, 0, 0.00000000000000000000e+00) (0, 0, 0.00000000000000000000e+00) (0, 0, 0.00000000000000000000e+00) (0, 0, 0.00000000000000000000e+00) (0, 0, 0.00000000000000000000e+00) (0, 0, 0.00000000000000000000e+00) (0, 0, 0.00000000000000000000e+00) (0, 0, 0.00000000000000000000e+00) (0, 0, 0.00000000000000000000e+00) (0, 0, 0.00000000000000000000e+00) (0, 0, 0.00000000000000000000e+00) (0, 0, 0.00000000000000000000e+00) (0, 0, 0.00000000000000000000e+00) (0, 0, 0.00000000000000000000e+00) (0, 0, 0.00000000000000000000e+00) (0, 0, 0.00000000000000000000e+00) (0, 0, 0.00000000000000000000e+00) (0, 0, 0.00000000000000000000e+00) (0, 0, 0.00000000000000000000e+00) (0, 0, 0.00000000000000000000e+00) (0, 0, 0.00000000000000000000e+00) (0, 0, 0.00000000000000000000e+00) (0, 0, 0.00000000000000000000e+00) (0, 0, 0.00000000000000000000e+00) (0, 0, 0.00000000000000000000e+00) (0, 0, 0.00000000000000000000e+00) (0, 0, 0.00000000000000000000e+00) (0, 0, 0.00000000000000000000e+00) (0, 0, 0.00000000000000000000e+00) (0, 0, 0.00000000000000000000e+00) (0, 0, 0.00000000000000000000e+00) (0, 0, 0.00000000000000000000e+00) (0, 0, 0.00000000000000000000e+00) (0, 0, 0.00000000000000000000e+00) (0, 0, 0.00000000000000000000e+00) (0, 0, 0.00000000000000000000e+00) (0, 0, 0.00000000000000000000e+00) (0, 0, 0.00000000000000000000e+00) (0, 0, 0.00000000000000000000e+00) (0, 0, 0.00000000000000000000e+00) (0, 0, 0.00000000000000000000e+00) (0, 0, 0.00000000000000000000e+00) (0, 0, 0.00000000000000000000e+00) (0, 0, 0.00000000000000000000e+00) (0, 0, 0.00000000000000000000e+00) (0, 0, 0.00000000000000000000e+00) (0, 0, 0.00000000000000000000e+00) (0, 0, 0.00000000000000000000e+00) (0, 0, 0.00000000000000000000e+00) (0, 0, 0.00000000000000000000e+00) (0, 0, 0.00000000000000000000e+00) (0, 0, 0.00000000000000000000e+00) (0, 0, 0.00000000000000000000e+00) (0, 0, 0.00000000000000000000e+00) (0, 0, 0.00000000000000000000e+00) (0, 0, 0.00000000000000000000e+00) (0, 0, 0.00000000000000000000e+00) (0, 0, 0.00000000000000000000e+00) (0, 0, 0.00000000000000000000e+00) (0, 0, 0.00000000000000000000e+00) (0, 0, 0.00000000000000000000e+00) (0, 0, 0.00000000000000000000e+00) (0, 0, 0.00000000000000000000e+00) (0, 0, 0.00000000000000000000e+00) (0, 0, 0.00000000000000000000e+00) (0, 0, 0.00000000000000000000e+00) (0, 0, 0.00000000000000000000e+00) (0, 0, 0.00000000000000000000e+00) (0, 0, 0.00000000000000000000e+00) (0, 0, 0.00000000000000000000e+00) (0, 0, 0.00000000000000000000e+00) (0, 0, 0.00000000000000000000e+00) (0, 0, 0.00000000000000000000e+00) (0, 0, 0.00000000000000000000e+00) (0, 0, 0.00000000000000000000e+00) (0, 0, 0.00000000000000000000e+00) (0, 0, 0.00000000000000000000e+00) (0, 0, 0.00000000000000000000e+00) (0, 0, 0.00000000000000000000e+00) (0, 0, 0.00000000000000000000e+00) (0, 0, 0.00000000000000000000e+00) (0, 0, 0.00000000000000000000e+00) (0, 0, 0.00000000000000000000e+00) (0, 0, 0.00000000000000000000e+00) (0, 0, 0.00000000000000000000e+00) (0, 0, 0.00000000000000000000e+00) (0, 0, 0.00000000000000000000e+00) (0, 0, 0.00000000000000000000e+00) (0, 0, 0.00000000000000000000e+00) (0, 0, 0.00000000000000000000e+00) (0, 0, 0.00000000000000000000e+00) (0, 0, 0.00000000000000000000e+00) (0, 0, 0.00000000000000000000e+00) (0, 0, 0.00000000000000000000e+00) (0, 0, 0.00000000000000000000e+00) (0, 0, 0.00000000000000000000e+00) (0, 0, 0.00000000000000000000e+00) (0, 0, 0.00000000000000000000e+00) (0, 0, 0.00000000000000000000e+00) (0, 0, 0.00000000000000000000e+00) (0, 0, 0.00000000000000000000e+00) (0, 0, 0.00000000000000000000e+00) (0, 0, 0.00000000000000000000e+00) (0, 0, 0.00000000000000000000e+00) (0, 0, 0.00000000000000000000e+00) (0, 0, 0.00000000000000000000e+00) (0, 0, 0.00000000000000000000e+00) (0, 0, 0.00000000000000000000e+00) (0, 0, 0.00000000000000000000e+00) (0, 0, 0.00000000000000000000e+00) (0, 0, 0.00000000000000000000e+00) (0, 0, 0.00000000000000000000e+00) (0, 0, 0.00000000000000000000e+00) (0, 0, 0.00000000000000000000e+00) (0, 0, 0.00000000000000000000e+00) (0, 0, 0.00000000000000000000e+00) (0, 0, 0.00000000000000000000e+00) (0, 0, 0.00000000000000000000e+00) (0, 0, 0.00000000000000000000e+00) (0, 0, 0.00000000000000000000e+00) (0, 0, 0.00000000000000000000e+00) (0, 0, 0.00000000000000000000e+00) (0, 0, 0.00000000000000000000e+00) (0, 0, 0.00000000000000000000e+00) (0, 0, 0.00000000000000000000e+00) (0, 0, 0.00000000000000000000e+00) (0, 0, 0.00000000000000000000e+00) (0, 0, 0.00000000000000000000e+00) (0, 0, 0.00000000000000000000e+00) (0, 0, 0.00000000000000000000e+00) (0, 0, 0.00000000000000000000e+00) (0, 0, 0.00000000000000000000e+00) (0, 0, 0.00000000000000000000e+00) (0, 0, 0.00000000000000000000e+00) (0, 0, 0.00000000000000000000e+00) (0, 0, 0.00000000000000000000e+00) (0, 0, 0.00000000000000000000e+00) (0, 0, 0.00000000000000000000e+00) (0, 0, 0.00000000000000000000e+00) (0, 0, 0.00000000000000000000e+00) (0, 0, 0.00000000000000000000e+00) (0, 0, 0.00000000000000000000e+00) (0, 0, 0.00000000000000000000e+00) (0, 0, 0.00000000000000000000e+00) (0, 0, 0.00000000000000000000e+00) (0, 0, 0.00000000000000000000e+00) (0, 0, 0.00000000000000000000e+00) (0, 0, 0.00000000000000000000e+00) (0, 0, 0.00000000000000000000e+00) (0, 0, 0.00000000000000000000e+00) (0, 0, 0.00000000000000000000e+00) (0, 0, 0.00000000000000000000e+00) (0, 0, 0.00000000000000000000e+00) (0, 0, 0.00000000000000000000e+00) (0, 0, 0.00000000000000000000e+00) (0, 0, 0.00000000000000000000e+00) (0, 0, 0.00000000000000000000e+00) (0, 0, 0.00000000000000000000e+00) (0, 0, 0.00000000000000000000e+00) (0, 0, 0.00000000000000000000e+00) (0, 0, 0.00000000000000000000e+00) (0, 0, 0.00000000000000000000e+00) (0, 0, 0.00000000000000000000e+00) (0, 0, 0.00000000000000000000e+00) (0, 0, 0.00000000000000000000e+00) (0, 0, 0.00000000000000000000e+00) (0, 0, 0.00000000000000000000e+00) (0, 0, 0.00000000000000000000e+00) (0, 0, 0.00000000000000000000e+00) (0, 0, 0.00000000000000000000e+00) (0, 0, 0.00000000000000000000e+00) (0, 0, 0.00000000000000000000e+00) (0, 0, 0.00000000000000000000e+00) (0, 0, 0.00000000000000000000e+00) (0, 0, 0.00000000000000000000e+00) (0, 0, 0.00000000000000000000e+00) (0, 0, 0.00000000000000000000e+00) (0, 0, 0.00000000000000000000e+00) (0, 0, 0.00000000000000000000e+00) (0, 0, 0.00000000000000000000e+00) (0, 0, 0.00000000000000000000e+00) (0, 0, 0.00000000000000000000e+00) (0, 0, 0.00000000000000000000e+00) (0, 0, 0.00000000000000000000e+00) (0, 0, 0.00000000000000000000e+00) (0, 0, 0.00000000000000000000e+00) (0, 0, 0.00000000000000000000e+00) (0, 0, 0.00000000000000000000e+00) (0, 0, 0.00000000000000000000e+00) (0, 0, 0.00000000000000000000e+00) (0, 0, 0.00000000000000000000e+00) (0, 0, 0.00000000000000000000e+00) (0, 0, 0.00000000000000000000e+00) (0, 0, 0.00000000000000000000e+00) (0, 0, 0.00000000000000000000e+00) (0, 0, 0.00000000000000000000e+00) (0, 0, 0.00000000000000000000e+00) (0, 0, 0.00000000000000000000e+00) (0, 0, 0.00000000000000000000e+00) (0, 0, 0.00000000000000000000e+00) (0, 0, 0.00000000000000000000e+00) (0, 0, 0.00000000000000000000e+00) (0, 0, 0.00000000000000000000e+00) (0, 0, 0.00000000000000000000e+00) (0, 0, 0.00000000000000000000e+00) (0, 0, 0.00000000000000000000e+00) (0, 0, 0.00000000000000000000e+00) (0, 0, 0.00000000000000000000e+00) (0, 0, 0.00000000000000000000e+00) (0, 0, 0.00000000000000000000e+00) (0, 0, 0.00000000000000000000e+00) (0, 0, 0.00000000000000000000e+00) (0, 0, 0.00000000000000000000e+00) (0, 0, 0.00000000000000000000e+00) (0, 0, 0.00000000000000000000e+00) (0, 0, 0.00000000000000000000e+00) (0, 0, 0.00000000000000000000e+00) (0, 0, 0.00000000000000000000e+00) (0, 0, 0.00000000000000000000e+00) (0, 0, 0.00000000000000000000e+00) (0, 0, 0.00000000000000000000e+00) (0, 0, 0.00000000000000000000e+00) (0, 0, 0.00000000000000000000e+00) (0, 0, 0.00000000000000000000e+00) (0, 0, 0.00000000000000000000e+00) (0, 0, 0.00000000000000000000e+00) (0, 0, 0.00000000000000000000e+00) (0, 0, 0.00000000000000000000e+00) (0, 0, 0.00000000000000000000e+00) (0, 0, 0.00000000000000000000e+00) (0, 0, 0.00000000000000000000e+00) (0, 0, 0.00000000000000000000e+00) (0, 0, 0.00000000000000000000e+00) (0, 0, 0.00000000000000000000e+00) (0, 0, 0.00000000000000000000e+00) (0, 0, 0.00000000000000000000e+00) (0, 0, 0.00000000000000000000e+00) (0, 0, 0.00000000000000000000e+00) (0, 0, 0.00000000000000000000e+00) (0, 0, 0.00000000000000000000e+00) (0, 0, 0.00000000000000000000e+00) (0, 0, 0.00000000000000000000e+00) (0, 0, 0.00000000000000000000e+00) (0, 0, 0.00000000000000000000e+00) (0, 0, 0.00000000000000000000e+00) (0, 0, 0.00000000000000000000e+00) (0, 0, 0.00000000000000000000e+00) (0, 0, 0.00000000000000000000e+00) (0, 0, 0.00000000000000000000e+00) (0, 0, 0.00000000000000000000e+00) (0, 0, 0.00000000000000000000e+00) (0, 0, 0.00000000000000000000e+00) (0, 0, 0.00000000000000000000e+00) (0, 0, 0.00000000000000000000e+00) (0, 0, 0.00000000000000000000e+00) (0, 0, 0.00000000000000000000e+00) (0, 0, 0.00000000000000000000e+00) (0, 0, 0.00000000000000000000e+00) (0, 0, 0.00000000000000000000e+00) (0, 0, 0.00000000000000000000e+00) (0, 0, 0.00000000000000000000e+00) (0, 0, 0.00000000000000000000e+00) (0, 0, 0.00000000000000000000e+00) (0, 0, 0.00000000000000000000e+00) (0, 0, 0.00000000000000000000e+00) (0, 0, 0.00000000000000000000e+00) (0, 0, 0.00000000000000000000e+00) (0, 0, 0.00000000000000000000e+00) (0, 0, 0.00000000000000000000e+00) (0, 0, 0.00000000000000000000e+00) (0, 0, 0.00000000000000000000e+00) (0, 0, 0.00000000000000000000e+00) (0, 0, 0.00000000000000000000e+00) (0, 0, 0.00000000000000000000e+00) (0, 0, 0.00000000000000000000e+00) (0, 0, 0.00000000000000000000e+00) (0, 0, 0.00000000000000000000e+00) (0, 0, 0.00000000000000000000e+00) (0, 0, 0.00000000000000000000e+00) (0, 0, 0.00000000000000000000e+00) (0, 0, 0.00000000000000000000e+00) (0, 0, 0.00000000000000000000e+00) (0, 0, 0.00000000000000000000e+00) (0, 0, 0.00000000000000000000e+00) (0, 0, 0.00000000000000000000e+00) (0, 0, 0.00000000000000000000e+00) (0, 0, 0.00000000000000000000e+00) (0, 0, 0.00000000000000000000e+00) (0, 0, 0.00000000000000000000e+00) (0, 0, 0.00000000000000000000e+00) (0, 0, 0.00000000000000000000e+00) (0, 0, 0.00000000000000000000e+00) (0, 0, 0.00000000000000000000e+00) (0, 0, 0.00000000000000000000e+00) (0, 0, 0.00000000000000000000e+00) (0, 0, 0.00000000000000000000e+00) (0, 0, 0.00000000000000000000e+00) (0, 0, 0.00000000000000000000e+00) (0, 0, 0.00000000000000000000e+00) (0, 0, 0.00000000000000000000e+00) (0, 0, 0.00000000000000000000e+00) (0, 0, 0.00000000000000000000e+00) (0, 0, 0.00000000000000000000e+00) (0, 0, 0.00000000000000000000e+00) (0, 0, 0.00000000000000000000e+00) (0, 0, 0.00000000000000000000e+00) (0, 0, 0.00000000000000000000e+00) (0, 0, 0.00000000000000000000e+00) (0, 0, 0.00000000000000000000e+00) (0, 0, 0.00000000000000000000e+00) (0, 0, 0.00000000000000000000e+00) (0, 0, 0.00000000000000000000e+00) (0, 0, 0.00000000000000000000e+00) (0, 0, 0.00000000000000000000e+00) (0, 0, 0.00000000000000000000e+00) (0, 0, 0.00000000000000000000e+00) (0, 0, 0.00000000000000000000e+00) (0, 0, 0.00000000000000000000e+00) (0, 0, 0.00000000000000000000e+00) (0, 0, 0.00000000000000000000e+00) (0, 0, 0.00000000000000000000e+00) (0, 0, 0.00000000000000000000e+00) (0, 0, 0.00000000000000000000e+00) (0, 0, 0.00000000000000000000e+00) (0, 0, 0.00000000000000000000e+00) (0, 0, 0.00000000000000000000e+00) (0, 0, 0.00000000000000000000e+00) (0, 0, 0.00000000000000000000e+00) (0, 0, 0.00000000000000000000e+00) (0, 0, 0.00000000000000000000e+00) (0, 0, 0.00000000000000000000e+00) (0, 0, 0.00000000000000000000e+00) (0, 0, 0.00000000000000000000e+00) (0, 0, 0.00000000000000000000e+00) (0, 0, 0.00000000000000000000e+00) (0, 0, 0.00000000000000000000e+00) (0, 0, 0.00000000000000000000e+00) (0, 0, 0.00000000000000000000e+00) (0, 0, 0.00000000000000000000e+00) (0, 0, 0.00000000000000000000e+00) (0, 0, 0.00000000000000000000e+00) (0, 0, 0.00000000000000000000e+00) (0, 0, 0.00000000000000000000e+00) (0, 0, 0.00000000000000000000e+00) (0, 0, 0.00000000000000000000e+00) (0, 0, 0.00000000000000000000e+00) (0, 0, 0.00000000000000000000e+00) (0, 0, 0.00000000000000000000e+00) (0, 0, 0.00000000000000000000e+00) (0, 0, 0.00000000000000000000e+00) (0, 0, 0.00000000000000000000e+00) (0, 0, 0.00000000000000000000e+00) (0, 0, 0.00000000000000000000e+00) (0, 0, 0.00000000000000000000e+00) (0, 0, 0.00000000000000000000e+00) (0, 0, 0.00000000000000000000e+00) (0, 0, 0.00000000000000000000e+00) (0, 0, 0.00000000000000000000e+00) (0, 0, 0.00000000000000000000e+00) (0, 0, 0.00000000000000000000e+00) (0, 0, 0.00000000000000000000e+00) (0, 0, 0.00000000000000000000e+00) (0, 0, 0.00000000000000000000e+00) (0, 0, 0.00000000000000000000e+00) (0, 0, 0.00000000000000000000e+00) (0, 0, 0.00000000000000000000e+00) (0, 0, 0.00000000000000000000e+00) (0, 0, 0.00000000000000000000e+00) (0, 0, 0.00000000000000000000e+00) (0, 0, 0.00000000000000000000e+00) (0, 0, 0.00000000000000000000e+00) (0, 0, 0.00000000000000000000e+00) (0, 0, 0.00000000000000000000e+00) (0, 0, 0.00000000000000000000e+00) (0, 0, 0.00000000000000000000e+00) (0, 0, 0.00000000000000000000e+00) (0, 0, 0.00000000000000000000e+00) (0, 0, 0.00000000000000000000e+00) (0, 0, 0.00000000000000000000e+00) (0, 0, 0.00000000000000000000e+00) (0, 0, 0.00000000000000000000e+00) (0, 0, 0.00000000000000000000e+00) (0, 0, 0.00000000000000000000e+00) (0, 0, 0.00000000000000000000e+00) (0, 0, 0.00000000000000000000e+00) (0, 0, 0.00000000000000000000e+00) (0, 0, 0.00000000000000000000e+00) (0, 0, 0.00000000000000000000e+00) (0, 0, 0.00000000000000000000e+00) (0, 0, 0.00000000000000000000e+00) (0, 0, 0.00000000000000000000e+00) (0, 0, 0.00000000000000000000e+00) (0, 0, 0.00000000000000000000e+00) (0, 0, 0.00000000000000000000e+00) (0, 0, 0.00000000000000000000e+00) (0, 0, 0.00000000000000000000e+00) (0, 0, 0.00000000000000000000e+00) (0, 0, 0.00000000000000000000e+00) (0, 0, 0.00000000000000000000e+00) (0, 0, 0.00000000000000000000e+00) (0, 0, 0.00000000000000000000e+00) (0, 0, 0.00000000000000000000e+00) (0, 0, 0.00000000000000000000e+00) (0, 0, 0.00000000000000000000e+00) (0, 0, 0.00000000000000000000e+00) (0, 0, 0.00000000000000000000e+00) (0, 0, 0.00000000000000000000e+00) (0, 0, 0.00000000000000000000e+00) (0, 0, 0.00000000000000000000e+00) (0, 0, 0.00000000000000000000e+00) (0, 0, 0.00000000000000000000e+00) (0, 0, 0.00000000000000000000e+00) (0, 0, 0.00000000000000000000e+00) (0, 0, 0.00000000000000000000e+00) (0, 0, 0.00000000000000000000e+00) (0, 0, 0.00000000000000000000e+00) (0, 0, 0.00000000000000000000e+00) (0, 0, 0.00000000000000000000e+00) (626, 5, 5.00000000000000000000e-01) (626, 5, 5.00000000000000000000e-01) (626, 5, 5.00000000000000000000e-01) (626, 5, 5.00000000000000000000e-01) (626, 5, 5.00000000000000000000e-01) (626, 5, 5.00000000000000000000e-01) (626, 5, 5.00000000000000000000e-01) (626, 5, 5.00000000000000000000e-01) (626, 5, 5.00000000000000000000e-01) (626, 5, 5.00000000000000000000e-01) (626, 5, 5.00000000000000000000e-01) (626, 5, 5.00000000000000000000e-01) (626, 5, 5.00000000000000000000e-01) (626, 5, 5.00000000000000000000e-01) (626, 5, 5.00000000000000000000e-01) (626, 5, 5.00000000000000000000e-01) (626, 5, 5.00000000000000000000e-01) (626, 5, 5.00000000000000000000e-01) (626, 5, 5.00000000000000000000e-01) (626, 5, 5.00000000000000000000e-01) (626, 5, 5.00000000000000000000e-01) (626, 5, 5.00000000000000000000e-01) (626, 5, 5.00000000000000000000e-01) (626, 5, 5.00000000000000000000e-01) (626, 5, 5.00000000000000000000e-01) (626, 5, 5.00000000000000000000e-01) (626, 5, 5.00000000000000000000e-01) (626, 5, 5.00000000000000000000e-01) (626, 5, 5.00000000000000000000e-01) (626, 5, 5.00000000000000000000e-01) (626, 5, 5.00000000000000000000e-01) (626, 5, 5.00000000000000000000e-01) (626, 5, 5.00000000000000000000e-01) (626, 5, 5.00000000000000000000e-01) (626, 5, 5.00000000000000000000e-01) (626, 5, 5.00000000000000000000e-01) (626, 5, 5.00000000000000000000e-01) (626, 5, 5.00000000000000000000e-01) (626, 5, 5.00000000000000000000e-01) (626, 5, 5.00000000000000000000e-01) (626, 5, 5.00000000000000000000e-01) (626, 5, 5.00000000000000000000e-01) (626, 5, 5.00000000000000000000e-01) (626, 5, 5.00000000000000000000e-01) (626, 5, 5.00000000000000000000e-01) (626, 5, 5.00000000000000000000e-01) (626, 5, 5.00000000000000000000e-01) (626, 5, 5.00000000000000000000e-01) (626, 5, 5.00000000000000000000e-01) (626, 5, 5.00000000000000000000e-01) (626, 5, 5.00000000000000000000e-01) (626, 5, 5.00000000000000000000e-01) (626, 5, 5.00000000000000000000e-01) (626, 5, 5.00000000000000000000e-01) (626, 5, 5.00000000000000000000e-01) (626, 5, 5.00000000000000000000e-01) (626, 5, 5.00000000000000000000e-01) (626, 5, 5.00000000000000000000e-01) (626, 5, 5.00000000000000000000e-01) (626, 5, 5.00000000000000000000e-01) (0, 5, 0.00000000000000000000e+00) (61, 5, 5.00000000000000000000e-01) (61, 5, 5.00000000000000000000e-01) (61, 5, 5.00000000000000000000e-01) (61, 5, 5.00000000000000000000e-01) (61, 5, 5.00000000000000000000e-01) (61, 5, 5.00000000000000000000e-01) (61, 5, 5.00000000000000000000e-01) (61, 5, 5.00000000000000000000e-01) (61, 5, 5.00000000000000000000e-01) (61, 5, 5.00000000000000000000e-01) (61, 5, 5.00000000000000000000e-01) (61, 5, 5.00000000000000000000e-01) (61, 5, 5.00000000000000000000e-01) (61, 5, 5.00000000000000000000e-01) (61, 5, 5.00000000000000000000e-01) (61, 5, 5.00000000000000000000e-01) (61, 5, 5.00000000000000000000e-01) (61, 5, 5.00000000000000000000e-01) (61, 5, 5.00000000000000000000e-01) (61, 5, 5.00000000000000000000e-01) (61, 5, 5.00000000000000000000e-01) (61, 5, 5.00000000000000000000e-01) (61, 5, 5.00000000000000000000e-01) (61, 5, 5.00000000000000000000e-01) (61, 5, 5.00000000000000000000e-01) (61, 5, 5.00000000000000000000e-01) (61, 5, 5.00000000000000000000e-01) (61, 5, 5.00000000000000000000e-01) (61, 5, 5.00000000000000000000e-01) (61, 5, 5.00000000000000000000e-01) (61, 5, 5.00000000000000000000e-01) (61, 5, 5.00000000000000000000e-01) (61, 5, 5.00000000000000000000e-01) (61, 5, 5.00000000000000000000e-01) (61, 5, 5.00000000000000000000e-01) (61, 5, 5.00000000000000000000e-01) (61, 5, 5.00000000000000000000e-01) (61, 5, 5.00000000000000000000e-01) (61, 5, 5.00000000000000000000e-01) (61, 5, 5.00000000000000000000e-01) (61, 5, 5.00000000000000000000e-01) (61, 5, 5.00000000000000000000e-01) (61, 5, 5.00000000000000000000e-01) (61, 5, 5.00000000000000000000e-01) (61, 5, 5.00000000000000000000e-01) (61, 5, 5.00000000000000000000e-01) (61, 5, 5.00000000000000000000e-01) (61, 5, 5.00000000000000000000e-01) (61, 5, 5.00000000000000000000e-01) (61, 5, 5.00000000000000000000e-01) (61, 5, 5.00000000000000000000e-01) (61, 5, 5.00000000000000000000e-01) (61, 5, 5.00000000000000000000e-01) (61, 5, 5.00000000000000000000e-01) (61, 5, 5.00000000000000000000e-01) (61, 5, 5.00000000000000000000e-01) (61, 5, 5.00000000000000000000e-01) (61, 5, 5.00000000000000000000e-01) (61, 5, 5.00000000000000000000e-01) (61, 5, 5.00000000000000000000e-01) (0, 5, 0.00000000000000000000e+00) (61, 5, 5.00000000000000000000e-01) (61, 5, 5.00000000000000000000e-01) (61, 5, 5.00000000000000000000e-01) (61, 5, 5.00000000000000000000e-01) (61, 5, 5.00000000000000000000e-01) (61, 5, 5.00000000000000000000e-01) (61, 5, 5.00000000000000000000e-01) (61, 5, 5.00000000000000000000e-01) (61, 5, 5.00000000000000000000e-01) (61, 5, 5.00000000000000000000e-01) (61, 5, 5.00000000000000000000e-01) (61, 5, 5.00000000000000000000e-01) (61, 5, 5.00000000000000000000e-01) (61, 5, 5.00000000000000000000e-01) (61, 5, 5.00000000000000000000e-01) (61, 5, 5.00000000000000000000e-01) (61, 5, 5.00000000000000000000e-01) (61, 5, 5.00000000000000000000e-01) (61, 5, 5.00000000000000000000e-01) (61, 5, 5.00000000000000000000e-01) (61, 5, 5.00000000000000000000e-01) (61, 5, 5.00000000000000000000e-01) (61, 5, 5.00000000000000000000e-01) (61, 5, 5.00000000000000000000e-01) (61, 5, 5.00000000000000000000e-01) (61, 5, 5.00000000000000000000e-01) (61, 5, 5.00000000000000000000e-01) (61, 5, 5.00000000000000000000e-01) (61, 5, 5.00000000000000000000e-01) (61, 5, 5.00000000000000000000e-01) (61, 5, 5.00000000000000000000e-01) (61, 5, 5.00000000000000000000e-01) (61, 5, 5.00000000000000000000e-01) (61, 5, 5.00000000000000000000e-01) (61, 5, 5.00000000000000000000e-01) (61, 5, 5.00000000000000000000e-01) (61, 5, 5.00000000000000000000e-01) (61, 5, 5.00000000000000000000e-01) (61, 5, 5.00000000000000000000e-01) (61, 5, 5.00000000000000000000e-01) (61, 5, 5.00000000000000000000e-01) (61, 5, 5.00000000000000000000e-01) (61, 5, 5.00000000000000000000e-01) (61, 5, 5.00000000000000000000e-01) (61, 5, 5.00000000000000000000e-01) (61, 5, 5.00000000000000000000e-01) (61, 5, 5.00000000000000000000e-01) (61, 5, 5.00000000000000000000e-01) (61, 5, 5.00000000000000000000e-01) (61, 5, 5.00000000000000000000e-01) (61, 5, 5.00000000000000000000e-01) (61, 5, 5.00000000000000000000e-01) (61, 5, 5.00000000000000000000e-01) (61, 5, 5.00000000000000000000e-01) (61, 5, 5.00000000000000000000e-01) (61, 5, 5.00000000000000000000e-01) (61, 5, 5.00000000000000000000e-01) (61, 5, 5.00000000000000000000e-01) (61, 5, 5.00000000000000000000e-01) (61, 5, 5.00000000000000000000e-01) (61, 5, 5.00000000000000000000e-01) (61, 5, 5.00000000000000000000e-01) (61, 5, 5.00000000000000000000e-01) (61, 5, 5.00000000000000000000e-01) (61, 5, 5.00000000000000000000e-01) (61, 5, 5.00000000000000000000e-01) (61, 5, 5.00000000000000000000e-01) (61, 5, 5.00000000000000000000e-01) (61, 5, 5.00000000000000000000e-01) (61, 5, 5.00000000000000000000e-01) (61, 5, 5.00000000000000000000e-01) (61, 5, 5.00000000000000000000e-01) (61, 5, 5.00000000000000000000e-01) (61, 5, 5.00000000000000000000e-01) (61, 5, 5.00000000000000000000e-01) (61, 5, 5.00000000000000000000e-01) (61, 5, 5.00000000000000000000e-01) (61, 5, 5.00000000000000000000e-01) (61, 5, 5.00000000000000000000e-01) (61, 5, 5.00000000000000000000e-01) (61, 5, 5.00000000000000000000e-01) (61, 5, 5.00000000000000000000e-01) (61, 5, 5.00000000000000000000e-01) (61, 5, 5.00000000000000000000e-01) (61, 5, 5.00000000000000000000e-01) (61, 5, 5.00000000000000000000e-01) (61, 5, 5.00000000000000000000e-01) (61, 5, 5.00000000000000000000e-01) (61, 5, 5.00000000000000000000e-01) (61, 5, 5.00000000000000000000e-01) (61, 5, 5.00000000000000000000e-01) (61, 5, 5.00000000000000000000e-01) (61, 5, 5.00000000000000000000e-01) (61, 5, 5.00000000000000000000e-01) (0, 5, 0.00000000000000000000e+00) 
connections (connected_to_neuron, weight)=(0, -6.56040757894515991211e-02) (1, 5.99589087069034576416e-02) (2, 1.31242498755455017090e-01) (3, -8.08239281177520751953e-02) (4, -6.33408725261688232422e-02) (5, -5.99475242197513580322e-02) (6, -1.49111643433570861816e-01) (7, -1.02120369672775268555e-01) (8, -2.10829041898250579834e-02) (9, 1.02654770016670227051e-01) (10, 9.69948619604110717773e-02) (11, 3.51252667605876922607e-02) (12, -1.89628317952156066895e-01) (13, 9.89933907985687255859e-02) (14, -6.69184625148773193359e-02) (15, -1.05268806219100952148e-01) (16, -1.64242252707481384277e-01) (17, 9.47161167860031127930e-02) (18, 2.00326703488826751709e-02) (19, 5.22584728896617889404e-02) (20, 8.98197889328002929688e-02) (21, 1.93299874663352966309e-01) (22, 1.19664773344993591309e-01) (23, -6.17531724274158477783e-02) (24, 1.26346508041024208069e-02) (25, 1.74301698803901672363e-01) (26, 1.71199455857276916504e-01) (27, 3.22207301855087280273e-01) (28, -1.22112706303596496582e-01) (29, 4.24335785210132598877e-02) (30, -2.17355117201805114746e-02) (31, -6.58484101295471191406e-02) (32, -2.81174510717391967773e-01) (33, -6.56461566686630249023e-02) (34, -1.02421483024954795837e-02) (35, -1.15935847163200378418e-01) (36, -1.33180722594261169434e-01) (37, -1.58174484968185424805e-02) (38, -4.40028496086597442627e-02) (39, -9.97970700263977050781e-02) (40, -1.81512370705604553223e-01) (41, -1.13585308194160461426e-01) (42, -1.08314111828804016113e-01) (43, -1.39732673764228820801e-01) (44, 2.24680602550506591797e-02) (45, -1.11248521134257316589e-02) (46, 7.94269740581512451172e-02) (47, 2.25258901715278625488e-01) (48, -1.24325072392821311951e-02) (49, 6.94166272878646850586e-02) (50, 2.26177945733070373535e-01) (51, 2.69795447587966918945e-01) (52, 3.10797005891799926758e-01) (53, -4.75397370755672454834e-02) (54, -1.32947430014610290527e-01) (55, 2.13879927992820739746e-01) (56, -2.24199555814266204834e-02) (57, -1.06302276253700256348e-01) (58, -7.09409415721893310547e-02) (59, -8.80674272775650024414e-02) (60, -6.25317078083753585815e-03) (61, 1.24274611473083496094e-01) (62, -5.95005862414836883545e-02) (63, -7.19714760780334472656e-02) (64, 1.18407800793647766113e-01) (65, 1.32136926054954528809e-01) (66, 5.55806048214435577393e-02) (67, 1.45516559481620788574e-01) (68, -1.79502949118614196777e-01) (69, 1.52841135859489440918e-01) (70, 4.15393374860286712646e-02) (71, 9.35107767581939697266e-02) (72, 1.46520897746086120605e-01) (73, -8.93853455781936645508e-02) (74, 9.08145606517791748047e-02) (75, 1.84364840388298034668e-01) (76, 1.53200522065162658691e-01) (77, 2.40445397794246673584e-02) (78, 2.79683619737625122070e-02) (79, 8.22039693593978881836e-02) (80, 1.41880676150321960449e-01) (81, 7.17462599277496337891e-02) (82, 8.20691790431737899780e-03) (83, -3.60037498176097869873e-02) (84, 8.65942537784576416016e-02) (85, -8.12809616327285766602e-02) (86, 2.94448025524616241455e-02) (87, -4.28836606442928314209e-02) (88, 9.41297505050897598267e-03) (89, 2.90388762950897216797e-02) (90, 1.83675214648246765137e-01) (91, 1.28768697381019592285e-01) (92, -1.74077615141868591309e-01) (93, -1.44711390137672424316e-01) (94, 1.21354892849922180176e-01) (95, 1.46803393959999084473e-01) (96, 1.01689994335174560547e-01) (97, 6.06628172099590301514e-02) (98, -4.88380454480648040771e-02) (99, 1.70445181429386138916e-02) (100, 3.97686325013637542725e-02) (101, -1.30753591656684875488e-01) (102, 5.81883974373340606689e-02) (103, 3.53284068405628204346e-02) (104, -6.27286881208419799805e-02) (105, -8.38243514299392700195e-02) (106, 1.13209620118141174316e-01) (107, -6.01298324763774871826e-02) (108, 4.12684708833694458008e-01) (109, 1.11403286457061767578e-01) (110, -1.28473624587059020996e-01) (111, 3.67492698132991790771e-02) (112, 1.42238929867744445801e-01) (113, -1.07833608984947204590e-01) (114, -4.21101562678813934326e-02) (115, -2.12786346673965454102e-02) (116, -1.11616877838969230652e-02) (117, -9.00123268365859985352e-02) (118, -3.18199805915355682373e-02) (119, 4.50860895216464996338e-02) (120, 8.72614681720733642578e-02) (121, -6.00910149514675140381e-02) (122, -6.53498768806457519531e-02) (123, 2.00087530538439750671e-03) (124, -2.39901579916477203369e-02) (125, -1.16508647799491882324e-01) (126, -2.95390598475933074951e-02) (127, 7.90022462606430053711e-02) (128, -4.91696707904338836670e-02) (129, -4.50406502932310104370e-03) (130, -7.00766444206237792969e-02) (131, 2.52655148506164550781e-02) (132, 1.56198248267173767090e-01) (133, 1.59651134163141250610e-03) (134, -2.18105539679527282715e-01) (135, 4.98114190995693206787e-02) (136, 9.37847197055816650391e-02) (137, 2.99764961004257202148e-01) (138, 2.18357332050800323486e-02) (139, -1.90242864191532135010e-02) (140, -2.40249112248420715332e-02) (141, -4.49788291007280349731e-03) (142, -8.43238830566406250000e-02) (143, 8.01976025104522705078e-02) (144, 1.03479936718940734863e-01) (145, -4.32006753981113433838e-02) (146, -6.17793984711170196533e-02) (147, -8.90189558267593383789e-02) (148, -1.57263234257698059082e-01) (149, -1.62045285105705261230e-01) (150, -1.17271125316619873047e-01) (151, -5.68385757505893707275e-02) (152, -1.81176811456680297852e-02) (153, -4.09286133944988250732e-02) (154, 7.60118216276168823242e-02) (155, 1.02144673466682434082e-01) (156, -3.33662964403629302979e-02) (157, 7.52396732568740844727e-02) (158, 4.83733154833316802979e-02) (159, -1.15868344902992248535e-01) (160, 2.26529315114021301270e-02) (161, 1.61158397793769836426e-01) (162, 1.01669132709503173828e-01) (163, -2.81237810850143432617e-01) (164, -1.86600461602210998535e-01) (165, -6.48478418588638305664e-02) (166, -3.96911315619945526123e-02) (167, -1.82814463973045349121e-01) (168, -2.70539186894893646240e-02) (169, -9.81983989477157592773e-02) (170, -1.73846073448657989502e-02) (171, -1.86225667595863342285e-01) (172, 6.05014227330684661865e-02) (173, 6.88920915126800537109e-02) (174, -7.33132213354110717773e-02) (175, -1.39552429318428039551e-01) (176, -2.57869452238082885742e-01) (177, -4.99458126723766326904e-02) (178, 9.59469825029373168945e-02) (179, 5.59126324951648712158e-02) (180, 1.77147343754768371582e-01) (181, 1.37656375765800476074e-01) (182, 1.03089613839983940125e-02) (183, 2.38714274019002914429e-03) (184, 6.34935498237609863281e-02) (185, -1.38774499297142028809e-01) (186, 6.19505383074283599854e-02) (187, -1.77320793271064758301e-01) (188, -1.56949445605278015137e-01) (189, -1.98384955525398254395e-01) (190, -2.35309883952140808105e-01) (191, -1.40089824795722961426e-01) (192, -2.12553814053535461426e-01) (193, -1.55581608414649963379e-01) (194, 1.19256392121315002441e-01) (195, -2.14371666312217712402e-01) (196, -2.21089348196983337402e-01) (197, -9.00615304708480834961e-02) (198, -1.82642564177513122559e-01) (199, -1.46965011954307556152e-01) (200, -1.12291634082794189453e-01) (201, -2.25923880934715270996e-02) (202, 9.26995128393173217773e-02) (203, 1.73532560467720031738e-01) (204, 2.09078207612037658691e-01) (205, 2.47313156723976135254e-01) (206, 2.10417941212654113770e-01) (207, 1.09972327947616577148e-01) (208, 2.10874274373054504395e-01) (209, -1.20231658220291137695e-01) (210, -1.01067528128623962402e-01) (211, 1.20522649958729743958e-02) (212, -1.90502293407917022705e-02) (213, -1.20961964130401611328e-01) (214, -1.39200702309608459473e-01) (215, 3.30687128007411956787e-02) (216, -6.27969484776258468628e-03) (217, -9.48185771703720092773e-02) (218, 1.32831349968910217285e-01) (219, 1.92212209105491638184e-01) (220, 4.04373742640018463135e-02) (221, -1.07718855142593383789e-01) (222, -2.89951376616954803467e-02) (223, -1.07825696468353271484e-01) (224, -7.17057008296251296997e-03) (225, -3.95660363137722015381e-02) (226, -1.93963386118412017822e-02) (227, 6.79670572280883789062e-02) (228, -8.74461233615875244141e-02) (229, 9.05790831893682479858e-03) (230, -6.98039531707763671875e-02) (231, 7.26468563079833984375e-02) (232, -1.46453782916069030762e-01) (233, 1.59468159079551696777e-01) (234, -9.29560661315917968750e-02) (235, -4.48121912777423858643e-02) (236, -1.31442472338676452637e-01) (237, -1.72718055546283721924e-02) (238, -6.95102065801620483398e-02) (239, 5.50841726362705230713e-02) (240, 7.79994875192642211914e-02) (241, 3.18661369383335113525e-02) (242, 4.24720384180545806885e-02) (243, 1.69280953705310821533e-02) (244, -1.17884323000907897949e-01) (245, 6.53584599494934082031e-02) (246, -7.95312672853469848633e-02) (247, -2.46357515454292297363e-01) (248, -2.48194746673107147217e-02) (249, 2.32936874032020568848e-01) (250, 5.01510836184024810791e-02) (251, 1.06071814894676208496e-01) (252, 6.74837678670883178711e-02) (253, 2.28414088487625122070e-02) (254, -5.57281114161014556885e-02) (255, 5.97515590488910675049e-02) (256, -3.15313600003719329834e-02) (257, -5.12446574866771697998e-02) (258, 2.56916042417287826538e-03) (259, 9.77297872304916381836e-02) (260, 1.23158797621726989746e-01) (261, 4.34056036174297332764e-02) (262, -7.31694847345352172852e-02) (263, 7.65793211758136749268e-03) (264, 2.88117155432701110840e-02) (265, 1.16609679535031318665e-02) (266, 6.59060925245285034180e-02) (267, 4.05395440757274627686e-02) (268, -4.53465320169925689697e-02) (269, -2.10932157933712005615e-02) (270, -1.81360974907875061035e-01) (271, -1.87173038721084594727e-02) (272, 1.93184465169906616211e-02) (273, 4.49839718639850616455e-02) (274, 2.16909006237983703613e-01) (275, -1.23316690325736999512e-01) (276, 7.87928253412246704102e-02) (277, -1.76195397973060607910e-01) (278, -1.64672240614891052246e-01) (279, -7.22204893827438354492e-02) (280, -1.05168566107749938965e-01) (281, -2.00501784682273864746e-01) (282, -1.04590773582458496094e-01) (283, -2.35952399671077728271e-02) (284, -3.31938453018665313721e-02) (285, 9.35186296701431274414e-02) (286, -7.99028854817152023315e-03) (287, -2.26864181458950042725e-02) (288, -5.21814413368701934814e-02) (289, -4.32804878801107406616e-03) (290, 2.33236566185951232910e-01) (291, 4.18135561048984527588e-02) (292, -1.57887235283851623535e-01) (293, -2.07991912961006164551e-01) (294, -7.80415767803788185120e-03) (295, 1.49185553193092346191e-01) (296, -1.48613727651536464691e-03) (297, 1.50006845593452453613e-01) (298, 2.21977069973945617676e-01) (299, 1.13864079117774963379e-01) (300, -3.17940227687358856201e-02) (301, -2.20749035477638244629e-01) (302, -1.25376418232917785645e-01) (303, -1.30272028036415576935e-03) (304, 1.10935688018798828125e-01) (305, -2.62880176305770874023e-02) (306, -1.93918541073799133301e-01) (307, -5.66498301923274993896e-02) (308, -6.77786674350500106812e-03) (309, 7.73633457720279693604e-03) (310, 1.26086279749870300293e-01) (311, -2.01591057702898979187e-03) (312, 5.72065301239490509033e-02) (313, -1.01878494024276733398e-01) (314, 9.94194950908422470093e-03) (315, 1.14695072174072265625e-01) (316, -5.15421964228153228760e-02) (317, -1.44962862133979797363e-01) (318, -1.03573173284530639648e-01) (319, -1.07266485691070556641e-01) (320, 5.89739643037319183350e-02) (321, -9.71952229738235473633e-02) (322, 1.17539718747138977051e-01) (323, -6.73085302114486694336e-02) (324, 7.47272372245788574219e-02) (325, -9.56639498472213745117e-02) (326, -2.35522910952568054199e-01) (327, -2.43499025702476501465e-01) (328, -1.18297919631004333496e-01) (329, -2.43691638112068176270e-01) (330, -5.71352429687976837158e-02) (331, -1.16528972983360290527e-01) (332, -2.07808330655097961426e-01) (333, 4.85788024961948394775e-02) (334, 1.34573087096214294434e-01) (335, 4.28061746060848236084e-02) (336, -8.28666239976882934570e-02) (337, 3.27409319579601287842e-02) (338, -4.67124246060848236084e-02) (339, -7.54929035902023315430e-02) (340, 1.45139405503869056702e-02) (341, 2.10902355611324310303e-02) (342, -8.63745957612991333008e-02) (343, -9.01875644922256469727e-02) (344, -8.65267813205718994141e-02) (345, -5.25563247501850128174e-02) (346, 1.65109410881996154785e-01) (347, 3.00383642315864562988e-02) (348, 3.35193090140819549561e-02) (349, 9.57336723804473876953e-02) (350, -1.34091181680560112000e-02) (351, -3.09105545282363891602e-01) (352, -3.02243798971176147461e-01) (353, -1.16663932800292968750e-01) (354, -2.84095197916030883789e-01) (355, -6.83335363864898681641e-02) (356, -1.89014561474323272705e-02) (357, -1.15817874670028686523e-01) (358, 8.62043946981430053711e-02) (359, 4.81872968375682830811e-02) (360, -1.32268154993653297424e-02) (361, 4.73322719335556030273e-03) (362, -7.05574452877044677734e-02) (363, 1.62290289998054504395e-01) (364, -1.32445827126502990723e-01) (365, -7.65001773834228515625e-02) (366, 8.96960943937301635742e-02) (367, -3.32743711769580841064e-02) (368, -3.87203879654407501221e-02) (369, 1.76328816451132297516e-03) (370, 1.89986512064933776855e-01) (371, -7.11409002542495727539e-02) (372, -9.30355638265609741211e-02) (373, -1.46124020218849182129e-01) (374, 1.20621427893638610840e-01) (375, -7.92062431573867797852e-02) (376, -1.81015446782112121582e-01) (377, -8.48142057657241821289e-02) (378, -2.96251744031906127930e-01) (379, -1.95253476500511169434e-01) (380, -8.16304981708526611328e-02) (381, -9.29625332355499267578e-02) (382, 1.31897255778312683105e-01) (383, 6.06543235480785369873e-02) (384, 6.00190795958042144775e-02) (385, -1.55464723706245422363e-01) (386, -7.84464776515960693359e-02) (387, -1.28156289458274841309e-01) (388, -3.76199278980493545532e-03) (389, -1.72849908471107482910e-01) (390, 8.20547640323638916016e-02) (391, -1.34321257472038269043e-01) (392, 1.19409978389739990234e-01) (393, -1.52075216174125671387e-01) (394, -4.53180111944675445557e-02) (395, 1.55974403023719787598e-01) (396, 1.80051699280738830566e-01) (397, -7.24492669105529785156e-02) (398, -2.01056785881519317627e-02) (399, 1.92001208662986755371e-01) (400, -1.83318451046943664551e-01) (401, -1.78841337561607360840e-01) (402, -2.74894148111343383789e-01) (403, -1.64947047829627990723e-01) (404, -3.49639616906642913818e-02) (405, -6.93442374467849731445e-02) (406, 7.01915919780731201172e-02) (407, -9.46981906890869140625e-02) (408, 1.81134745478630065918e-01) (409, 7.47650861740112304688e-02) (410, 8.66730809211730957031e-02) (411, -5.03280423581600189209e-02) (412, -6.66071753948926925659e-03) (413, 1.72851793467998504639e-03) (414, -2.78279691934585571289e-01) (415, 5.47056756913661956787e-02) (416, -1.93295516073703765869e-02) (417, 1.83928348124027252197e-02) (418, -5.86902610957622528076e-02) (419, 1.07493922114372253418e-01) (420, 1.79577767848968505859e-02) (421, 1.45582690834999084473e-01) (422, -1.22604474425315856934e-01) (423, 4.02941294014453887939e-02) (424, 3.73237095773220062256e-02) (425, -2.60424762964248657227e-01) (426, -3.02788943052291870117e-01) (427, -2.42350056767463684082e-01) (428, -1.72046348452568054199e-01) (429, -2.39862099289894104004e-01) (430, -1.35163947939872741699e-01) (431, 5.08748739957809448242e-03) (432, -7.99773167818784713745e-03) (433, 1.90543100237846374512e-01) (434, 1.06267901137471199036e-02) (435, 6.08491785824298858643e-02) (436, -7.96703994274139404297e-02) (437, 9.45816636085510253906e-02) (438, -1.34612277150154113770e-01) (439, -2.05755718052387237549e-02) (440, 5.95505423843860626221e-02) (441, -4.70051579177379608154e-02) (442, 5.75343556702136993408e-02) (443, 4.36263866722583770752e-02) (444, 8.26293975114822387695e-02) (445, 2.79226191341876983643e-02) (446, -5.17561994493007659912e-02) (447, 4.20340038836002349854e-02) (448, 3.40944416821002960205e-02) (449, 5.35897873342037200928e-02) (450, 3.50449346005916595459e-02) (451, -1.11087828874588012695e-01) (452, -8.42314958572387695312e-02) (453, 6.39808326959609985352e-02) (454, 4.08305712044239044189e-02) (455, 6.83753285557031631470e-03) (456, 1.25005096197128295898e-01) (457, 1.99083194136619567871e-01) (458, 7.50118643045425415039e-02) (459, -9.43924784660339355469e-02) (460, -6.12054951488971710205e-02) (461, -8.97297561168670654297e-02) (462, 1.08224451541900634766e-01) (463, -4.57489304244518280029e-02) (464, 2.31418162584304809570e-02) (465, 1.12476468086242675781e-01) (466, -2.74173617362976074219e-02) (467, 1.34826198220252990723e-01) (468, 5.41336573660373687744e-02) (469, 1.41205891966819763184e-01) (470, 1.18968382477760314941e-01) (471, -3.09979543089866638184e-02) (472, 5.26029728353023529053e-02) (473, -1.00349143147468566895e-01) (474, 3.25717963278293609619e-02) (475, 1.25056624412536621094e-01) (476, 8.09795558452606201172e-02) (477, 4.92189340293407440186e-02) (478, 1.28532037138938903809e-01) (479, 1.98971018195152282715e-01) (480, 2.62263149023056030273e-01) (481, 2.91214674711227416992e-01) (482, 2.29239091277122497559e-01) (483, 2.26804062724113464355e-01) (484, 7.80979841947555541992e-02) (485, 5.30859269201755523682e-03) (486, -3.19516845047473907471e-02) (487, 1.02936193346977233887e-01) (488, -3.06788571178913116455e-02) (489, 8.95627439022064208984e-02) (490, 7.17739760875701904297e-02) (491, 3.25449444353580474854e-02) (492, -1.72914378345012664795e-02) (493, 4.59158793091773986816e-03) (494, -1.01179972290992736816e-01) (495, -1.90736353397369384766e-02) (496, -5.85572682321071624756e-02) (497, -2.91138738393783569336e-02) (498, -1.91781595349311828613e-02) (499, 4.01100255548954010010e-02) (500, -1.65974959731101989746e-01) (501, -1.77469700574874877930e-02) (502, 1.37597145512700080872e-02) (503, 1.65499895811080932617e-02) (504, -1.34073579683899879456e-02) (505, 1.17725625634193420410e-01) (506, 1.15606769919395446777e-01) (507, 3.41072648763656616211e-01) (508, 3.46960462629795074463e-02) (509, 1.68414488434791564941e-01) (510, 1.41403630375862121582e-01) (511, 2.65839323401451110840e-02) (512, 2.78142020106315612793e-02) (513, 2.91833877563476562500e-02) (514, 5.52414543926715850830e-02) (515, 4.29995544254779815674e-02) (516, 2.43981033563613891602e-02) (517, 2.78224237263202667236e-02) (518, -2.15374186635017395020e-01) (519, -7.92339444160461425781e-02) (520, -1.03597551584243774414e-01) (521, -4.14618141949176788330e-02) (522, -1.10490739345550537109e-01) (523, -1.12803712487220764160e-01) (524, 1.60638950765132904053e-02) (525, 2.49842658638954162598e-01) (526, 2.03416153788566589355e-01) (527, 2.02386155724525451660e-01) (528, 3.88326980173587799072e-02) (529, 5.12036420404911041260e-02) (530, -1.36333620175719261169e-02) (531, 1.09589606523513793945e-01) (532, -4.06481884419918060303e-02) (533, 3.02166908979415893555e-01) (534, -6.04172702878713607788e-03) (535, 6.06450326740741729736e-02) (536, -1.27834593877196311951e-02) (537, 7.02394843101501464844e-02) (538, -1.49884358048439025879e-01) (539, -1.27333834767341613770e-01) (540, 1.26797005534172058105e-01) (541, -1.90060690045356750488e-01) (542, -1.31190195679664611816e-01) (543, 1.59688368439674377441e-01) (544, -9.22062546014785766602e-02) (545, -1.10728502273559570312e-01) (546, -2.39639326930046081543e-01) (547, -1.26733794808387756348e-01) (548, 3.86961363255977630615e-02) (549, 1.24921448528766632080e-01) (550, 1.50421276688575744629e-01) (551, 5.10156340897083282471e-02) (552, 1.13724380731582641602e-01) (553, 1.79818645119667053223e-01) (554, 4.32829596102237701416e-02) (555, 1.56289383769035339355e-01) (556, -1.06582203879952430725e-02) (557, 1.55706033110618591309e-01) (558, 1.79947003722190856934e-01) (559, 9.80119705200195312500e-02) (560, -3.60947893932461738586e-03) (561, -1.48561850190162658691e-01) (562, -1.20678246021270751953e-01) (563, 7.06266611814498901367e-02) (564, 9.60113257169723510742e-02) (565, -1.12758249044418334961e-01) (566, 2.46495231986045837402e-02) (567, -5.98447434604167938232e-02) (568, 4.59222830832004547119e-02) (569, 1.35670220479369163513e-02) (570, -2.73313932120800018311e-02) (571, 2.86488085985183715820e-02) (572, -8.99783819913864135742e-02) (573, -1.08924359083175659180e-01) (574, 6.48259967565536499023e-02) (575, -5.44117726385593414307e-02) (576, 4.65409643948078155518e-02) (577, -6.26478940248489379883e-02) (578, -5.37060908973217010498e-02) (579, -1.39111027121543884277e-01) (580, -3.07858511805534362793e-02) (581, -1.59269317984580993652e-01) (582, -1.02102085947990417480e-01) (583, -4.78573255240917205811e-02) (584, -7.57581144571304321289e-02) (585, 6.60770833492279052734e-02) (586, -1.25046715140342712402e-01) (587, -3.06552499532699584961e-01) (588, -5.91202639043331146240e-02) (589, -6.29110783338546752930e-02) (590, -1.41977265477180480957e-01) (591, -1.81824304163455963135e-02) (592, -3.34567064419388771057e-03) (593, -6.98664188385009765625e-02) (594, 7.36134052276611328125e-02) (595, -1.75972178578376770020e-01) (596, -2.25193634629249572754e-01) (597, -1.49777576327323913574e-01) (598, -2.42292985320091247559e-01) (599, 2.04395726323127746582e-02) (600, -2.19971016049385070801e-02) (601, 7.55653437227010726929e-03) (602, -3.56596373021602630615e-02) (603, -9.07216314226388931274e-03) (604, 1.77728071808815002441e-01) (605, 2.75196343660354614258e-01) (606, 2.04376980662345886230e-01) (607, 4.85527552664279937744e-02) (608, -3.63882221281528472900e-02) (609, -2.80875056982040405273e-01) (610, -1.66896924376487731934e-01) (611, 2.29252278804779052734e-02) (612, -2.35668882727622985840e-01) (613, 1.51802701875567436218e-02) (614, -1.21689468622207641602e-01) (615, 3.41744311153888702393e-02) (616, 3.02109941840171813965e-02) (617, -7.56862480193376541138e-03) (618, 3.92822958528995513916e-02) (619, 1.03589192032814025879e-01) (620, 4.96248714625835418701e-02) (621, -1.82691439986228942871e-02) (622, 8.41094553470611572266e-02) (623, 2.22604237496852874756e-02) (624, -7.61869736015796661377e-03) (625, -9.10553455352783203125e-01) (0, -3.84934216737747192383e-01) (1, -6.11676089465618133545e-02) (2, -2.67366450279951095581e-02) (3, 2.02010303735733032227e-01) (4, 2.20310866832733154297e-01) (5, 3.39080065488815307617e-01) (6, 2.01093912124633789062e-01) (7, -1.06784455478191375732e-01) (8, -8.91338847577571868896e-03) (9, -5.92462206259369850159e-03) (10, 5.24553321301937103271e-02) (11, -2.48226840049028396606e-02) (12, 3.74599136412143707275e-02) (13, 4.21550758183002471924e-02) (14, 3.46022509038448333740e-02) (15, 1.36096864938735961914e-01) (16, 5.12257851660251617432e-02) (17, -5.35024441778659820557e-02) (18, -2.28961855173110961914e-01) (19, -8.69167074561119079590e-02) (20, 2.67257183790206909180e-01) (21, 4.35783527791500091553e-02) (22, -1.02599181234836578369e-01) (23, 3.38196069002151489258e-01) (24, 1.63071662187576293945e-01) (25, 6.21499009430408477783e-02) (26, -9.92891564965248107910e-02) (27, -5.89822642505168914795e-02) (28, 2.79741793870925903320e-01) (29, -7.19291344285011291504e-02) (30, -9.66895893216133117676e-02) (31, -9.17288586497306823730e-02) (32, -1.91499087959527969360e-02) (33, -1.13961495459079742432e-01) (34, -1.84292107820510864258e-01) (35, -1.40512287616729736328e-01) (36, 5.08246244862675666809e-03) (37, -7.79911950230598449707e-02) (38, -5.18412590026855468750e-01) (39, -2.08886951208114624023e-01) (40, -3.53827685117721557617e-01) (41, -2.95397371053695678711e-01) (42, -2.51850813627243041992e-01) (43, -1.87380880117416381836e-01) (44, -7.79059752821922302246e-02) (45, -1.56222619116306304932e-02) (46, 1.54285043478012084961e-01) (47, 5.88861294090747833252e-02) (48, 3.73792082071304321289e-01) (49, 1.78226530551910400391e-01) (50, -3.54581885039806365967e-02) (51, -1.84070225805044174194e-02) (52, -1.74177642911672592163e-02) (53, 2.01153427362442016602e-01) (54, 8.18024948239326477051e-02) (55, 4.47810702025890350342e-02) (56, -1.41842067241668701172e-01) (57, -2.97050446271896362305e-01) (58, -1.51214182376861572266e-01) (59, 3.25754024088382720947e-02) (60, 4.42372495308518409729e-03) (61, -1.23733781278133392334e-01) (62, -1.06809057295322418213e-01) (63, -2.77483075857162475586e-01) (64, -1.72702252864837646484e-01) (65, -3.69487740099430084229e-02) (66, -1.52290195226669311523e-01) (67, -5.03759318962693214417e-03) (68, -7.30937346816062927246e-02) (69, 9.65312942862510681152e-02) (70, 3.63435558974742889404e-02) (71, 3.20465825498104095459e-02) (72, -7.42083713412284851074e-02) (73, 3.53901475667953491211e-01) (74, 2.07032799720764160156e-01) (75, -4.36437688767910003662e-02) (76, -1.11474487930536270142e-02) (77, -1.21649391949176788330e-01) (78, 5.89902363717555999756e-02) (79, 2.30623871088027954102e-01) (80, 1.69023999478667974472e-03) (81, -9.64031182229518890381e-03) (82, -1.05143345892429351807e-01) (83, 1.27005547285079956055e-01) (84, -2.54615217447280883789e-01) (85, 9.83628556132316589355e-02) (86, -1.02683547884225845337e-02) (87, -5.88251836597919464111e-02) (88, -1.51070564985275268555e-01) (89, -1.44139856100082397461e-01) (90, 6.48246183991432189941e-02) (91, -1.44162252545356750488e-02) (92, 1.23401872813701629639e-01) (93, 5.72308786213397979736e-02) (94, -7.84682705998420715332e-02) (95, 4.99036572873592376709e-02) (96, 2.09693700075149536133e-01) (97, -2.17439144849777221680e-01) (98, 2.56713360548019409180e-01) (99, -7.42953345179557800293e-02) (100, 4.75246878340840339661e-03) (101, -5.89304082095623016357e-02) (102, -7.63845965266227722168e-02) (103, -1.13096702843904495239e-02) (104, 1.10369019210338592529e-01) (105, 5.72668723762035369873e-02) (106, 2.18733828514814376831e-02) (107, 9.48308631777763366699e-02) (108, 1.39132350683212280273e-01) (109, -1.90503507852554321289e-01) (110, 1.38948053121566772461e-01) (111, -6.83455541729927062988e-02) (112, 3.69728691875934600830e-02) (113, -2.58582383394241333008e-01) (114, -1.84686630964279174805e-01) (115, 6.75655826926231384277e-02) (116, -1.11975036561489105225e-01) (117, -3.41877969913184642792e-03) (118, -8.75402167439460754395e-02) (119, 2.91843083687126636505e-03) (120, 5.90704614296555519104e-03) (121, 1.31322853267192840576e-02) (122, -1.85482740402221679688e-01) (123, -1.58732444047927856445e-01) (124, -3.03194131702184677124e-02) (125, -2.18644678592681884766e-01) (126, 7.46424263343214988708e-03) (127, 1.36430989950895309448e-02) (128, 1.52592629194259643555e-01) (129, -4.81064729392528533936e-02) (130, 1.41751587390899658203e-01) (131, 7.78373256325721740723e-02) (132, -5.65089471638202667236e-02) (133, 6.37213364243507385254e-02) (134, -1.02713800966739654541e-01) (135, -1.15283004939556121826e-01) (136, -1.36612147092819213867e-01) (137, 8.97736325860023498535e-02) (138, -2.52812892198562622070e-01) (139, -1.73535883426666259766e-01) (140, 4.08478640019893646240e-02) (141, -1.01373083889484405518e-01) (142, -1.02833025157451629639e-01) (143, 8.27471539378166198730e-03) (144, -9.11533273756504058838e-03) (145, -2.30956494808197021484e-01) (146, 4.24138195812702178955e-02) (147, -1.52146905660629272461e-01) (148, -7.49548301100730895996e-02) (149, -2.57203310728073120117e-01) (150, 1.45789474248886108398e-01) (151, 1.49093240499496459961e-01) (152, 3.53284388780593872070e-01) (153, -1.61707997322082519531e-01) (154, -7.40040913224220275879e-02) (155, -3.74428071081638336182e-02) (156, 8.01149010658264160156e-03) (157, -2.38894950598478317261e-02) (158, 8.98561701178550720215e-02) (159, 1.30705714225769042969e-01) (160, -3.09051778167486190796e-02) (161, 1.32678169757127761841e-02) (162, -2.85902947187423706055e-01) (163, -1.67146593332290649414e-01) (164, -3.34982015192508697510e-02) (165, -1.21863707900047302246e-02) (166, -1.63006246089935302734e-01) (167, -3.57225281186401844025e-03) (168, 1.13105826079845428467e-01) (169, -1.74420237541198730469e-01) (170, -1.25408351421356201172e-01) (171, 1.69849961996078491211e-01) (172, -3.18578451871871948242e-01) (173, -2.51208003610372543335e-02) (174, -1.93337976932525634766e-01) (175, -1.72414947301149368286e-02) (176, 1.15526847541332244873e-01) (177, -2.54337280988693237305e-01) (178, -8.95356461405754089355e-02) (179, -8.42864885926246643066e-02) (180, -3.47613431513309478760e-02) (181, 2.03729182481765747070e-01) (182, 1.53274357318878173828e-01) (183, 2.00341820716857910156e-01) (184, 1.40592694282531738281e-01) (185, 6.26713270321488380432e-03) (186, 3.51899527013301849365e-02) (187, -4.11133207380771636963e-02) (188, -3.15328687429428100586e-01) (189, -6.86734840273857116699e-02) (190, 3.66047233343124389648e-01) (191, 5.16045130789279937744e-02) (192, -5.04916300997138023376e-03) (193, 1.93471401929855346680e-01) (194, 5.52029795944690704346e-02) (195, -4.90853376686573028564e-02) (196, 3.37235361337661743164e-01) (197, 5.60480402782559394836e-03) (198, 9.37849357724189758301e-02) (199, -2.23824620246887207031e-01) (200, -1.19354449212551116943e-01) (201, -1.29593789577484130859e-01) (202, -7.17180594801902770996e-02) (203, -2.26379573345184326172e-01) (204, -1.61754369735717773438e-01) (205, 1.69928580522537231445e-01) (206, 1.64804369211196899414e-01) (207, 8.29807743430137634277e-02) (208, -1.52875483036041259766e-01) (209, 1.43212318420410156250e-01) (210, 2.16238588094711303711e-01) (211, 8.32665637135505676270e-02) (212, -1.92344695329666137695e-01) (213, -2.62847274541854858398e-01) (214, -2.42984611541032791138e-02) (215, 1.03526793420314788818e-01) (216, 1.98249489068984985352e-01) (217, 1.49160008877515792847e-02) (218, 2.08607882261276245117e-01) (219, -6.08860813081264495850e-02) (220, 1.82748168706893920898e-01) (221, 5.63900955021381378174e-02) (222, -7.81189575791358947754e-02) (223, 2.61630207300186157227e-01) (224, -2.08097934722900390625e-01) (225, -4.16514985263347625732e-02) (226, -6.06107972562313079834e-02) (227, -5.73533512651920318604e-02) (228, -3.14435549080371856689e-02) (229, 2.11308579891920089722e-02) (230, -7.11254253983497619629e-02) (231, 1.33362021297216415405e-02) (232, 1.62371665239334106445e-01) (233, 2.63228863477706909180e-01) (234, 7.42256408557295799255e-03) (235, 1.06924109160900115967e-01) (236, 9.68932285904884338379e-02) (237, -3.95799167454242706299e-02) (238, 5.73952235281467437744e-02) (239, 2.01020594686269760132e-02) (240, 6.54497696086764335632e-03) (241, 2.71186679601669311523e-01) (242, 1.51202589273452758789e-01) (243, 1.19068928062915802002e-01) (244, 1.94425940513610839844e-01) (245, 1.04554273188114166260e-01) (246, -5.28874285519123077393e-02) (247, -2.23846137523651123047e-01) (248, -1.15342978388071060181e-02) (249, -5.62888942658901214600e-02) (250, 1.02146901190280914307e-01) (251, 1.27089619636535644531e-01) (252, 1.71524018049240112305e-01) (253, -9.42144021391868591309e-02) (254, 6.67921975255012512207e-02) (255, 6.23668581247329711914e-02) (256, 4.32097576558589935303e-02) (257, 1.79035097360610961914e-01) (258, 1.06937505304813385010e-01) (259, 2.14357465505599975586e-01) (260, 2.35832333564758300781e-01) (261, 2.00970232486724853516e-01) (262, -2.53898557275533676147e-02) (263, 1.24845057725906372070e-02) (264, -2.37877015024423599243e-02) (265, -1.34988296777009963989e-02) (266, -1.66891396045684814453e-01) (267, -2.82092899084091186523e-01) (268, -8.13077203929424285889e-03) (269, 1.02379731833934783936e-01) (270, -2.01904680579900741577e-02) (271, 1.02730073034763336182e-01) (272, -8.46451595425605773926e-02) (273, 5.67668629810214042664e-03) (274, -7.95275345444679260254e-02) (275, 1.02574400603771209717e-01) (276, 1.58191114664077758789e-01) (277, 1.70452535152435302734e-01) (278, -1.68921228032559156418e-03) (279, 3.43055017292499542236e-02) (280, 1.95131361484527587891e-01) (281, -5.31443841755390167236e-02) (282, 2.48387545347213745117e-01) (283, 3.27397547662258148193e-02) (284, 9.87324863672256469727e-03) (285, 1.97534382343292236328e-01) (286, 9.60753336548805236816e-02) (287, 1.86172395944595336914e-01) (288, 8.52679684758186340332e-02) (289, -1.37886442244052886963e-02) (290, 8.86678919196128845215e-02) (291, -2.70046684890985488892e-02) (292, -5.06251342594623565674e-02) (293, 9.14889052510261535645e-02) (294, 6.87707886099815368652e-02) (295, 5.50595931708812713623e-02) (296, 2.00413286685943603516e-01) (297, -2.45380610227584838867e-01) (298, 2.89572209119796752930e-01) (299, -3.60645093023777008057e-02) (300, 1.74397975206375122070e-01) (301, 2.44878977537155151367e-01) (302, 1.01785115897655487061e-01) (303, -2.17645410448312759399e-02) (304, -5.35396449267864227295e-02) (305, -2.50832159072160720825e-02) (306, -1.31618022918701171875e-01) (307, 1.05976708233356475830e-01) (308, -1.80470999330282211304e-02) (309, -3.38545478880405426025e-02) (310, -9.61387529969215393066e-02) (311, 8.32882001996040344238e-02) (312, 8.80834832787513732910e-02) (313, 6.20489679276943206787e-02) (314, 3.22931595146656036377e-02) (315, 1.73277288675308227539e-01) (316, 6.44951686263084411621e-02) (317, 7.79715105891227722168e-02) (318, 7.90597405284643173218e-03) (319, 1.87706109136343002319e-02) (320, 3.46610285341739654541e-02) (321, 2.57275909185409545898e-01) (322, -2.41063535213470458984e-01) (323, -9.87720265984535217285e-02) (324, -3.69442515075206756592e-02) (325, 1.02846942842006683350e-01) (326, 8.88726189732551574707e-02) (327, 1.64082795381546020508e-01) (328, -1.59225374460220336914e-01) (329, -5.89851103723049163818e-02) (330, 1.16926934570074081421e-02) (331, -1.94509327411651611328e-01) (332, 1.89780760556459426880e-02) (333, -1.11753530800342559814e-01) (334, -8.92360880970954895020e-02) (335, 2.72940043359994888306e-02) (336, 1.51191577315330505371e-02) (337, 7.02767297625541687012e-02) (338, 1.57890677452087402344e-01) (339, -2.92125809937715530396e-02) (340, 3.58881086111068725586e-01) (341, 1.25343114137649536133e-01) (342, 2.96602398157119750977e-01) (343, 7.80932977795600891113e-02) (344, 1.90939873456954956055e-01) (345, 1.95563901215791702271e-02) (346, 9.40015912055969238281e-03) (347, -2.46029328554868698120e-02) (348, -9.72564592957496643066e-02) (349, 9.98673364520072937012e-02) (350, -6.60160109400749206543e-02) (351, 1.17743887007236480713e-01) (352, 3.74643765389919281006e-02) (353, 1.45585447549819946289e-01) (354, 1.40817146748304367065e-02) (355, -2.21030622720718383789e-01) (356, 6.60424157977104187012e-02) (357, -9.64036956429481506348e-02) (358, -6.11282251775264739990e-02) (359, 1.21083818376064300537e-01) (360, -9.56368669867515563965e-02) (361, 2.19235066324472427368e-02) (362, -1.67934030294418334961e-01) (363, 7.98142477869987487793e-02) (364, 2.69288066774606704712e-02) (365, -4.69289682805538177490e-02) (366, 2.68750101327896118164e-01) (367, 3.99830907583236694336e-01) (368, 9.17434468865394592285e-02) (369, 3.75821202993392944336e-01) (370, 2.47589558362960815430e-01) (371, 1.64696455001831054688e-01) (372, 1.17509268224239349365e-01) (373, 1.65227234363555908203e-01) (374, 5.73603250086307525635e-02) (375, 1.35537117719650268555e-01) (376, 1.04162819683551788330e-01) (377, 2.28752791881561279297e-01) (378, 1.08725838363170623779e-01) (379, -2.03897595405578613281e-01) (380, -1.82385057210922241211e-01) (381, 5.37361167371273040771e-02) (382, -2.15126816183328628540e-02) (383, -2.88971383124589920044e-02) (384, -6.25342205166816711426e-02) (385, -9.19820144772529602051e-02) (386, 1.29422396421432495117e-01) (387, 3.11426934786140918732e-03) (388, -2.89245098829269409180e-01) (389, -1.38083065394312143326e-03) (390, 8.23906883597373962402e-02) (391, 2.11628109216690063477e-01) (392, 6.01420141756534576416e-02) (393, 1.13190166652202606201e-01) (394, 1.25102356076240539551e-01) (395, 1.34045302867889404297e-01) (396, -3.30631546676158905029e-02) (397, 3.06467026472091674805e-01) (398, 2.32064574956893920898e-01) (399, 1.85612142086029052734e-01) (400, -3.38336103595793247223e-03) (401, -4.38256375491619110107e-02) (402, -8.78040716052055358887e-02) (403, -1.36179268360137939453e-01) (404, -2.04961508512496948242e-01) (405, -7.92155191302299499512e-02) (406, -9.59648862481117248535e-02) (407, -1.36130154132843017578e-01) (408, 2.51040011644363403320e-01) (409, 5.94717226922512054443e-02) (410, 4.15288247168064117432e-02) (411, -1.35785192251205444336e-01) (412, -7.26233646273612976074e-02) (413, -2.32442647218704223633e-01) (414, -4.46254946291446685791e-02) (415, 7.51312747597694396973e-02) (416, 5.09221591055393218994e-02) (417, -4.95346747338771820068e-02) (418, -1.92547976970672607422e-01) (419, 2.42897480726242065430e-01) (420, 9.96156707406044006348e-02) (421, 1.01172856986522674561e-01) (422, 1.34664267301559448242e-01) (423, 1.11628256738185882568e-01) (424, 8.14217999577522277832e-02) (425, 1.93918436765670776367e-01) (426, -2.24098581820726394653e-02) (427, -4.57753650844097137451e-02) (428, 7.04982271417975425720e-03) (429, 7.96514675021171569824e-02) (430, -2.87783686071634292603e-02) (431, 1.17866106331348419189e-01) (432, -1.47004008293151855469e-01) (433, 3.25494974851608276367e-01) (434, 2.88588386029005050659e-02) (435, 1.74646914005279541016e-01) (436, 2.21581280231475830078e-01) (437, 2.48827431350946426392e-02) (438, -6.28558592870831489563e-03) (439, -1.52497321367263793945e-01) (440, -9.11884680390357971191e-02) (441, -2.07853317260742187500e-01) (442, -4.83983270823955535889e-02) (443, 2.06696063280105590820e-01) (444, 1.13679908215999603271e-01) (445, 1.97214186191558837891e-01) (446, 2.12985038757324218750e-01) (447, 3.68883281946182250977e-01) (448, 3.55749540030956268311e-02) (449, 1.91054016351699829102e-01) (450, 9.23954173922538757324e-02) (451, 7.03025832772254943848e-02) (452, 2.22836881875991821289e-01) (453, 2.55499649792909622192e-02) (454, -2.15626925230026245117e-01) (455, 5.67111559212207794189e-02) (456, 2.57355589419603347778e-02) (457, -1.90099269151687622070e-01) (458, -1.05315633118152618408e-02) (459, -1.03368405252695083618e-02) (460, 1.17278769612312316895e-02) (461, 1.23189084231853485107e-01) (462, -5.55884800851345062256e-02) (463, -1.92252635955810546875e-01) (464, 6.98433145880699157715e-02) (465, -9.40726622939109802246e-02) (466, 1.87646269798278808594e-01) (467, 7.25070163607597351074e-02) (468, 3.52290757000446319580e-02) (469, 2.21443325281143188477e-01) (470, 1.25408560037612915039e-01) (471, 1.95103138685226440430e-01) (472, 2.16737568378448486328e-01) (473, 1.69731438159942626953e-01) (474, 6.34170994162559509277e-02) (475, -1.51445180177688598633e-01) (476, 7.13272616267204284668e-02) (477, 1.75237413495779037476e-02) (478, -1.40572746749967336655e-03) (479, -2.56216794252395629883e-01) (480, -1.45480543375015258789e-01) (481, -3.12630265951156616211e-01) (482, -1.64774179458618164062e-01) (483, 1.12953372299671173096e-01) (484, -9.81082692742347717285e-02) (485, -4.37620989978313446045e-02) (486, 4.00469861924648284912e-02) (487, -2.14163791388273239136e-02) (488, -2.24913150072097778320e-01) (489, 3.09303458780050277710e-02) (490, -2.26620733737945556641e-01) (491, -3.94270010292530059814e-02) (492, -7.02787265181541442871e-02) (493, 6.28204783424735069275e-03) (494, 7.03804418444633483887e-02) (495, -7.46661273296922445297e-04) (496, 5.67890368402004241943e-02) (497, 2.79671937227249145508e-01) (498, -8.50393623113632202148e-03) (499, -2.77328882366418838501e-02) (500, -2.16483678668737411499e-02) (501, -1.85227274894714355469e-01) (502, 1.93096309900283813477e-01) (503, 2.67301928251981735229e-02) (504, -1.92239850759506225586e-01) (505, -1.40605628490447998047e-01) (506, -1.51688963174819946289e-01) (507, 2.13600751012563705444e-02) (508, -3.11725810170173645020e-02) (509, -8.48600491881370544434e-02) (510, -5.64857982099056243896e-02) (511, -1.26372605562210083008e-01) (512, -1.67218327522277832031e-01) (513, -2.93902665376663208008e-01) (514, -2.58118242025375366211e-01) (515, -9.48832929134368896484e-03) (516, 6.59413412213325500488e-02) (517, 5.27407638728618621826e-02) (518, -7.75162084028124809265e-03) (519, 9.29461345076560974121e-02) (520, 1.71151697635650634766e-01) (521, 2.64724403619766235352e-01) (522, 3.52801054716110229492e-01) (523, -1.06838606297969818115e-01) (524, -9.07440558075904846191e-02) (525, 2.02536523342132568359e-01) (526, 8.73901769518852233887e-02) (527, -1.79121189285069704056e-03) (528, 7.39279016852378845215e-02) (529, 5.15148155391216278076e-02) (530, 1.01395122706890106201e-01) (531, 1.21583066880702972412e-01) (532, -9.71169099211692810059e-02) (533, -2.31299191713333129883e-01) (534, 2.28255372494459152222e-02) (535, -1.37872427701950073242e-01) (536, -4.45915132761001586914e-01) (537, -5.11810816824436187744e-02) (538, -1.88316613435745239258e-01) (539, 4.13369499146938323975e-02) (540, 2.29423046112060546875e-01) (541, 1.64165526628494262695e-01) (542, 2.38273411989212036133e-01) (543, 4.22608070075511932373e-02) (544, -6.93887099623680114746e-02) (545, 9.52610895037651062012e-02) (546, 2.09630876779556274414e-01) (547, -9.86911915242671966553e-03) (548, -4.72805909812450408936e-02) (549, -1.80305927991867065430e-01) (550, -1.82936251163482666016e-01) (551, -3.01486641168594360352e-01) (552, -3.50012093782424926758e-01) (553, -3.89701336622238159180e-01) (554, -6.48586228489875793457e-02) (555, -2.02669292688369750977e-01) (556, 1.55529808253049850464e-02) (557, -3.13846506178379058838e-02) (558, 9.27967205643653869629e-02) (559, 4.21090312302112579346e-02) (560, 3.45218391157686710358e-03) (561, -3.53591404855251312256e-02) (562, 1.22879453003406524658e-01) (563, -1.02431662380695343018e-01) (564, 1.87679439783096313477e-01) (565, 1.55629247426986694336e-01) (566, 1.01589635014533996582e-02) (567, 1.44735097885131835938e-01) (568, 1.59716662019491195679e-02) (569, 7.79302194714546203613e-02) (570, 7.80692771077156066895e-02) (571, 1.05824120342731475830e-01) (572, -2.30351179838180541992e-01) (573, -2.22167164087295532227e-01) (574, -5.70914030075073242188e-01) (575, -5.36742687225341796875e-01) (576, -2.96738713979721069336e-01) (577, -1.91340476274490356445e-01) (578, -6.35022437199950218201e-03) (579, 2.89836395531892776489e-02) (580, -6.18395470082759857178e-02) (581, 4.17123474180698394775e-02) (582, -4.46043126285076141357e-02) (583, 1.86410397291183471680e-01) (584, 2.16021418571472167969e-01) (585, 1.67183399200439453125e-01) (586, 1.20283160358667373657e-02) (587, -6.37213811278343200684e-02) (588, 1.00951604545116424561e-01) (589, 4.37643714249134063721e-02) (590, -1.62605702877044677734e-01) (591, -1.96957383304834365845e-02) (592, -2.27841287851333618164e-01) (593, -2.63044703751802444458e-02) (594, -3.82585197687149047852e-01) (595, -2.20896929502487182617e-01) (596, 9.16805043816566467285e-02) (597, -2.58664578199386596680e-01) (598, -3.26730102300643920898e-01) (599, -5.10341167449951171875e-01) (600, -2.74517923593521118164e-01) (601, -2.26160973310470581055e-01) (602, 6.18451051414012908936e-02) (603, 1.26319229602813720703e-01) (604, 2.09515184164047241211e-01) (605, 3.46355177462100982666e-02) (606, -1.91094577312469482422e-01) (607, 8.52643623948097229004e-02) (608, -3.53261344134807586670e-02) (609, 5.63292168080806732178e-02) (610, -2.55746990442276000977e-01) (611, 8.01387503743171691895e-02) (612, 1.99719280004501342773e-01) (613, 1.65814191102981567383e-01) (614, 1.14198766648769378662e-01) (615, -1.99288129806518554688e-01) (616, -8.22739377617835998535e-02) (617, 1.82038664817810058594e-01) (618, -1.07451586518436670303e-03) (619, -4.93065081536769866943e-02) (620, 1.69208258390426635742e-01) (621, 1.18842281401157379150e-01) (622, -1.29847764968872070312e-01) (623, -9.89431068301200866699e-02) (624, -2.93517500162124633789e-01) (625, 5.36015629768371582031e-01) (0, -2.09750801324844360352e-01) (1, -3.14031273126602172852e-01) (2, -2.60728627443313598633e-01) (3, 2.50329643487930297852e-01) (4, -9.21446830034255981445e-02) (5, -5.23368082940578460693e-02) (6, 2.06561118364334106445e-01) (7, 1.52980595827102661133e-01) (8, 2.13979601860046386719e-01) (9, 2.08545237779617309570e-01) (10, 1.00896954536437988281e-01) (11, 6.80700242519378662109e-02) (12, 1.01490721106529235840e-01) (13, -1.07325017452239990234e-01) (14, -4.67563308775424957275e-02) (15, -1.46330147981643676758e-01) (16, -1.37802213430404663086e-01) (17, 2.44561210274696350098e-02) (18, 1.65594756603240966797e-01) (19, -1.01785615086555480957e-01) (20, 3.21510620415210723877e-02) (21, -1.11993640661239624023e-01) (22, -1.44305974245071411133e-01) (23, -9.44741517305374145508e-02) (24, 1.16906508803367614746e-01) (25, -1.23705983161926269531e-01) (26, -1.16158470511436462402e-01) (27, -1.94917082786560058594e-01) (28, -1.66838467121124267578e-01) (29, -1.05989769101142883301e-01) (30, -2.73167580366134643555e-01) (31, -3.15555304288864135742e-01) (32, -1.68445736169815063477e-01) (33, -3.75653542578220367432e-02) (34, -1.43383532762527465820e-01) (35, -2.02499151229858398438e-01) (36, -1.61325305700302124023e-01) (37, -1.68148428201675415039e-01) (38, 3.17845493555068969727e-01) (39, -4.91308532655239105225e-02) (40, -7.03933984041213989258e-02) (41, -2.20520906150341033936e-02) (42, 7.31892287731170654297e-02) (43, 3.18929217755794525146e-02) (44, 1.24119609594345092773e-01) (45, 1.13509148359298706055e-01) (46, 3.94138060510158538818e-02) (47, 1.65801584720611572266e-01) (48, 1.62436813116073608398e-01) (49, 1.09985679388046264648e-01) (50, -7.18532688915729522705e-03) (51, -2.66965776681900024414e-01) (52, -1.67243957519531250000e-01) (53, 2.03875184059143066406e-01) (54, -9.48237180709838867188e-02) (55, -1.57826542854309082031e-01) (56, -4.07230444252490997314e-02) (57, -5.62520734965801239014e-02) (58, -4.24543395638465881348e-03) (59, 8.06926488876342773438e-02) (60, -8.65636914968490600586e-02) (61, -4.72193695604801177979e-02) (62, -1.72141551971435546875e-01) (63, 1.05187997221946716309e-01) (64, -1.16089373826980590820e-01) (65, 1.64311155676841735840e-02) (66, -7.07957446575164794922e-02) (67, -5.58745376765727996826e-02) (68, -9.87091660499572753906e-02) (69, -1.85622796416282653809e-02) (70, -2.14301913976669311523e-01) (71, 1.76423005759716033936e-02) (72, 1.54280096292495727539e-01) (73, 1.93640626966953277588e-02) (74, 8.38806503452360630035e-04) (75, -1.77298456430435180664e-01) (76, -2.57673770189285278320e-01) (77, 1.64859712123870849609e-01) (78, 4.51782681047916412354e-02) (79, 2.60380953550338745117e-02) (80, 7.31229186058044433594e-02) (81, 6.25302121043205261230e-02) (82, 2.66480714082717895508e-01) (83, 1.36819202452898025513e-02) (84, -1.60203203558921813965e-02) (85, 1.26179009675979614258e-01) (86, 1.61415904760360717773e-01) (87, 1.66438490152359008789e-01) (88, -2.27795541286468505859e-02) (89, -4.84587885439395904541e-02) (90, 3.76279912889003753662e-02) (91, 2.63366512954235076904e-02) (92, -3.74354153871536254883e-01) (93, 9.59135591983795166016e-03) (94, -3.07336837053298950195e-01) (95, -1.11253380775451660156e-01) (96, 1.77681118249893188477e-01) (97, -1.05732474476099014282e-02) (98, -1.20705351233482360840e-01) (99, -2.81284064054489135742e-01) (100, 6.22076876461505889893e-02) (101, 9.93865132331848144531e-02) (102, 2.57881373167037963867e-01) (103, 1.05807155370712280273e-01) (104, 3.77419553697109222412e-02) (105, -4.81885783374309539795e-02) (106, 6.64282739162445068359e-02) (107, -1.56371861696243286133e-01) (108, 1.58847793936729431152e-02) (109, -1.86317563056945800781e-01) (110, 4.65345121920108795166e-02) (111, 1.25178366899490356445e-01) (112, 7.66489841043949127197e-03) (113, 4.60375286638736724854e-03) (114, 3.20900119841098785400e-02) (115, -1.89672154374420642853e-03) (116, -7.87380337715148925781e-02) (117, -4.78630401194095611572e-02) (118, -5.20277358591556549072e-02) (119, -3.06426614522933959961e-01) (120, 1.22932463884353637695e-01) (121, 2.84107893705368041992e-01) (122, -9.77438688278198242188e-02) (123, 1.20361521840095520020e-01) (124, 5.74910230934619903564e-02) (125, -2.54624448716640472412e-02) (126, 7.72025436162948608398e-02) (127, 2.47677803039550781250e-01) (128, 1.90438419580459594727e-01) (129, 1.66621506214141845703e-01) (130, 1.84009850025177001953e-01) (131, -7.40142613649368286133e-02) (132, 1.28509372472763061523e-01) (133, 2.23853200674057006836e-01) (134, 3.56094032526016235352e-01) (135, 1.22032105922698974609e-01) (136, 1.13876253366470336914e-01) (137, -7.85162150859832763672e-02) (138, -8.61703008413314819336e-02) (139, -1.98163278400897979736e-02) (140, -1.04924350976943969727e-01) (141, 6.57040029764175415039e-02) (142, -1.05220079421997070312e-01) (143, -8.84567350149154663086e-02) (144, -1.31065785884857177734e-01) (145, -2.12714299559593200684e-02) (146, 2.10886031389236450195e-01) (147, 2.48575806617736816406e-02) (148, -2.86488048732280731201e-02) (149, 1.34602375328540802002e-02) (150, -5.34846372902393341064e-02) (151, 1.23167902231216430664e-01) (152, 8.96108895540237426758e-02) (153, 3.55564624071121215820e-01) (154, -6.02678023278713226318e-02) (155, 9.04570370912551879883e-02) (156, 1.00270226597785949707e-01) (157, 1.01007953286170959473e-01) (158, 1.97852075099945068359e-01) (159, -8.43330025672912597656e-02) (160, 1.23845469206571578979e-02) (161, -3.31145594827830791473e-03) (162, -5.62899895012378692627e-02) (163, -2.77535393834114074707e-02) (164, -2.73333460092544555664e-01) (165, 1.56917393207550048828e-01) (166, -5.00780306756496429443e-02) (167, -6.81805759668350219727e-02) (168, 1.61252200603485107422e-01) (169, 6.45070523023605346680e-02) (170, -4.02198545634746551514e-02) (171, 5.33068887889385223389e-02) (172, 9.56376641988754272461e-02) (173, -3.86213161982595920563e-03) (174, -7.19397664070129394531e-02) (175, -1.01992040872573852539e-01) (176, -1.05238974094390869141e-01) (177, 1.70931071043014526367e-02) (178, 2.11559772491455078125e-01) (179, 6.74258768558502197266e-02) (180, -9.97579246759414672852e-02) (181, -5.35935796797275543213e-02) (182, 1.20334312319755554199e-01) (183, -2.38292515277862548828e-01) (184, -5.70009388029575347900e-02) (185, 1.38578623533248901367e-01) (186, 8.74144136905670166016e-02) (187, -1.24673947691917419434e-01) (188, 1.45161524415016174316e-02) (189, -1.91157191991806030273e-01) (190, -1.26990050077438354492e-01) (191, 1.06575095560401678085e-03) (192, 3.76052223145961761475e-02) (193, 1.05014175176620483398e-01) (194, 2.09570080041885375977e-02) (195, 2.85762339830398559570e-01) (196, -2.77339965105056762695e-02) (197, -9.25857424736022949219e-02) (198, -1.32754415273666381836e-01) (199, -1.15910656750202178955e-02) (200, -1.44444435834884643555e-01) (201, 9.32869613170623779297e-02) (202, 6.07199482619762420654e-02) (203, -1.72619521617889404297e-01) (204, -3.72300110757350921631e-02) (205, 2.02124975621700286865e-02) (206, -2.32361495494842529297e-01) (207, -1.27640008926391601562e-01) (208, -9.96175557374954223633e-02) (209, 7.80758410692214965820e-02) (210, 2.47444689273834228516e-01) (211, 7.92003422975540161133e-02) (212, -1.35741204023361206055e-01) (213, -3.76316517591476440430e-01) (214, -2.42349863052368164062e-01) (215, -2.76321209967136383057e-02) (216, -2.58215755224227905273e-01) (217, -1.83772563934326171875e-01) (218, -4.10770148038864135742e-01) (219, -2.30038076639175415039e-01) (220, -2.15204781852662563324e-03) (221, -7.12755918502807617188e-02) (222, -1.42733186483383178711e-01) (223, -2.28897028136998414993e-04) (224, -3.04358229041099548340e-02) (225, -9.52446162700653076172e-02) (226, -1.13807022571563720703e-02) (227, 1.32263422012329101562e-01) (228, -3.21675427258014678955e-02) (229, -5.39842955768108367920e-02) (230, -4.26399745047092437744e-02) (231, 3.39321084320545196533e-02) (232, -6.97649568319320678711e-02) (233, -2.45987057685852050781e-01) (234, -1.49683296680450439453e-01) (235, 2.00356185436248779297e-01) (236, 7.87077695131301879883e-02) (237, -1.01008519530296325684e-01) (238, -1.20461687445640563965e-01) (239, -3.12250740826129913330e-02) (240, 1.48559100925922393799e-02) (241, -6.57701641321182250977e-02) (242, -1.97711527347564697266e-01) (243, -1.35788261890411376953e-01) (244, -2.27091073989868164062e-01) (245, -3.39075237512588500977e-01) (246, -9.69812124967575073242e-02) (247, -2.46520012617111206055e-01) (248, -4.37141470611095428467e-02) (249, -1.11252591013908386230e-01) (250, -1.75544500350952148438e-01) (251, -1.31756544113159179688e-01) (252, -7.25410431623458862305e-02) (253, 1.22176513075828552246e-01) (254, 1.22459292411804199219e-01) (255, -1.20936244726181030273e-01) (256, 7.22195059061050415039e-02) (257, -6.77220430225133895874e-03) (258, -2.60144561529159545898e-01) (259, -1.16706639528274536133e-01) (260, 9.16991531848907470703e-02) (261, 9.67421978712081909180e-02) (262, 9.17651802301406860352e-02) (263, 2.19172588549554347992e-03) (264, 2.14912623167037963867e-01) (265, 3.56230698525905609131e-02) (266, -2.71131664514541625977e-01) (267, -2.19836086034774780273e-01) (268, -3.09834629297256469727e-01) (269, -1.30960315465927124023e-01) (270, -3.01768988370895385742e-01) (271, -2.46689498424530029297e-01) (272, -5.83455525338649749756e-02) (273, -1.67182773351669311523e-01) (274, -6.94206655025482177734e-02) (275, -1.32259011268615722656e-01) (276, -3.82235608994960784912e-02) (277, -2.79202491044998168945e-01) (278, -2.98780314624309539795e-02) (279, -1.25321093946695327759e-02) (280, -5.39642758667469024658e-02) (281, -9.11334007978439331055e-02) (282, -3.08570176362991333008e-01) (283, -2.85827368497848510742e-01) (284, -1.34927749633789062500e-01) (285, -2.81908102333545684814e-02) (286, -9.50109511613845825195e-02) (287, -1.94283455610275268555e-01) (288, -2.72701010107994079590e-02) (289, -1.83534771203994750977e-01) (290, -1.16815254092216491699e-01) (291, -4.78726588189601898193e-02) (292, -2.24573254585266113281e-01) (293, -3.24990004301071166992e-01) (294, -1.39734834432601928711e-01) (295, -1.27272158861160278320e-01) (296, 4.98117394745349884033e-02) (297, -4.90458197891712188721e-02) (298, -7.29120373725891113281e-02) (299, -2.24991776049137115479e-02) (300, 1.78889036178588867188e-02) (301, 8.22135657072067260742e-02) (302, -6.05099089443683624268e-02) (303, 7.72227942943572998047e-02) (304, 8.04573595523834228516e-02) (305, -3.87909896671772003174e-02) (306, -3.13227660953998565674e-02) (307, -3.29864607192575931549e-03) (308, -1.26477211713790893555e-01) (309, -2.32707448303699493408e-02) (310, -1.45722687244415283203e-01) (311, -1.24406646937131881714e-02) (312, -4.62669879198074340820e-03) (313, -8.96164476871490478516e-02) (314, -1.31726682186126708984e-01) (315, -2.29484915733337402344e-01) (316, -1.89427942037582397461e-01) (317, -2.16230422258377075195e-01) (318, -9.66126471757888793945e-02) (319, 1.91994905471801757812e-01) (320, 9.07311886548995971680e-02) (321, 3.09181839227676391602e-01) (322, 1.86078548431396484375e-01) (323, -8.39053392410278320312e-02) (324, 2.92297750711441040039e-02) (325, 2.35357969999313354492e-01) (326, 9.84347462654113769531e-02) (327, 4.99407835304737091064e-02) (328, -5.92671670019626617432e-02) (329, 4.00829799473285675049e-02) (330, -9.90996807813644409180e-02) (331, -6.42082095146179199219e-02) (332, -3.31670016050338745117e-01) (333, 1.67816765606403350830e-02) (334, -2.80595272779464721680e-01) (335, -2.09790408611297607422e-01) (336, -3.79048675298690795898e-01) (337, -1.87585651874542236328e-01) (338, -1.89294308423995971680e-01) (339, -1.02335631847381591797e-01) (340, -4.05927628278732299805e-01) (341, -3.81786495447158813477e-01) (342, 7.42993205785751342773e-02) (343, 1.74568623304367065430e-01) (344, 4.60451059043407440186e-02) (345, 2.51688435673713684082e-02) (346, -1.72004811465740203857e-02) (347, -6.30803853273391723633e-02) (348, 5.68223409354686737061e-02) (349, 1.75926834344863891602e-01) (350, 1.14692807197570800781e-01) (351, 1.65491551160812377930e-01) (352, 1.70481324195861816406e-01) (353, 1.78618654608726501465e-02) (354, 1.33348941802978515625e-01) (355, 3.79602871835231781006e-02) (356, 5.87261803448200225830e-02) (357, 7.16975033283233642578e-02) (358, 5.66577725112438201904e-02) (359, -9.70479995012283325195e-02) (360, -1.14774912595748901367e-01) (361, -1.65079146623611450195e-01) (362, -1.54936403036117553711e-01) (363, 1.21910631656646728516e-01) (364, 1.18179455399513244629e-01) (365, -1.03402547538280487061e-02) (366, -5.47680519521236419678e-02) (367, 5.36306910216808319092e-02) (368, 4.22941178083419799805e-01) (369, 2.59680300951004028320e-01) (370, 2.07956656813621520996e-02) (371, 3.18774312734603881836e-01) (372, 1.23963341116905212402e-01) (373, 4.11023758351802825928e-02) (374, 1.92428193986415863037e-02) (375, 1.35000914335250854492e-01) (376, 1.09265148639678955078e-01) (377, -1.97006165981292724609e-01) (378, -1.11969247460365295410e-01) (379, 4.88085709512233734131e-02) (380, 2.45970726013183593750e-01) (381, -1.52137756347656250000e-01) (382, 4.76505272090435028076e-02) (383, -4.58328425884246826172e-03) (384, -6.45569264888763427734e-02) (385, -8.92358869314193725586e-02) (386, 1.71583928167819976807e-02) (387, 1.27620071172714233398e-01) (388, 2.53339916467666625977e-01) (389, 8.98185670375823974609e-02) (390, 1.07032790780067443848e-01) (391, 1.22395515441894531250e-01) (392, 3.22854429483413696289e-01) (393, -3.47090251743793487549e-02) (394, 2.17772126197814941406e-01) (395, -1.46838873624801635742e-01) (396, 1.23506620526313781738e-01) (397, 5.86243160068988800049e-03) (398, -7.90264606475830078125e-02) (399, 1.13526239991188049316e-01) (400, 1.16464957594871520996e-01) (401, 2.42304265499114990234e-01) (402, -4.38830293715000152588e-02) (403, 4.49788533151149749756e-02) (404, 2.40074917674064636230e-02) (405, -1.78573764860630035400e-02) (406, 1.08381675090640783310e-03) (407, 2.26102083921432495117e-01) (408, -3.08314599096775054932e-02) (409, 1.96086108684539794922e-01) (410, 2.87149809300899505615e-02) (411, 9.83545780181884765625e-02) (412, 1.75961144268512725830e-02) (413, 2.47044473886489868164e-01) (414, 5.57876467704772949219e-01) (415, 2.76849895715713500977e-01) (416, 2.87067800760269165039e-01) (417, 1.71993017196655273438e-01) (418, 3.21911722421646118164e-01) (419, 9.62679386138916015625e-02) (420, 2.13977396488189697266e-02) (421, -7.94037729501724243164e-02) (422, 1.50413364171981811523e-01) (423, 4.88476045429706573486e-02) (424, 9.78390127420425415039e-02) (425, 2.28536039590835571289e-01) (426, 1.32209837436676025391e-01) (427, 6.94201141595840454102e-02) (428, 2.92700640857219696045e-02) (429, 5.69845847785472869873e-02) (430, 1.39237567782402038574e-02) (431, 1.35009050369262695312e-01) (432, 9.48943011462688446045e-03) (433, 5.42020685970783233643e-02) (434, 7.49793946743011474609e-02) (435, 1.01301819086074829102e-01) (436, -9.91678386926651000977e-02) (437, 2.90203481912612915039e-01) (438, 3.10330599546432495117e-01) (439, 1.88367038965225219727e-01) (440, 3.26844483613967895508e-01) (441, 2.11365103721618652344e-01) (442, 2.38035321235656738281e-01) (443, 4.74269725382328033447e-02) (444, 1.22930526733398437500e-01) (445, 1.30521506071090698242e-01) (446, 2.37523466348648071289e-01) (447, 7.21660405397415161133e-02) (448, -4.42005656659603118896e-02) (449, 7.49201774597167968750e-02) (450, 1.00266039371490478516e-02) (451, 1.02358058094978332520e-01) (452, 1.19990229606628417969e-01) (453, 2.04108543694019317627e-02) (454, -1.68109148740768432617e-01) (455, -1.51686757802963256836e-01) (456, -1.35077536106109619141e-02) (457, 9.37216579914093017578e-02) (458, -6.95647951215505599976e-03) (459, 1.35565489530563354492e-01) (460, 1.52856677770614624023e-01) (461, -9.96200293302536010742e-02) (462, 2.51479715108871459961e-01) (463, 1.84257477521896362305e-01) (464, -1.44595772027969360352e-01) (465, 4.40416224300861358643e-02) (466, 9.85858142375946044922e-02) (467, 2.17526853084564208984e-01) (468, -1.53922170400619506836e-01) (469, -2.65449099242687225342e-02) (470, -1.75545290112495422363e-02) (471, -1.54339939355850219727e-01) (472, -1.14965274930000305176e-01) (473, -1.22142583131790161133e-02) (474, 1.09223783016204833984e-01) (475, 7.31217414140701293945e-02) (476, 4.61790375411510467529e-02) (477, -9.71866101026535034180e-02) (478, -7.61625021696090698242e-02) (479, 1.53572112321853637695e-01) (480, 2.21028447151184082031e-01) (481, 4.38575707376003265381e-02) (482, 6.29528313875198364258e-02) (483, 2.50421315431594848633e-01) (484, 1.48763120174407958984e-01) (485, -4.41058687865734100342e-02) (486, -1.05835780501365661621e-01) (487, 1.62511438131332397461e-01) (488, -1.73571586608886718750e-01) (489, -7.32844918966293334961e-02) (490, -1.89290121197700500488e-02) (491, -1.52790993452072143555e-01) (492, 9.04944986104965209961e-02) (493, 1.36765073984861373901e-02) (494, 2.02655754983425140381e-02) (495, -2.33291685581207275391e-01) (496, 1.45693659782409667969e-01) (497, 7.26107358932495117188e-02) (498, 1.27343207597732543945e-01) (499, 7.56258815526962280273e-02) (500, -8.29961746931076049805e-02) (501, -6.48786425590515136719e-02) (502, -1.65537595748901367188e-01) (503, -1.74943923950195312500e-01) (504, -4.70072440803050994873e-02) (505, 8.44985693693161010742e-02) (506, 1.06603838503360748291e-02) (507, 1.08455643057823181152e-01) (508, 6.05319477617740631104e-02) (509, -3.04958894848823547363e-02) (510, 4.73344065248966217041e-02) (511, -1.20978802442550659180e-01) (512, 1.11408010125160217285e-02) (513, -6.86264932155609130859e-02) (514, -1.71259433031082153320e-01) (515, 3.30723859369754791260e-02) (516, 5.05023710429668426514e-02) (517, 1.45385026931762695312e-01) (518, 7.43401199579238891602e-02) (519, 8.30920785665512084961e-02) (520, -1.04183346033096313477e-01) (521, -1.14567220211029052734e-01) (522, 1.14098098129034042358e-02) (523, 9.78910475969314575195e-02) (524, 1.14668771624565124512e-01) (525, -2.84268766641616821289e-01) (526, -1.56491965055465698242e-01) (527, -1.77313208580017089844e-01) (528, -2.18188583850860595703e-01) (529, -1.06334432959556579590e-01) (530, 8.47840681672096252441e-03) (531, 6.11264072358608245850e-02) (532, 1.34442541748285293579e-02) (533, 3.37783433496952056885e-02) (534, -1.65293246507644653320e-01) (535, 5.99604509770870208740e-02) (536, 2.11498737335205078125e-02) (537, -2.86701433360576629639e-02) (538, -1.54323697090148925781e-01) (539, -1.91314458847045898438e-01) (540, 6.55576139688491821289e-02) (541, 1.31139475852251052856e-02) (542, 1.66082680225372314453e-02) (543, -5.00842668116092681885e-02) (544, 5.70989586412906646729e-02) (545, -3.33753563463687896729e-02) (546, -2.07247555255889892578e-01) (547, -1.36118322610855102539e-01) (548, 2.90790945291519165039e-02) (549, 2.68796712160110473633e-01) (550, -1.98846936225891113281e-01) (551, 6.66408706456422805786e-03) (552, -1.38604193925857543945e-01) (553, -3.32405380904674530029e-02) (554, 6.60573691129684448242e-02) (555, 1.16524517536163330078e-01) (556, 1.94421857595443725586e-01) (557, -6.54673725366592407227e-02) (558, 9.87285971641540527344e-02) (559, 4.37747500836849212646e-02) (560, 1.15762621164321899414e-01) (561, -1.48436367511749267578e-01) (562, -1.45695656538009643555e-01) (563, 1.25059992074966430664e-01) (564, 1.79772436618804931641e-01) (565, 3.83191742002964019775e-02) (566, 9.46897268295288085938e-02) (567, -1.56521946191787719727e-01) (568, -1.07820197939872741699e-01) (569, -2.71246954798698425293e-02) (570, 4.49231527745723724365e-02) (571, 2.23795622587203979492e-02) (572, 6.21251296252012252808e-03) (573, 2.71528214216232299805e-01) (574, 3.02683204412460327148e-01) (575, -2.43210554122924804688e-01) (576, -6.92855417728424072266e-02) (577, -3.78414280712604522705e-02) (578, -1.94977313280105590820e-01) (579, 1.65167421102523803711e-01) (580, 1.36161178350448608398e-01) (581, -1.96561127901077270508e-01) (582, 1.92525982856750488281e-01) (583, 2.22346991300582885742e-01) (584, 1.21184140443801879883e-01) (585, 4.24786172807216644287e-02) (586, -7.04949498176574707031e-02) (587, 1.41945421695709228516e-01) (588, 2.84782558679580688477e-01) (589, -1.41782224178314208984e-01) (590, -1.05480924248695373535e-01) (591, -7.47253000736236572266e-02) (592, 2.73989811539649963379e-02) (593, 1.00206285715103149414e-01) (594, 1.15838199853897094727e-01) (595, 1.82585358619689941406e-01) (596, 1.49224936962127685547e-01) (597, -4.26147766411304473877e-02) (598, -5.45029900968074798584e-02) (599, 7.82508216798305511475e-03) (600, -2.24982112646102905273e-01) (601, 1.29414230585098266602e-01) (602, 4.56770993769168853760e-02) (603, -1.73057049512863159180e-01) (604, -9.87041369080543518066e-03) (605, -4.02179867029190063477e-01) (606, 5.00166527926921844482e-02) (607, -3.47861237823963165283e-02) (608, 1.02652564644813537598e-01) (609, -8.10983777046203613281e-02) (610, -2.09758937358856201172e-01) (611, 2.57383696734905242920e-02) (612, 1.12945929169654846191e-01) (613, 2.74777203798294067383e-01) (614, 3.66329461336135864258e-01) (615, 2.40387082099914550781e-01) (616, 2.26151823997497558594e-01) (617, 1.58838242292404174805e-01) (618, -3.32932807505130767822e-02) (619, 2.43234306573867797852e-01) (620, 1.21193677186965942383e-01) (621, -7.53188580274581909180e-02) (622, 1.16134047508239746094e-01) (623, 3.07548671960830688477e-01) (624, 1.19933575391769409180e-01) (625, -3.99141050875186920166e-02) (0, -1.30710303783416748047e-01) (1, -1.83876514434814453125e-01) (2, 8.77533033490180969238e-02) (3, -3.09029361233115196228e-03) (4, 2.18328051269054412842e-02) (5, -1.16439890116453170776e-02) (6, -4.46285493671894073486e-02) (7, -5.02267293632030487061e-02) (8, 1.53856694698333740234e-01) (9, 5.72963915765285491943e-02) (10, 1.33977979421615600586e-01) (11, 1.10172264277935028076e-01) (12, 9.19506028294563293457e-02) (13, 7.07812085747718811035e-02) (14, -6.80587515234947204590e-02) (15, -2.04168289899826049805e-01) (16, 2.01726645231246948242e-01) (17, 6.61999359726905822754e-02) (18, 5.29981870204210281372e-03) (19, -1.04590408504009246826e-01) (20, -1.58730179071426391602e-01) (21, -4.19944487512111663818e-02) (22, -7.34249576926231384277e-02) (23, -1.04975573718547821045e-01) (24, 4.51290607452392578125e-03) (25, -1.93553388118743896484e-01) (26, 1.27625018358230590820e-01) (27, -7.85018429160118103027e-02) (28, -1.39407496899366378784e-02) (29, 1.88137814402580261230e-02) (30, 3.11953797936439514160e-02) (31, -2.11836308240890502930e-01) (32, 2.04646661877632141113e-02) (33, 2.19337604939937591553e-02) (34, -1.70855104923248291016e-01) (35, 2.03666463494300842285e-02) (36, 3.60375382006168365479e-02) (37, 8.26862081885337829590e-02) (38, -2.57463842630386352539e-01) (39, -1.67903721332550048828e-01) (40, -4.72187288105487823486e-02) (41, 1.24012622982263565063e-02) (42, 1.01355142891407012939e-01) (43, 1.76378816366195678711e-01) (44, -7.05019757151603698730e-02) (45, 5.23290745913982391357e-02) (46, -4.42020386457443237305e-01) (47, 5.67232407629489898682e-02) (48, 7.80148580670356750488e-02) (49, 1.34805381298065185547e-01) (50, -4.68397527933120727539e-01) (51, -1.65533810853958129883e-01) (52, -1.63882195949554443359e-01) (53, -1.68317966163158416748e-02) (54, -3.08520227670669555664e-01) (55, -1.56129568815231323242e-01) (56, -1.97346568107604980469e-01) (57, -2.74201408028602600098e-02) (58, 4.55869175493717193604e-02) (59, -1.62094414234161376953e-01) (60, -5.04045449197292327881e-02) (61, -6.33616968989372253418e-02) (62, 1.21483094990253448486e-01) (63, -6.70498143881559371948e-03) (64, 7.32574686408042907715e-02) (65, -2.35505640506744384766e-01) (66, -5.65169565379619598389e-02) (67, 1.92317478358745574951e-02) (68, 8.03049132227897644043e-02) (69, 2.30798125267028808594e-02) (70, 1.25258266925811767578e-02) (71, 1.13951589446514844894e-03) (72, 4.37808595597743988037e-02) (73, 1.21040008962154388428e-01) (74, 1.81329138576984405518e-02) (75, 1.34444218128919601440e-02) (76, 9.88320261240005493164e-03) (77, -2.02666688710451126099e-03) (78, -3.01543623208999633789e-01) (79, 7.34144970774650573730e-02) (80, -6.42451420426368713379e-02) (81, -1.67356848716735839844e-01) (82, 4.63351197540760040283e-02) (83, 8.90865847468376159668e-02) (84, 1.00881166756153106689e-01) (85, 9.84149500727653503418e-02) (86, -2.87905722856521606445e-01) (87, 1.19718454778194427490e-01) (88, -7.94729962944984436035e-03) (89, 9.97881367802619934082e-02) (90, -6.30712583661079406738e-02) (91, 1.74342468380928039551e-02) (92, -1.49171024560928344727e-01) (93, -2.52477198839187622070e-01) (94, -1.87825500965118408203e-01) (95, -1.41029953956604003906e-01) (96, 4.16956357657909393311e-02) (97, 8.50828923285007476807e-03) (98, -1.65400385856628417969e-01) (99, 5.65447174012660980225e-02) (100, -1.65664464235305786133e-01) (101, -1.70991718769073486328e-01) (102, -1.57302618026733398438e-01) (103, 1.04791052639484405518e-01) (104, 8.20521637797355651855e-03) (105, -1.85396224260330200195e-01) (106, -5.58023061603307723999e-03) (107, 2.13859170675277709961e-01) (108, -5.22061847150325775146e-02) (109, 1.89613252878189086914e-01) (110, -4.68618981540203094482e-03) (111, 9.50951799750328063965e-02) (112, 9.87372025847434997559e-02) (113, 2.10192769765853881836e-01) (114, -4.17190007865428924561e-02) (115, -4.73544560372829437256e-02) (116, -1.41242500394582748413e-02) (117, -9.07453969120979309082e-02) (118, -2.51374810934066772461e-01) (119, -2.14852541685104370117e-01) (120, -4.53057549893856048584e-02) (121, -9.01442579925060272217e-03) (122, -9.88130792975425720215e-02) (123, -2.27603882551193237305e-01) (124, 2.42562070488929748535e-02) (125, -1.67827546596527099609e-01) (126, 1.54235124588012695312e-01) (127, -1.49714872241020202637e-02) (128, 3.10664921998977661133e-01) (129, -2.56008328869938850403e-03) (130, 1.58604532480239868164e-01) (131, 2.00804740190505981445e-01) (132, 2.31558889150619506836e-01) (133, 3.27389270067214965820e-01) (134, 1.95328623056411743164e-01) (135, 