FANN_FLO_2.1
num_layers=4
learning_rate=0.000750
connection_rate=1.000000
network_type=0
learning_momentum=0.000000
training_algorithm=0
train_error_function=1
train_stop_function=0
cascade_output_change_fraction=0.010000
quickprop_decay=-0.000100
quickprop_mu=1.750000
rprop_increase_factor=1.200000
rprop_decrease_factor=0.500000
rprop_delta_min=0.000000
rprop_delta_max=50.000000
rprop_delta_zero=0.100000
cascade_output_stagnation_epochs=12
cascade_candidate_change_fraction=0.010000
cascade_candidate_stagnation_epochs=12
cascade_max_out_epochs=150
cascade_max_cand_epochs=150
cascade_num_candidate_groups=2
bit_fail_limit=3.49999994039535522461e-01
cascade_candidate_limit=1.00000000000000000000e+03
cascade_weight_multiplier=4.00000005960464477539e-01
cascade_activation_functions_count=10
cascade_activation_functions=3 5 7 8 10 11 14 15 16 17 
cascade_activation_steepnesses_count=4
cascade_activation_steepnesses=2.50000000000000000000e-01 5.00000000000000000000e-01 7.50000000000000000000e-01 1.00000000000000000000e+00 
layer_sizes=401 61 61 95 
scale_included=0
neurons (num_inputs, activation_function, activation_steepness)=(0, 0, 0.00000000000000000000e+00) (0, 0, 0.00000000000000000000e+00) (0, 0, 0.00000000000000000000e+00) (0, 0, 0.00000000000000000000e+00) (0, 0, 0.00000000000000000000e+00) (0, 0, 0.00000000000000000000e+00) (0, 0, 0.00000000000000000000e+00) (0, 0, 0.00000000000000000000e+00) (0, 0, 0.00000000000000000000e+00) (0, 0, 0.00000000000000000000e+00) (0, 0, 0.00000000000000000000e+00) (0, 0, 0.00000000000000000000e+00) (0, 0, 0.00000000000000000000e+00) (0, 0, 0.00000000000000000000e+00) (0, 0, 0.00000000000000000000e+00) (0, 0, 0.00000000000000000000e+00) (0, 0, 0.00000000000000000000e+00) (0, 0, 0.00000000000000000000e+00) (0, 0, 0.00000000000000000000e+00) (0, 0, 0.00000000000000000000e+00) (0, 0, 0.00000000000000000000e+00) (0, 0, 0.00000000000000000000e+00) (0, 0, 0.00000000000000000000e+00) (0, 0, 0.00000000000000000000e+00) (0, 0, 0.00000000000000000000e+00) (0, 0, 0.00000000000000000000e+00) (0, 0, 0.00000000000000000000e+00) (0, 0, 0.00000000000000000000e+00) (0, 0, 0.00000000000000000000e+00) (0, 0, 0.00000000000000000000e+00) (0, 0, 0.00000000000000000000e+00) (0, 0, 0.00000000000000000000e+00) (0, 0, 0.00000000000000000000e+00) (0, 0, 0.00000000000000000000e+00) (0, 0, 0.00000000000000000000e+00) (0, 0, 0.00000000000000000000e+00) (0, 0, 0.00000000000000000000e+00) (0, 0, 0.00000000000000000000e+00) (0, 0, 0.00000000000000000000e+00) (0, 0, 0.00000000000000000000e+00) (0, 0, 0.00000000000000000000e+00) (0, 0, 0.00000000000000000000e+00) (0, 0, 0.00000000000000000000e+00) (0, 0, 0.00000000000000000000e+00) (0, 0, 0.00000000000000000000e+00) (0, 0, 0.00000000000000000000e+00) (0, 0, 0.00000000000000000000e+00) (0, 0, 0.00000000000000000000e+00) (0, 0, 0.00000000000000000000e+00) (0, 0, 0.00000000000000000000e+00) (0, 0, 0.00000000000000000000e+00) (0, 0, 0.00000000000000000000e+00) (0, 0, 0.00000000000000000000e+00) (0, 0, 0.00000000000000000000e+00) (0, 0, 0.00000000000000000000e+00) (0, 0, 0.00000000000000000000e+00) (0, 0, 0.00000000000000000000e+00) (0, 0, 0.00000000000000000000e+00) (0, 0, 0.00000000000000000000e+00) (0, 0, 0.00000000000000000000e+00) (0, 0, 0.00000000000000000000e+00) (0, 0, 0.00000000000000000000e+00) (0, 0, 0.00000000000000000000e+00) (0, 0, 0.00000000000000000000e+00) (0, 0, 0.00000000000000000000e+00) (0, 0, 0.00000000000000000000e+00) (0, 0, 0.00000000000000000000e+00) (0, 0, 0.00000000000000000000e+00) (0, 0, 0.00000000000000000000e+00) (0, 0, 0.00000000000000000000e+00) (0, 0, 0.00000000000000000000e+00) (0, 0, 0.00000000000000000000e+00) (0, 0, 0.00000000000000000000e+00) (0, 0, 0.00000000000000000000e+00) (0, 0, 0.00000000000000000000e+00) (0, 0, 0.00000000000000000000e+00) (0, 0, 0.00000000000000000000e+00) (0, 0, 0.00000000000000000000e+00) (0, 0, 0.00000000000000000000e+00) (0, 0, 0.00000000000000000000e+00) (0, 0, 0.00000000000000000000e+00) (0, 0, 0.00000000000000000000e+00) (0, 0, 0.00000000000000000000e+00) (0, 0, 0.00000000000000000000e+00) (0, 0, 0.00000000000000000000e+00) (0, 0, 0.00000000000000000000e+00) (0, 0, 0.00000000000000000000e+00) (0, 0, 0.00000000000000000000e+00) (0, 0, 0.00000000000000000000e+00) (0, 0, 0.00000000000000000000e+00) (0, 0, 0.00000000000000000000e+00) (0, 0, 0.00000000000000000000e+00) (0, 0, 0.00000000000000000000e+00) (0, 0, 0.00000000000000000000e+00) (0, 0, 0.00000000000000000000e+00) (0, 0, 0.00000000000000000000e+00) (0, 0, 0.00000000000000000000e+00) (0, 0, 0.00000000000000000000e+00) (0, 0, 0.00000000000000000000e+00) (0, 0, 0.00000000000000000000e+00) (0, 0, 0.00000000000000000000e+00) (0, 0, 0.00000000000000000000e+00) (0, 0, 0.00000000000000000000e+00) (0, 0, 0.00000000000000000000e+00) (0, 0, 0.00000000000000000000e+00) (0, 0, 0.00000000000000000000e+00) (0, 0, 0.00000000000000000000e+00) (0, 0, 0.00000000000000000000e+00) (0, 0, 0.00000000000000000000e+00) (0, 0, 0.00000000000000000000e+00) (0, 0, 0.00000000000000000000e+00) (0, 0, 0.00000000000000000000e+00) (0, 0, 0.00000000000000000000e+00) (0, 0, 0.00000000000000000000e+00) (0, 0, 0.00000000000000000000e+00) (0, 0, 0.00000000000000000000e+00) (0, 0, 0.00000000000000000000e+00) (0, 0, 0.00000000000000000000e+00) (0, 0, 0.00000000000000000000e+00) (0, 0, 0.00000000000000000000e+00) (0, 0, 0.00000000000000000000e+00) (0, 0, 0.00000000000000000000e+00) (0, 0, 0.00000000000000000000e+00) (0, 0, 0.00000000000000000000e+00) (0, 0, 0.00000000000000000000e+00) (0, 0, 0.00000000000000000000e+00) (0, 0, 0.00000000000000000000e+00) (0, 0, 0.00000000000000000000e+00) (0, 0, 0.00000000000000000000e+00) (0, 0, 0.00000000000000000000e+00) (0, 0, 0.00000000000000000000e+00) (0, 0, 0.00000000000000000000e+00) (0, 0, 0.00000000000000000000e+00) (0, 0, 0.00000000000000000000e+00) (0, 0, 0.00000000000000000000e+00) (0, 0, 0.00000000000000000000e+00) (0, 0, 0.00000000000000000000e+00) (0, 0, 0.00000000000000000000e+00) (0, 0, 0.00000000000000000000e+00) (0, 0, 0.00000000000000000000e+00) (0, 0, 0.00000000000000000000e+00) (0, 0, 0.00000000000000000000e+00) (0, 0, 0.00000000000000000000e+00) (0, 0, 0.00000000000000000000e+00) (0, 0, 0.00000000000000000000e+00) (0, 0, 0.00000000000000000000e+00) (0, 0, 0.00000000000000000000e+00) (0, 0, 0.00000000000000000000e+00) (0, 0, 0.00000000000000000000e+00) (0, 0, 0.00000000000000000000e+00) (0, 0, 0.00000000000000000000e+00) (0, 0, 0.00000000000000000000e+00) (0, 0, 0.00000000000000000000e+00) (0, 0, 0.00000000000000000000e+00) (0, 0, 0.00000000000000000000e+00) (0, 0, 0.00000000000000000000e+00) (0, 0, 0.00000000000000000000e+00) (0, 0, 0.00000000000000000000e+00) (0, 0, 0.00000000000000000000e+00) (0, 0, 0.00000000000000000000e+00) (0, 0, 0.00000000000000000000e+00) (0, 0, 0.00000000000000000000e+00) (0, 0, 0.00000000000000000000e+00) (0, 0, 0.00000000000000000000e+00) (0, 0, 0.00000000000000000000e+00) (0, 0, 0.00000000000000000000e+00) (0, 0, 0.00000000000000000000e+00) (0, 0, 0.00000000000000000000e+00) (0, 0, 0.00000000000000000000e+00) (0, 0, 0.00000000000000000000e+00) (0, 0, 0.00000000000000000000e+00) (0, 0, 0.00000000000000000000e+00) (0, 0, 0.00000000000000000000e+00) (0, 0, 0.00000000000000000000e+00) (0, 0, 0.00000000000000000000e+00) (0, 0, 0.00000000000000000000e+00) (0, 0, 0.00000000000000000000e+00) (0, 0, 0.00000000000000000000e+00) (0, 0, 0.00000000000000000000e+00) (0, 0, 0.00000000000000000000e+00) (0, 0, 0.00000000000000000000e+00) (0, 0, 0.00000000000000000000e+00) (0, 0, 0.00000000000000000000e+00) (0, 0, 0.00000000000000000000e+00) (0, 0, 0.00000000000000000000e+00) (0, 0, 0.00000000000000000000e+00) (0, 0, 0.00000000000000000000e+00) (0, 0, 0.00000000000000000000e+00) (0, 0, 0.00000000000000000000e+00) (0, 0, 0.00000000000000000000e+00) (0, 0, 0.00000000000000000000e+00) (0, 0, 0.00000000000000000000e+00) (0, 0, 0.00000000000000000000e+00) (0, 0, 0.00000000000000000000e+00) (0, 0, 0.00000000000000000000e+00) (0, 0, 0.00000000000000000000e+00) (0, 0, 0.00000000000000000000e+00) (0, 0, 0.00000000000000000000e+00) (0, 0, 0.00000000000000000000e+00) (0, 0, 0.00000000000000000000e+00) (0, 0, 0.00000000000000000000e+00) (0, 0, 0.00000000000000000000e+00) (0, 0, 0.00000000000000000000e+00) (0, 0, 0.00000000000000000000e+00) (0, 0, 0.00000000000000000000e+00) (0, 0, 0.00000000000000000000e+00) (0, 0, 0.00000000000000000000e+00) (0, 0, 0.00000000000000000000e+00) (0, 0, 0.00000000000000000000e+00) (0, 0, 0.00000000000000000000e+00) (0, 0, 0.00000000000000000000e+00) (0, 0, 0.00000000000000000000e+00) (0, 0, 0.00000000000000000000e+00) (0, 0, 0.00000000000000000000e+00) (0, 0, 0.00000000000000000000e+00) (0, 0, 0.00000000000000000000e+00) (0, 0, 0.00000000000000000000e+00) (0, 0, 0.00000000000000000000e+00) (0, 0, 0.00000000000000000000e+00) (0, 0, 0.00000000000000000000e+00) (0, 0, 0.00000000000000000000e+00) (0, 0, 0.00000000000000000000e+00) (0, 0, 0.00000000000000000000e+00) (0, 0, 0.00000000000000000000e+00) (0, 0, 0.00000000000000000000e+00) (0, 0, 0.00000000000000000000e+00) (0, 0, 0.00000000000000000000e+00) (0, 0, 0.00000000000000000000e+00) (0, 0, 0.00000000000000000000e+00) (0, 0, 0.00000000000000000000e+00) (0, 0, 0.00000000000000000000e+00) (0, 0, 0.00000000000000000000e+00) (0, 0, 0.00000000000000000000e+00) (0, 0, 0.00000000000000000000e+00) (0, 0, 0.00000000000000000000e+00) (0, 0, 0.00000000000000000000e+00) (0, 0, 0.00000000000000000000e+00) (0, 0, 0.00000000000000000000e+00) (0, 0, 0.00000000000000000000e+00) (0, 0, 0.00000000000000000000e+00) (0, 0, 0.00000000000000000000e+00) (0, 0, 0.00000000000000000000e+00) (0, 0, 0.00000000000000000000e+00) (0, 0, 0.00000000000000000000e+00) (0, 0, 0.00000000000000000000e+00) (0, 0, 0.00000000000000000000e+00) (0, 0, 0.00000000000000000000e+00) (0, 0, 0.00000000000000000000e+00) (0, 0, 0.00000000000000000000e+00) (0, 0, 0.00000000000000000000e+00) (0, 0, 0.00000000000000000000e+00) (0, 0, 0.00000000000000000000e+00) (0, 0, 0.00000000000000000000e+00) (0, 0, 0.00000000000000000000e+00) (0, 0, 0.00000000000000000000e+00) (0, 0, 0.00000000000000000000e+00) (0, 0, 0.00000000000000000000e+00) (0, 0, 0.00000000000000000000e+00) (0, 0, 0.00000000000000000000e+00) (0, 0, 0.00000000000000000000e+00) (0, 0, 0.00000000000000000000e+00) (0, 0, 0.00000000000000000000e+00) (0, 0, 0.00000000000000000000e+00) (0, 0, 0.00000000000000000000e+00) (0, 0, 0.00000000000000000000e+00) (0, 0, 0.00000000000000000000e+00) (0, 0, 0.00000000000000000000e+00) (0, 0, 0.00000000000000000000e+00) (0, 0, 0.00000000000000000000e+00) (0, 0, 0.00000000000000000000e+00) (0, 0, 0.00000000000000000000e+00) (0, 0, 0.00000000000000000000e+00) (0, 0, 0.00000000000000000000e+00) (0, 0, 0.00000000000000000000e+00) (0, 0, 0.00000000000000000000e+00) (0, 0, 0.00000000000000000000e+00) (0, 0, 0.00000000000000000000e+00) (0, 0, 0.00000000000000000000e+00) (0, 0, 0.00000000000000000000e+00) (0, 0, 0.00000000000000000000e+00) (0, 0, 0.00000000000000000000e+00) (0, 0, 0.00000000000000000000e+00) (0, 0, 0.00000000000000000000e+00) (0, 0, 0.00000000000000000000e+00) (0, 0, 0.00000000000000000000e+00) (0, 0, 0.00000000000000000000e+00) (0, 0, 0.00000000000000000000e+00) (0, 0, 0.00000000000000000000e+00) (0, 0, 0.00000000000000000000e+00) (0, 0, 0.00000000000000000000e+00) (0, 0, 0.00000000000000000000e+00) (0, 0, 0.00000000000000000000e+00) (0, 0, 0.00000000000000000000e+00) (0, 0, 0.00000000000000000000e+00) (0, 0, 0.00000000000000000000e+00) (0, 0, 0.00000000000000000000e+00) (0, 0, 0.00000000000000000000e+00) (0, 0, 0.00000000000000000000e+00) (0, 0, 0.00000000000000000000e+00) (0, 0, 0.00000000000000000000e+00) (0, 0, 0.00000000000000000000e+00) (0, 0, 0.00000000000000000000e+00) (0, 0, 0.00000000000000000000e+00) (0, 0, 0.00000000000000000000e+00) (0, 0, 0.00000000000000000000e+00) (0, 0, 0.00000000000000000000e+00) (0, 0, 0.00000000000000000000e+00) (0, 0, 0.00000000000000000000e+00) (0, 0, 0.00000000000000000000e+00) (0, 0, 0.00000000000000000000e+00) (0, 0, 0.00000000000000000000e+00) (0, 0, 0.00000000000000000000e+00) (0, 0, 0.00000000000000000000e+00) (0, 0, 0.00000000000000000000e+00) (0, 0, 0.00000000000000000000e+00) (0, 0, 0.00000000000000000000e+00) (0, 0, 0.00000000000000000000e+00) (0, 0, 0.00000000000000000000e+00) (0, 0, 0.00000000000000000000e+00) (0, 0, 0.00000000000000000000e+00) (0, 0, 0.00000000000000000000e+00) (0, 0, 0.00000000000000000000e+00) (0, 0, 0.00000000000000000000e+00) (0, 0, 0.00000000000000000000e+00) (0, 0, 0.00000000000000000000e+00) (0, 0, 0.00000000000000000000e+00) (0, 0, 0.00000000000000000000e+00) (0, 0, 0.00000000000000000000e+00) (0, 0, 0.00000000000000000000e+00) (0, 0, 0.00000000000000000000e+00) (0, 0, 0.00000000000000000000e+00) (0, 0, 0.00000000000000000000e+00) (0, 0, 0.00000000000000000000e+00) (0, 0, 0.00000000000000000000e+00) (0, 0, 0.00000000000000000000e+00) (0, 0, 0.00000000000000000000e+00) (0, 0, 0.00000000000000000000e+00) (0, 0, 0.00000000000000000000e+00) (0, 0, 0.00000000000000000000e+00) (0, 0, 0.00000000000000000000e+00) (0, 0, 0.00000000000000000000e+00) (0, 0, 0.00000000000000000000e+00) (0, 0, 0.00000000000000000000e+00) (0, 0, 0.00000000000000000000e+00) (0, 0, 0.00000000000000000000e+00) (0, 0, 0.00000000000000000000e+00) (0, 0, 0.00000000000000000000e+00) (0, 0, 0.00000000000000000000e+00) (0, 0, 0.00000000000000000000e+00) (0, 0, 0.00000000000000000000e+00) (0, 0, 0.00000000000000000000e+00) (0, 0, 0.00000000000000000000e+00) (0, 0, 0.00000000000000000000e+00) (0, 0, 0.00000000000000000000e+00) (0, 0, 0.00000000000000000000e+00) (0, 0, 0.00000000000000000000e+00) (0, 0, 0.00000000000000000000e+00) (0, 0, 0.00000000000000000000e+00) (0, 0, 0.00000000000000000000e+00) (0, 0, 0.00000000000000000000e+00) (0, 0, 0.00000000000000000000e+00) (0, 0, 0.00000000000000000000e+00) (0, 0, 0.00000000000000000000e+00) (0, 0, 0.00000000000000000000e+00) (0, 0, 0.00000000000000000000e+00) (0, 0, 0.00000000000000000000e+00) (0, 0, 0.00000000000000000000e+00) (0, 0, 0.00000000000000000000e+00) (0, 0, 0.00000000000000000000e+00) (0, 0, 0.00000000000000000000e+00) (0, 0, 0.00000000000000000000e+00) (0, 0, 0.00000000000000000000e+00) (0, 0, 0.00000000000000000000e+00) (0, 0, 0.00000000000000000000e+00) (0, 0, 0.00000000000000000000e+00) (0, 0, 0.00000000000000000000e+00) (0, 0, 0.00000000000000000000e+00) (0, 0, 0.00000000000000000000e+00) (0, 0, 0.00000000000000000000e+00) (0, 0, 0.00000000000000000000e+00) (0, 0, 0.00000000000000000000e+00) (0, 0, 0.00000000000000000000e+00) (0, 0, 0.00000000000000000000e+00) (0, 0, 0.00000000000000000000e+00) (0, 0, 0.00000000000000000000e+00) (0, 0, 0.00000000000000000000e+00) (0, 0, 0.00000000000000000000e+00) (0, 0, 0.00000000000000000000e+00) (0, 0, 0.00000000000000000000e+00) (0, 0, 0.00000000000000000000e+00) (0, 0, 0.00000000000000000000e+00) (0, 0, 0.00000000000000000000e+00) (0, 0, 0.00000000000000000000e+00) (0, 0, 0.00000000000000000000e+00) (0, 0, 0.00000000000000000000e+00) (0, 0, 0.00000000000000000000e+00) (0, 0, 0.00000000000000000000e+00) (0, 0, 0.00000000000000000000e+00) (0, 0, 0.00000000000000000000e+00) (0, 0, 0.00000000000000000000e+00) (0, 0, 0.00000000000000000000e+00) (401, 5, 5.00000000000000000000e-01) (401, 5, 5.00000000000000000000e-01) (401, 5, 5.00000000000000000000e-01) (401, 5, 5.00000000000000000000e-01) (401, 5, 5.00000000000000000000e-01) (401, 5, 5.00000000000000000000e-01) (401, 5, 5.00000000000000000000e-01) (401, 5, 5.00000000000000000000e-01) (401, 5, 5.00000000000000000000e-01) (401, 5, 5.00000000000000000000e-01) (401, 5, 5.00000000000000000000e-01) (401, 5, 5.00000000000000000000e-01) (401, 5, 5.00000000000000000000e-01) (401, 5, 5.00000000000000000000e-01) (401, 5, 5.00000000000000000000e-01) (401, 5, 5.00000000000000000000e-01) (401, 5, 5.00000000000000000000e-01) (401, 5, 5.00000000000000000000e-01) (401, 5, 5.00000000000000000000e-01) (401, 5, 5.00000000000000000000e-01) (401, 5, 5.00000000000000000000e-01) (401, 5, 5.00000000000000000000e-01) (401, 5, 5.00000000000000000000e-01) (401, 5, 5.00000000000000000000e-01) (401, 5, 5.00000000000000000000e-01) (401, 5, 5.00000000000000000000e-01) (401, 5, 5.00000000000000000000e-01) (401, 5, 5.00000000000000000000e-01) (401, 5, 5.00000000000000000000e-01) (401, 5, 5.00000000000000000000e-01) (401, 5, 5.00000000000000000000e-01) (401, 5, 5.00000000000000000000e-01) (401, 5, 5.00000000000000000000e-01) (401, 5, 5.00000000000000000000e-01) (401, 5, 5.00000000000000000000e-01) (401, 5, 5.00000000000000000000e-01) (401, 5, 5.00000000000000000000e-01) (401, 5, 5.00000000000000000000e-01) (401, 5, 5.00000000000000000000e-01) (401, 5, 5.00000000000000000000e-01) (401, 5, 5.00000000000000000000e-01) (401, 5, 5.00000000000000000000e-01) (401, 5, 5.00000000000000000000e-01) (401, 5, 5.00000000000000000000e-01) (401, 5, 5.00000000000000000000e-01) (401, 5, 5.00000000000000000000e-01) (401, 5, 5.00000000000000000000e-01) (401, 5, 5.00000000000000000000e-01) (401, 5, 5.00000000000000000000e-01) (401, 5, 5.00000000000000000000e-01) (401, 5, 5.00000000000000000000e-01) (401, 5, 5.00000000000000000000e-01) (401, 5, 5.00000000000000000000e-01) (401, 5, 5.00000000000000000000e-01) (401, 5, 5.00000000000000000000e-01) (401, 5, 5.00000000000000000000e-01) (401, 5, 5.00000000000000000000e-01) (401, 5, 5.00000000000000000000e-01) (401, 5, 5.00000000000000000000e-01) (401, 5, 5.00000000000000000000e-01) (0, 5, 0.00000000000000000000e+00) (61, 5, 5.00000000000000000000e-01) (61, 5, 5.00000000000000000000e-01) (61, 5, 5.00000000000000000000e-01) (61, 5, 5.00000000000000000000e-01) (61, 5, 5.00000000000000000000e-01) (61, 5, 5.00000000000000000000e-01) (61, 5, 5.00000000000000000000e-01) (61, 5, 5.00000000000000000000e-01) (61, 5, 5.00000000000000000000e-01) (61, 5, 5.00000000000000000000e-01) (61, 5, 5.00000000000000000000e-01) (61, 5, 5.00000000000000000000e-01) (61, 5, 5.00000000000000000000e-01) (61, 5, 5.00000000000000000000e-01) (61, 5, 5.00000000000000000000e-01) (61, 5, 5.00000000000000000000e-01) (61, 5, 5.00000000000000000000e-01) (61, 5, 5.00000000000000000000e-01) (61, 5, 5.00000000000000000000e-01) (61, 5, 5.00000000000000000000e-01) (61, 5, 5.00000000000000000000e-01) (61, 5, 5.00000000000000000000e-01) (61, 5, 5.00000000000000000000e-01) (61, 5, 5.00000000000000000000e-01) (61, 5, 5.00000000000000000000e-01) (61, 5, 5.00000000000000000000e-01) (61, 5, 5.00000000000000000000e-01) (61, 5, 5.00000000000000000000e-01) (61, 5, 5.00000000000000000000e-01) (61, 5, 5.00000000000000000000e-01) (61, 5, 5.00000000000000000000e-01) (61, 5, 5.00000000000000000000e-01) (61, 5, 5.00000000000000000000e-01) (61, 5, 5.00000000000000000000e-01) (61, 5, 5.00000000000000000000e-01) (61, 5, 5.00000000000000000000e-01) (61, 5, 5.00000000000000000000e-01) (61, 5, 5.00000000000000000000e-01) (61, 5, 5.00000000000000000000e-01) (61, 5, 5.00000000000000000000e-01) (61, 5, 5.00000000000000000000e-01) (61, 5, 5.00000000000000000000e-01) (61, 5, 5.00000000000000000000e-01) (61, 5, 5.00000000000000000000e-01) (61, 5, 5.00000000000000000000e-01) (61, 5, 5.00000000000000000000e-01) (61, 5, 5.00000000000000000000e-01) (61, 5, 5.00000000000000000000e-01) (61, 5, 5.00000000000000000000e-01) (61, 5, 5.00000000000000000000e-01) (61, 5, 5.00000000000000000000e-01) (61, 5, 5.00000000000000000000e-01) (61, 5, 5.00000000000000000000e-01) (61, 5, 5.00000000000000000000e-01) (61, 5, 5.00000000000000000000e-01) (61, 5, 5.00000000000000000000e-01) (61, 5, 5.00000000000000000000e-01) (61, 5, 5.00000000000000000000e-01) (61, 5, 5.00000000000000000000e-01) (61, 5, 5.00000000000000000000e-01) (0, 5, 0.00000000000000000000e+00) (61, 5, 5.00000000000000000000e-01) (61, 5, 5.00000000000000000000e-01) (61, 5, 5.00000000000000000000e-01) (61, 5, 5.00000000000000000000e-01) (61, 5, 5.00000000000000000000e-01) (61, 5, 5.00000000000000000000e-01) (61, 5, 5.00000000000000000000e-01) (61, 5, 5.00000000000000000000e-01) (61, 5, 5.00000000000000000000e-01) (61, 5, 5.00000000000000000000e-01) (61, 5, 5.00000000000000000000e-01) (61, 5, 5.00000000000000000000e-01) (61, 5, 5.00000000000000000000e-01) (61, 5, 5.00000000000000000000e-01) (61, 5, 5.00000000000000000000e-01) (61, 5, 5.00000000000000000000e-01) (61, 5, 5.00000000000000000000e-01) (61, 5, 5.00000000000000000000e-01) (61, 5, 5.00000000000000000000e-01) (61, 5, 5.00000000000000000000e-01) (61, 5, 5.00000000000000000000e-01) (61, 5, 5.00000000000000000000e-01) (61, 5, 5.00000000000000000000e-01) (61, 5, 5.00000000000000000000e-01) (61, 5, 5.00000000000000000000e-01) (61, 5, 5.00000000000000000000e-01) (61, 5, 5.00000000000000000000e-01) (61, 5, 5.00000000000000000000e-01) (61, 5, 5.00000000000000000000e-01) (61, 5, 5.00000000000000000000e-01) (61, 5, 5.00000000000000000000e-01) (61, 5, 5.00000000000000000000e-01) (61, 5, 5.00000000000000000000e-01) (61, 5, 5.00000000000000000000e-01) (61, 5, 5.00000000000000000000e-01) (61, 5, 5.00000000000000000000e-01) (61, 5, 5.00000000000000000000e-01) (61, 5, 5.00000000000000000000e-01) (61, 5, 5.00000000000000000000e-01) (61, 5, 5.00000000000000000000e-01) (61, 5, 5.00000000000000000000e-01) (61, 5, 5.00000000000000000000e-01) (61, 5, 5.00000000000000000000e-01) (61, 5, 5.00000000000000000000e-01) (61, 5, 5.00000000000000000000e-01) (61, 5, 5.00000000000000000000e-01) (61, 5, 5.00000000000000000000e-01) (61, 5, 5.00000000000000000000e-01) (61, 5, 5.00000000000000000000e-01) (61, 5, 5.00000000000000000000e-01) (61, 5, 5.00000000000000000000e-01) (61, 5, 5.00000000000000000000e-01) (61, 5, 5.00000000000000000000e-01) (61, 5, 5.00000000000000000000e-01) (61, 5, 5.00000000000000000000e-01) (61, 5, 5.00000000000000000000e-01) (61, 5, 5.00000000000000000000e-01) (61, 5, 5.00000000000000000000e-01) (61, 5, 5.00000000000000000000e-01) (61, 5, 5.00000000000000000000e-01) (61, 5, 5.00000000000000000000e-01) (61, 5, 5.00000000000000000000e-01) (61, 5, 5.00000000000000000000e-01) (61, 5, 5.00000000000000000000e-01) (61, 5, 5.00000000000000000000e-01) (61, 5, 5.00000000000000000000e-01) (61, 5, 5.00000000000000000000e-01) (61, 5, 5.00000000000000000000e-01) (61, 5, 5.00000000000000000000e-01) (61, 5, 5.00000000000000000000e-01) (61, 5, 5.00000000000000000000e-01) (61, 5, 5.00000000000000000000e-01) (61, 5, 5.00000000000000000000e-01) (61, 5, 5.00000000000000000000e-01) (61, 5, 5.00000000000000000000e-01) (61, 5, 5.00000000000000000000e-01) (61, 5, 5.00000000000000000000e-01) (61, 5, 5.00000000000000000000e-01) (61, 5, 5.00000000000000000000e-01) (61, 5, 5.00000000000000000000e-01) (61, 5, 5.00000000000000000000e-01) (61, 5, 5.00000000000000000000e-01) (61, 5, 5.00000000000000000000e-01) (61, 5, 5.00000000000000000000e-01) (61, 5, 5.00000000000000000000e-01) (61, 5, 5.00000000000000000000e-01) (61, 5, 5.00000000000000000000e-01) (61, 5, 5.00000000000000000000e-01) (61, 5, 5.00000000000000000000e-01) (61, 5, 5.00000000000000000000e-01) (61, 5, 5.00000000000000000000e-01) (61, 5, 5.00000000000000000000e-01) (61, 5, 5.00000000000000000000e-01) (61, 5, 5.00000000000000000000e-01) (0, 5, 0.00000000000000000000e+00) 
connections (connected_to_neuron, weight)=(0, -3.20894151926040649414e-01) (1, -4.58669252693653106689e-02) (2, -8.63655507564544677734e-02) (3, -1.78173124790191650391e-01) (4, -1.89241379499435424805e-01) (5, -9.46096181869506835938e-02) (6, 3.43688838183879852295e-02) (7, 1.85964018106460571289e-01) (8, -5.98095916211605072021e-02) (9, -5.83004066720604896545e-03) (10, 7.41531848907470703125e-02) (11, -9.18317437171936035156e-02) (12, -1.55107140541076660156e-01) (13, -7.90300667285919189453e-02) (14, 4.59024347364902496338e-02) (15, 7.28054195642471313477e-02) (16, -1.51112675666809082031e-01) (17, -6.34699165821075439453e-02) (18, -2.18381494283676147461e-01) (19, -2.90300173219293355942e-04) (20, -1.07306078076362609863e-01) (21, 1.20966374874114990234e-01) (22, -4.64857786893844604492e-01) (23, -5.00788331031799316406e-01) (24, -2.69696861505508422852e-01) (25, -5.38438558578491210938e-01) (26, -2.75719970464706420898e-01) (27, -1.21457859873771667480e-01) (28, -2.13001500815153121948e-02) (29, -4.02128063142299652100e-02) (30, 3.01350411027669906616e-02) (31, 1.45712494850158691406e-01) (32, 2.61024802923202514648e-01) (33, 4.97862063348293304443e-02) (34, 3.73422473669052124023e-01) (35, 1.18843600153923034668e-01) (36, 1.24717622995376586914e-01) (37, -5.88650815188884735107e-02) (38, -1.39181524515151977539e-01) (39, 1.89586549997329711914e-01) (40, 2.09346145391464233398e-01) (41, 2.50743538141250610352e-01) (42, 2.99437437206506729126e-02) (43, 3.45576517283916473389e-02) (44, 1.19175508618354797363e-01) (45, 1.10134765505790710449e-01) (46, 1.03782147169113159180e-01) (47, 1.82395994663238525391e-01) (48, 1.15462586283683776855e-01) (49, -7.79806822538375854492e-02) (50, -7.09332823753356933594e-02) (51, -6.60239458084106445312e-02) (52, -2.48506098985671997070e-01) (53, -9.84166841953992843628e-03) (54, -9.18605271726846694946e-03) (55, -4.33604605495929718018e-02) (56, 1.05839610099792480469e-01) (57, 1.25786602497100830078e-01) (58, -6.84792250394821166992e-02) (59, 1.36463403701782226562e-01) (60, -3.01708966493606567383e-01) (61, -2.63262897729873657227e-01) (62, 3.03798943758010864258e-01) (63, -9.83647555112838745117e-02) (64, 3.71162928640842437744e-02) (65, 4.12600627169013023376e-03) (66, 1.65262430906295776367e-01) (67, 3.43397349119186401367e-01) (68, 2.48797386884689331055e-01) (69, -4.20574881136417388916e-02) (70, 1.68626219034194946289e-01) (71, -1.11504361033439636230e-01) (72, -2.29534596204757690430e-01) (73, 1.24615222215652465820e-01) (74, -1.77531480789184570312e-01) (75, 7.50517249107360839844e-02) (76, 1.63799505680799484253e-02) (77, 1.33155912160873413086e-01) (78, 8.25856328010559082031e-02) (79, 8.18149596452713012695e-02) (80, -4.74479384720325469971e-02) (81, 8.13459455966949462891e-02) (82, 3.55780154466629028320e-01) (83, 1.95354938507080078125e-01) (84, -2.15520504862070083618e-02) (85, -2.64205713756382465363e-03) (86, -4.69258008524775505066e-03) (87, -2.62999504804611206055e-01) (88, 1.68625801801681518555e-01) (89, 1.77870869636535644531e-01) (90, 5.18922567367553710938e-01) (91, 3.20493608713150024414e-01) (92, -1.74616754055023193359e-01) (93, -5.19458241760730743408e-02) (94, 9.16036814451217651367e-02) (95, 6.00754804909229278564e-02) (96, -1.57743077725172042847e-02) (97, -1.38579970225691795349e-02) (98, 2.95386999845504760742e-01) (99, 1.13121867179870605469e-01) (100, 1.85994487255811691284e-02) (101, 6.49767667055130004883e-02) (102, 4.99264933168888092041e-02) (103, 1.42061682417988777161e-02) (104, 1.64720892906188964844e-01) (105, 2.33015239238739013672e-01) (106, 1.77290469408035278320e-01) (107, -1.71654205769300460815e-02) (108, 1.13709315657615661621e-01) (109, -5.93595840036869049072e-02) (110, 6.32309168577194213867e-02) (111, 2.92018681764602661133e-01) (112, -1.90745275467634201050e-02) (113, -1.07453867793083190918e-01) (114, -1.15282252430915832520e-01) (115, 9.68839228153228759766e-02) (116, 4.38217185437679290771e-02) (117, 1.63868423551321029663e-02) (118, 1.54631704092025756836e-01) (119, -1.07175245881080627441e-01) (120, 2.01877623796463012695e-01) (121, 2.55011886358261108398e-01) (122, 1.64312541484832763672e-01) (123, 3.23871880769729614258e-01) (124, 1.07013925909996032715e-01) (125, 2.33100410550832748413e-02) (126, -8.88191163539886474609e-02) (127, 1.03502022102475166321e-02) (128, 2.06385016441345214844e-01) (129, 5.04323141649365425110e-03) (130, 1.49216026067733764648e-01) (131, -4.09519337117671966553e-02) (132, 2.77508441358804702759e-02) (133, -2.58733838796615600586e-01) (134, 1.32079273462295532227e-01) (135, 2.01712083071470260620e-02) (136, -1.69012527912855148315e-02) (137, 2.01063036918640136719e-01) (138, 3.82516495883464813232e-02) (139, 7.14747905731201171875e-02) (140, 1.18606835603713989258e-01) (141, 2.00288206338882446289e-01) (142, 7.02359557151794433594e-01) (143, 2.46801912784576416016e-01) (144, 1.43983840942382812500e-01) (145, 3.49156290292739868164e-01) (146, -1.71190232038497924805e-01) (147, 1.54679596424102783203e-01) (148, -1.26273542642593383789e-01) (149, 2.85178989171981811523e-01) (150, 1.25686794519424438477e-01) (151, 7.76042342185974121094e-02) (152, -7.97677785158157348633e-02) (153, -2.64687925577163696289e-01) (154, -2.24459767341613769531e-01) (155, -2.21031963825225830078e-01) (156, 6.78314864635467529297e-02) (157, 8.87572765350341796875e-02) (158, 8.64762514829635620117e-02) (159, -7.35139399766921997070e-02) (160, -8.50948095321655273438e-02) (161, 1.53299897909164428711e-01) (162, 2.38224089145660400391e-01) (163, 6.73697441816329956055e-02) (164, -2.87028830498456954956e-02) (165, 2.19500333070755004883e-01) (166, -1.73872649669647216797e-01) (167, 1.24035075306892395020e-01) (168, 3.25245589017868041992e-01) (169, 2.48088669031858444214e-02) (170, 3.20727556943893432617e-01) (171, -2.21417874097824096680e-01) (172, -1.67946100234985351562e-01) (173, -3.17944258451461791992e-01) (174, -3.19286435842514038086e-01) (175, -8.69570076465606689453e-02) (176, 1.06507226824760437012e-01) (177, -2.07553356885910034180e-01) (178, -2.27994889020919799805e-01) (179, -6.07254691421985626221e-02) (180, 1.55359029769897460938e-01) (181, 9.53970700502395629883e-02) (182, -2.13463991880416870117e-01) (183, -2.08419084548950195312e-01) (184, -2.38246083259582519531e-01) (185, -3.47014874219894409180e-01) (186, -1.82974040508270263672e-01) (187, 2.85312741994857788086e-01) (188, -2.40684688091278076172e-01) (189, -1.17297740653157234192e-02) (190, -1.97535175830125808716e-02) (191, 6.53328299522399902344e-02) (192, -1.16881251335144042969e-01) (193, 2.60002333670854568481e-02) (194, -6.00189007818698883057e-02) (195, -4.54189367592334747314e-02) (196, -1.00051954388618469238e-01) (197, -2.60381847620010375977e-01) (198, -2.08486795425415039062e-01) (199, 2.63432841747999191284e-02) (200, -7.67051577568054199219e-02) (201, -6.33263885974884033203e-02) (202, -1.65177155286073684692e-02) (203, -3.27786237001419067383e-01) (204, -2.19766229391098022461e-01) (205, -8.38777422904968261719e-02) (206, 9.58285331726074218750e-02) (207, -2.24193543195724487305e-01) (208, 9.13665890693664550781e-02) (209, -1.99414998292922973633e-01) (210, 3.74782055616378784180e-01) (211, 3.35714906454086303711e-01) (212, 1.90343111753463745117e-01) (213, 6.92293494939804077148e-02) (214, 2.98716992139816284180e-01) (215, 2.03849434852600097656e-01) (216, 1.20436966419219970703e-01) (217, -4.15794439613819122314e-02) (218, -1.63486748933792114258e-01) (219, -1.34781450033187866211e-01) (220, -8.23385268449783325195e-02) (221, -1.45517706871032714844e-01) (222, -7.86532014608383178711e-02) (223, 1.28182172775268554688e-01) (224, 2.38116294145584106445e-01) (225, 1.30828708410263061523e-01) (226, 1.01492360234260559082e-01) (227, -1.69175028800964355469e-01) (228, 4.34656113386154174805e-01) (229, 3.73539961874485015869e-02) (230, -1.65121871978044509888e-02) (231, 4.08938258886337280273e-01) (232, 1.26851230859756469727e-01) (233, 1.76338821649551391602e-01) (234, -4.87899370491504669189e-02) (235, -1.41616612672805786133e-01) (236, 7.11587369441986083984e-02) (237, 1.61704301834106445312e-01) (238, 1.01557239890098571777e-01) (239, 1.24983817338943481445e-01) (240, 2.49638557434082031250e-01) (241, -6.09055869281291961670e-02) (242, 1.82661831378936767578e-01) (243, 1.74932301044464111328e-01) (244, -1.68630760163068771362e-02) (245, -1.90702441614121198654e-03) (246, 2.70647536963224411011e-02) (247, -8.15012902021408081055e-02) (248, 2.79450137168169021606e-02) (249, 1.74245685338973999023e-01) (250, 1.65194898843765258789e-01) (251, 7.57597684860229492188e-02) (252, 1.87135070562362670898e-01) (253, 7.04455673694610595703e-02) (254, -4.40641969442367553711e-01) (255, 1.19825422763824462891e-01) (256, -1.46501185372471809387e-02) (257, -1.53715340420603752136e-02) (258, 2.22970068454742431641e-01) (259, 5.25002591311931610107e-02) (260, 4.41866368055343627930e-01) (261, 2.14158985763788223267e-02) (262, 8.81414562463760375977e-02) (263, 4.96801398694515228271e-02) (264, -1.42077058553695678711e-01) (265, 1.47896945476531982422e-01) (266, -2.00717151165008544922e-01) (267, 5.09046874940395355225e-02) (268, 2.29633718729019165039e-01) (269, -2.12886724621057510376e-02) (270, 2.78694838285446166992e-01) (271, -2.68847886472940444946e-02) (272, -1.12212136387825012207e-01) (273, -7.42770880460739135742e-02) (274, -1.14120602607727050781e-01) (275, -5.33124692738056182861e-02) (276, 9.98711120337247848511e-03) (277, -1.73587501049041748047e-01) (278, -7.19010531902313232422e-02) (279, -4.10435674712061882019e-03) (280, 5.78783862292766571045e-02) (281, -3.75365279614925384521e-02) (282, -3.36668007075786590576e-02) (283, 2.07392740994691848755e-02) (284, -1.05273216962814331055e-01) (285, -6.23802207410335540771e-02) (286, -3.22174280881881713867e-01) (287, -3.10606747865676879883e-01) (288, 1.12008675932884216309e-01) (289, -4.07615266740322113037e-02) (290, 7.15571045875549316406e-02) (291, 1.40700340270996093750e-01) (292, -1.74857169389724731445e-01) (293, -2.34625041484832763672e-01) (294, -3.18997949361801147461e-01) (295, 7.03662633895874023438e-02) (296, -1.63298189640045166016e-01) (297, -1.03220075368881225586e-01) (298, -6.14105351269245147705e-02) (299, 1.01480737328529357910e-01) (300, 5.68293891847133636475e-02) (301, -3.19807678461074829102e-01) (302, -2.63265639543533325195e-01) (303, -2.23882764577865600586e-01) (304, -2.13649302721023559570e-01) (305, -2.52487629652023315430e-01) (306, -1.85223400592803955078e-01) (307, -2.59111911058425903320e-01) (308, 1.88565045595169067383e-01) (309, 7.00090974569320678711e-02) (310, 1.09504938125610351562e-01) (311, 1.80207401514053344727e-01) (312, -2.36482232809066772461e-01) (313, -4.70138698816299438477e-01) (314, -1.68600618839263916016e-01) (315, -1.33187323808670043945e-01) (316, -3.68623226881027221680e-01) (317, -1.15301191806793212891e-01) (318, -3.59646648168563842773e-01) (319, -1.70900970697402954102e-01) (320, -5.10737262666225433350e-02) (321, -5.98464868962764739990e-02) (322, -1.72448992729187011719e-01) (323, -2.70859450101852416992e-01) (324, 2.34661549329757690430e-01) (325, 1.43903940916061401367e-01) (326, 5.30388474464416503906e-01) (327, 3.31623584032058715820e-01) (328, -9.01944041252136230469e-02) (329, 2.49847948551177978516e-01) (330, 2.55226403474807739258e-01) (331, 1.17125138640403747559e-01) (332, -1.18402364023495465517e-04) (333, -1.16299569606781005859e-01) (334, -5.99925108253955841064e-02) (335, 1.62902265787124633789e-01) (336, -1.15517480298876762390e-02) (337, -2.95710474252700805664e-01) (338, -3.15315514802932739258e-01) (339, -1.30228042602539062500e-01) (340, -5.79857192933559417725e-02) (341, 8.85326694697141647339e-03) (342, -1.95341855287551879883e-01) (343, 1.78401619195938110352e-01) (344, 2.01245218515396118164e-01) (345, 3.81197370588779449463e-02) (346, 1.78147733211517333984e-01) (347, -1.51685744524002075195e-01) (348, -4.89643476903438568115e-02) (349, 8.32166671752929687500e-02) (350, 1.00197061896324157715e-01) (351, 1.18501946330070495605e-01) (352, -1.73368692398071289062e-01) (353, -7.84913897514343261719e-02) (354, -3.03532928228378295898e-01) (355, -2.42549002170562744141e-01) (356, -7.82047361135482788086e-02) (357, -2.39711523056030273438e-01) (358, -1.95683658123016357422e-01) (359, 6.32920414209365844727e-02) (360, -4.50345546007156372070e-01) (361, -1.46371185779571533203e-01) (362, -1.65921926498413085938e-01) (363, 1.07675595209002494812e-02) (364, 1.07465028762817382812e-01) (365, 3.92119854688644409180e-01) (366, 9.43522304296493530273e-02) (367, -6.22113458812236785889e-02) (368, 3.39740030467510223389e-02) (369, -1.49874806404113769531e-01) (370, 2.64354318380355834961e-01) (371, 9.33629274368286132812e-02) (372, 1.23424082994461059570e-01) (373, 6.34766416624188423157e-03) (374, -1.91317796707153320312e-01) (375, -2.20526516437530517578e-01) (376, 7.51400040462613105774e-03) (377, -4.27273660898208618164e-01) (378, -3.22671502828598022461e-01) (379, 2.60810822248458862305e-01) (380, -3.64068359136581420898e-01) (381, -2.34019994735717773438e-01) (382, -4.50946778059005737305e-01) (383, -4.53928917646408081055e-01) (384, -7.70298540592193603516e-02) (385, -9.74714607000350952148e-02) (386, 5.22463507950305938721e-02) (387, 1.49867087602615356445e-01) (388, 1.36666595935821533203e-01) (389, 3.38152736425399780273e-01) (390, 4.51436549425125122070e-01) (391, 3.51473957300186157227e-01) (392, 1.30525290966033935547e-01) (393, 2.96197663992643356323e-02) (394, 2.37372680567204952240e-03) (395, 1.20594829320907592773e-01) (396, -3.14299613237380981445e-01) (397, -5.22860102355480194092e-02) (398, -1.85162305831909179688e-01) (399, -1.33112698793411254883e-01) (400, -3.25163871049880981445e-01) (0, -8.02358508110046386719e-01) (1, -1.54110506176948547363e-01) (2, 2.60354489088058471680e-01) (3, -1.89744576346129179001e-03) (4, -4.04820472002029418945e-01) (5, -5.89040927588939666748e-02) (6, 1.19889572262763977051e-01) (7, -2.09875419735908508301e-01) (8, -2.64789611101150512695e-02) (9, 3.23232144117355346680e-01) (10, 2.53536790609359741211e-01) (11, -3.74001674354076385498e-02) (12, 2.40531131625175476074e-01) (13, 3.98930273950099945068e-02) (14, 1.25235155224800109863e-01) (15, -1.11871361732482910156e-01) (16, -1.22614115476608276367e-01) (17, 4.29340936243534088135e-02) (18, 1.34422285482287406921e-02) (19, 1.53569253161549568176e-02) (20, 6.34707063436508178711e-02) (21, -6.88080787658691406250e-02) (22, 1.34613171219825744629e-01) (23, -1.95574536919593811035e-02) (24, -2.06204190850257873535e-01) (25, -1.82209059596061706543e-01) (26, -2.27927282452583312988e-01) (27, -3.26122969388961791992e-01) (28, -1.33184328675270080566e-01) (29, 1.00581288337707519531e-01) (30, 7.45109915733337402344e-02) (31, 1.32149145007133483887e-01) (32, 2.98506543040275573730e-02) (33, -2.42276325821876525879e-01) (34, 3.17990295588970184326e-02) (35, -7.92505592107772827148e-03) (36, -8.08590743690729141235e-03) (37, 9.30515676736831665039e-02) (38, 3.44578593969345092773e-01) (39, 3.65990906953811645508e-01) (40, -1.32752195000648498535e-01) (41, -2.52402752637863159180e-01) (42, 7.54048377275466918945e-02) (43, -2.90739268064498901367e-01) (44, -3.29306811094284057617e-01) (45, -2.86652654409408569336e-01) (46, -1.08346670866012573242e-01) (47, -2.12222471833229064941e-01) (48, -7.01993703842163085938e-02) (49, 3.13408137299120426178e-03) (50, 1.01177468895912170410e-01) (51, 6.70700669288635253906e-02) (52, 2.35289081931114196777e-01) (53, 7.97009319067001342773e-02) (54, -8.08014273643493652344e-02) (55, 1.43115773797035217285e-01) (56, -1.38250187039375305176e-01) (57, 2.72527784109115600586e-01) (58, 1.59166440367698669434e-01) (59, -1.50923565030097961426e-01) (60, 8.74415636062622070312e-02) (61, 1.28930166363716125488e-01) (62, -1.02406695485115051270e-01) (63, 1.92131325602531433105e-01) (64, -2.80180484056472778320e-01) (65, -1.79064825177192687988e-01) (66, -2.90047317743301391602e-01) (67, -5.03536820411682128906e-01) (68, -2.70059071481227874756e-02) (69, -2.15525731444358825684e-01) (70, 1.15188494324684143066e-01) (71, -1.27693578600883483887e-01) (72, 7.96435177326202392578e-02) (73, 8.35987776517868041992e-02) (74, 5.28646446764469146729e-02) (75, 2.26634517312049865723e-01) (76, -3.16727571189403533936e-02) (77, 2.48302929103374481201e-02) (78, 5.63947670161724090576e-02) (79, -2.91159361600875854492e-01) (80, -3.26427631080150604248e-02) (81, 1.72078236937522888184e-01) (82, -3.63125890493392944336e-01) (83, -1.19182458147406578064e-02) (84, 1.36458739638328552246e-01) (85, -2.88632541894912719727e-01) (86, -3.79745848476886749268e-02) (87, -1.54709830880165100098e-01) (88, -1.99453070759773254395e-01) (89, -1.18085548281669616699e-01) (90, 2.94511944055557250977e-01) (91, 1.81507065892219543457e-01) (92, -9.78327542543411254883e-02) (93, 1.72102794051170349121e-01) (94, 4.36128191649913787842e-02) (95, 2.57268220186233520508e-01) (96, 3.92419137060642242432e-02) (97, -2.29827329516410827637e-01) (98, 1.56192794442176818848e-01) (99, -5.09819723665714263916e-02) (100, -3.34371238946914672852e-01) (101, 6.58730883151292800903e-03) (102, -2.01299980282783508301e-01) (103, 2.18259558081626892090e-01) (104, -1.88139639794826507568e-02) (105, 6.48031663149595260620e-03) (106, -6.22921250760555267334e-02) (107, -5.43457232415676116943e-02) (108, 8.30691754817962646484e-02) (109, 1.45680839195847511292e-02) (110, 8.05798172950744628906e-02) (111, 1.32674708962440490723e-01) (112, 1.42696663737297058105e-01) (113, 1.70629069209098815918e-01) (114, 1.11774012446403503418e-01) (115, 1.52658566832542419434e-01) (116, 1.72020211815834045410e-01) (117, -4.93860580027103424072e-02) (118, 4.34865988790988922119e-02) (119, -1.67819038033485412598e-01) (120, -2.25239112973213195801e-01) (121, -3.27583737671375274658e-02) (122, 3.04974585771560668945e-01) (123, -9.66366380453109741211e-02) (124, -1.14118590950965881348e-01) (125, -2.02664330601692199707e-01) (126, 1.66565522551536560059e-01) (127, -1.86348244547843933105e-01) (128, 9.02859270572662353516e-02) (129, -1.07963278889656066895e-01) (130, 7.16472268104553222656e-02) (131, 3.69900971651077270508e-01) (132, -2.24955528974533081055e-02) (133, 2.61352092027664184570e-01) (134, 2.19137623906135559082e-01) (135, 1.72470822930335998535e-01) (136, 1.17030978202819824219e-01) (137, -2.08433762192726135254e-01) (138, -1.89389809966087341309e-01) (139, 6.92196656018495559692e-03) (140, 8.11649411916732788086e-02) (141, 3.51358540356159210205e-02) (142, 1.13809734582901000977e-01) (143, -2.82734781503677368164e-01) (144, -5.60374092310667037964e-03) (145, -7.67986774444580078125e-02) (146, 1.82201758027076721191e-01) (147, -2.45361924171447753906e-02) (148, 4.42645214498043060303e-02) (149, 1.46307185292243957520e-01) (150, -3.30793596804141998291e-02) (151, 3.43112558126449584961e-01) (152, 1.55299469828605651855e-01) (153, 2.83795207738876342773e-01) (154, 4.43999737501144409180e-01) (155, 1.54158517718315124512e-01) (156, -5.37851490080356597900e-02) (157, 6.57177716493606567383e-02) (158, 2.03211441636085510254e-01) (159, 1.90575584769248962402e-01) (160, -6.65004849433898925781e-02) (161, 3.24042230844497680664e-01) (162, 1.44323095679283142090e-01) (163, 4.55969534814357757568e-02) (164, -5.39375282824039459229e-02) (165, -2.40279808640480041504e-01) (166, -2.32837781310081481934e-01) (167, -2.45754495263099670410e-01) (168, -3.67620699107646942139e-02) (169, -8.21524858474731445312e-02) (170, 2.14338079094886779785e-01) (171, -6.57325237989425659180e-02) (172, -1.28989562392234802246e-01) (173, -1.53130427002906799316e-01) (174, -8.14075917005538940430e-02) (175, 1.36508569121360778809e-01) (176, 4.29010204970836639404e-02) (177, 5.57919926941394805908e-02) (178, -5.40508655831217765808e-04) (179, 5.35574890673160552979e-02) (180, 1.85780718922615051270e-01) (181, 1.11020028591156005859e-01) (182, -5.00885359942913055420e-02) (183, 1.38388618826866149902e-01) (184, 9.84807610511779785156e-02) (185, -7.09221214056015014648e-02) (186, -3.18756073713302612305e-01) (187, -3.29433709383010864258e-01) (188, 9.84118599444627761841e-03) (189, 1.41569003462791442871e-01) (190, 1.74190267920494079590e-01) (191, -1.08899280428886413574e-01) (192, -2.55292326211929321289e-01) (193, -1.07894346117973327637e-01) (194, -3.60031016170978546143e-02) (195, -6.78665786981582641602e-02) (196, 2.09567844867706298828e-02) (197, 2.38632895052433013916e-02) (198, -2.74676159024238586426e-02) (199, -2.25478820502758026123e-02) (200, 3.13258208334445953369e-02) (201, 7.68532156944274902344e-02) (202, -3.65998953580856323242e-01) (203, -1.12947195768356323242e-01) (204, 1.58785060048103332520e-01) (205, -7.67049044370651245117e-02) (206, 1.46187320351600646973e-01) (207, -4.25972729921340942383e-01) (208, -4.07542921602725982666e-02) (209, 3.54022122919559478760e-02) (210, 6.59900009632110595703e-02) (211, -7.56346732378005981445e-02) (212, -1.61928817629814147949e-01) (213, 3.61411683261394500732e-02) (214, -2.08844408392906188965e-01) (215, -2.88382247090339660645e-02) (216, -1.26260861754417419434e-01) (217, -1.99356421828269958496e-01) (218, -8.56339335441589355469e-02) (219, -5.66661022603511810303e-02) (220, -1.38129249215126037598e-01) (221, 2.92759314179420471191e-02) (222, -2.85269826650619506836e-01) (223, 4.02039550244808197021e-02) (224, 5.44406138360500335693e-02) (225, -7.59115517139434814453e-02) (226, 3.69957345537841320038e-03) (227, 8.41898322105407714844e-02) (228, -3.33060882985591888428e-02) (229, -4.33567650616168975830e-02) (230, 9.60246175527572631836e-02) (231, -1.34291067719459533691e-01) (232, -2.22991898655891418457e-01) (233, -1.53853371739387512207e-01) (234, -1.56963095068931579590e-01) (235, -3.93609516322612762451e-02) (236, -1.09316259622573852539e-01) (237, -1.65929302573204040527e-01) (238, 7.90898948907852172852e-02) (239, 7.81841129064559936523e-02) (240, 5.65115474164485931396e-02) (241, 1.91960439085960388184e-01) (242, 1.43161579966545104980e-01) (243, -1.13357126712799072266e-01) (244, 2.49572470784187316895e-01) (245, 1.77431210875511169434e-01) (246, 8.81749540567398071289e-02) (247, 3.65505553781986236572e-02) (248, 1.19377478957176208496e-01) (249, -7.37048238515853881836e-02) (250, 1.57447651028633117676e-01) (251, -2.34029874205589294434e-01) (252, -1.26358136534690856934e-01) (253, -3.26227881014347076416e-02) (254, -8.00108816474676132202e-03) (255, -2.07627229392528533936e-02) (256, -1.45416602492332458496e-01) (257, -2.84914344549179077148e-01) (258, -1.78415402770042419434e-01) (259, -2.09884643554687500000e-02) (260, -7.34955519437789916992e-02) (261, 2.21134312450885772705e-02) (262, -4.61398325860500335693e-02) (263, 8.50656479597091674805e-02) (264, 1.33865699172019958496e-01) (265, 1.11397087574005126953e-01) (266, 4.34281557798385620117e-01) (267, 3.29665750265121459961e-01) (268, 4.16978806257247924805e-01) (269, -5.07147870957851409912e-02) (270, 3.43497782945632934570e-01) (271, -1.36782780289649963379e-01) (272, -8.98645371198654174805e-02) (273, 1.13486334681510925293e-01) (274, 1.61906316876411437988e-01) (275, 3.69819015264511108398e-01) (276, 1.57991394400596618652e-01) (277, -1.46493062376976013184e-01) (278, 2.39637605845928192139e-02) (279, -1.16878136992454528809e-01) (280, -1.95870473980903625488e-01) (281, 1.19332283735275268555e-01) (282, -1.91741928458213806152e-01) (283, 6.56239986419677734375e-02) (284, 1.39422103762626647949e-01) (285, 4.19851206243038177490e-03) (286, 1.51977345347404479980e-01) (287, 2.26872429251670837402e-01) (288, -1.38743951916694641113e-01) (289, -2.42967560887336730957e-01) (290, 2.30841502547264099121e-01) (291, 1.00960180163383483887e-01) (292, 7.11930543184280395508e-02) (293, 2.87566110491752624512e-02) (294, 9.72975194454193115234e-02) (295, -1.05103030800819396973e-01) (296, 1.08153074979782104492e-01) (297, -5.60975335538387298584e-02) (298, 2.19593927264213562012e-01) (299, -3.00735905766487121582e-02) (300, -4.28169220685958862305e-01) (301, -2.32090339064598083496e-01) (302, -2.05464377999305725098e-01) (303, -9.30790901184082031250e-02) (304, -1.32675811648368835449e-01) (305, 2.97288328409194946289e-01) (306, 1.09162718057632446289e-01) (307, 8.08281917124986648560e-03) (308, -1.05450088158249855042e-02) (309, -4.96493838727474212646e-03) (310, 1.06458932161331176758e-01) (311, 1.81399658322334289551e-01) (312, 5.72846420109272003174e-02) (313, -7.82970935106277465820e-02) (314, 3.13566513359546661377e-02) (315, -1.63231626152992248535e-01) (316, -8.63346606492996215820e-02) (317, -1.31370976567268371582e-01) (318, -2.09686890244483947754e-01) (319, -2.67723910510540008545e-02) (320, -9.84681993722915649414e-02) (321, -5.55801875889301300049e-02) (322, -4.36383813619613647461e-01) (323, -3.03875833749771118164e-01) (324, 1.18993833661079406738e-01) (325, 8.45080465078353881836e-02) (326, 1.27028850838541984558e-02) (327, -1.87603905797004699707e-01) (328, 1.48135259747505187988e-01) (329, -1.12648904323577880859e-01) (330, 1.32765635848045349121e-01) (331, 2.10930630564689636230e-02) (332, -9.40889418125152587891e-02) (333, -7.18566328287124633789e-02) (334, 6.69509321451187133789e-02) (335, -3.21315795183181762695e-01) (336, -3.05372639559209346771e-03) (337, 9.61202532052993774414e-02) (338, 4.07866872847080230713e-02) (339, -5.98215125501155853271e-02) (340, -3.74163180589675903320e-01) (341, -2.84930765628814697266e-02) (342, -5.83200044929981231689e-02) (343, -2.90286570787429809570e-01) (344, -1.61151692271232604980e-01) (345, 1.89437717199325561523e-02) (346, -3.04884888464584946632e-04) (347, 8.51350873708724975586e-02) (348, 8.03682357072830200195e-02) (349, 1.22514501214027404785e-01) (350, 2.22432330250740051270e-01) (351, 1.73708453774452209473e-01) (352, -6.45934324711561203003e-03) (353, 9.06829386949539184570e-02) (354, 2.65443511307239532471e-02) (355, 1.36526480317115783691e-01) (356, -1.37538000941276550293e-01) (357, -2.37133398652076721191e-01) (358, 1.80303201079368591309e-01) (359, -1.34374306071549654007e-03) (360, -4.57497268915176391602e-01) (361, -2.10323736071586608887e-01) (362, 5.88631350547075271606e-03) (363, 2.62736290693283081055e-01) (364, -1.01407259702682495117e-01) (365, -2.52181798219680786133e-01) (366, 2.78776139020919799805e-02) (367, -2.23637856543064117432e-02) (368, -1.28022758872248232365e-04) (369, 1.72211423516273498535e-01) (370, 2.27844551205635070801e-01) (371, 3.51434558629989624023e-01) (372, 4.37983542680740356445e-01) (373, -4.81312237679958343506e-02) (374, 1.05999633669853210449e-01) (375, 1.02056160569190979004e-01) (376, -1.57241538166999816895e-01) (377, 5.98652102053165435791e-02) (378, -2.29246184229850769043e-01) (379, 1.66804388165473937988e-01) (380, -2.26388528943061828613e-01) (381, -1.23474851250648498535e-01) (382, -4.08362895250320434570e-01) (383, -3.11015635728836059570e-01) (384, -8.73930472880601882935e-03) (385, 1.18544638156890869141e-01) (386, -1.49522600695490837097e-02) (387, -4.66003976762294769287e-02) (388, -2.04149827361106872559e-01) (389, 4.47001717984676361084e-02) (390, 1.31112083792686462402e-01) (391, 2.69331604242324829102e-01) (392, 2.93129593133926391602e-01) (393, 6.12218789756298065186e-02) (394, -3.93271930515766143799e-02) (395, -1.43084034323692321777e-01) (396, -1.74773380160331726074e-01) (397, 8.52093994617462158203e-02) (398, 4.20272164046764373779e-02) (399, -1.37370243668556213379e-01) (400, 3.24948042631149291992e-01) (0, 9.63681191205978393555e-02) (1, -2.37070724368095397949e-01) (2, -1.84361919760704040527e-01) (3, -7.60722458362579345703e-02) (4, 1.00959867238998413086e-01) (5, -7.38767683506011962891e-02) (6, 3.32600504159927368164e-01) (7, 8.62943977117538452148e-02) (8, 2.01649174094200134277e-01) (9, -5.28414361178874969482e-02) (10, -9.42911803722381591797e-02) (11, -8.40195119380950927734e-02) (12, 4.37910296022891998291e-02) (13, 6.90112113952636718750e-02) (14, 9.34657752513885498047e-02) (15, 3.06868225336074829102e-01) (16, -1.12293615937232971191e-01) (17, 1.15506127476692199707e-01) (18, -4.09183911979198455811e-02) (19, 2.80174940824508666992e-01) (20, -1.13865211606025695801e-02) (21, -2.04444125294685363770e-01) (22, -7.90363699197769165039e-02) (23, -8.79831239581108093262e-03) (24, -5.74539089575409889221e-03) (25, -2.10725530982017517090e-01) (26, -4.24834005534648895264e-02) (27, -1.91236510872840881348e-02) (28, 4.30104248225688934326e-02) (29, -8.30567479133605957031e-02) (30, 6.68295770883560180664e-02) (31, -1.30309328436851501465e-01) (32, 4.53349435701966285706e-03) (33, 3.26601527631282806396e-02) (34, 3.54133211076259613037e-02) (35, 2.68067449331283569336e-01) (36, -1.47119924426078796387e-01) (37, -1.71265944838523864746e-01) (38, -3.54624301195144653320e-01) (39, -4.26108278334140777588e-02) (40, 3.63413482904434204102e-01) (41, -7.97851234674453735352e-02) (42, -2.06394754350185394287e-02) (43, -8.21274369955062866211e-02) (44, 1.55357196927070617676e-01) (45, 3.23700755834579467773e-01) (46, -1.39330759644508361816e-01) (47, 2.13868752121925354004e-01) (48, 1.71354249119758605957e-01) (49, 8.46430212259292602539e-02) (50, 3.46180833876132965088e-02) (51, -2.38881573081016540527e-01) (52, -3.92431803047657012939e-02) (53, -1.28275290131568908691e-01) (54, 1.06703187339007854462e-03) (55, 3.81004773080348968506e-02) (56, 2.23843343555927276611e-02) (57, 1.38064250349998474121e-01) (58, -7.73478746414184570312e-02) (59, 1.32068678736686706543e-01) (60, 2.41189435124397277832e-01) (61, -1.57231673598289489746e-01) (62, 8.24912339448928833008e-02) (63, -2.63286322355270385742e-01) (64, -1.91568329930305480957e-01) (65, -1.15340590476989746094e-01) (66, 4.17185984551906585693e-02) (67, -7.99962282180786132812e-02) (68, -8.51966142654418945312e-02) (69, -5.40372682735323905945e-03) (70, -1.52212306857109069824e-01) (71, -2.65746004879474639893e-03) (72, 3.83975990116596221924e-02) (73, -1.42786219716072082520e-01) (74, -1.13408993929624557495e-02) (75, -5.22533021867275238037e-02) (76, 7.67405033111572265625e-02) (77, 2.32283368706703186035e-01) (78, 1.51256427168846130371e-01) (79, 2.74022608995437622070e-01) (80, 3.68116647005081176758e-01) (81, -2.71740943193435668945e-01) (82, -8.92613679170608520508e-02) (83, 7.45187997817993164062e-02) (84, 8.58639776706695556641e-02) (85, -7.62625783681869506836e-02) (86, 3.87270636856555938721e-02) (87, 2.32315048575401306152e-01) (88, 1.63411214947700500488e-01) (89, 2.03712806105613708496e-01) (90, 1.41464604530483484268e-03) (91, -9.78288650512695312500e-02) (92, -1.17229998111724853516e-01) (93, 6.95457160472869873047e-02) (94, 2.33574584126472473145e-01) (95, 1.74365416169166564941e-01) (96, -5.35582542419433593750e-01) (97, -3.71451884508132934570e-01) (98, 3.19702237844467163086e-01) (99, 9.51470285654067993164e-02) (100, 2.97883421182632446289e-01) (101, -3.64087037742137908936e-02) (102, 4.88008745014667510986e-02) (103, -2.06546679139137268066e-01) (104, -9.10370945930480957031e-02) (105, -7.49965161085128784180e-02) (106, 2.55667477846145629883e-01) (107, 3.24702531099319458008e-01) (108, -7.36296223476529121399e-03) (109, 8.04837197065353393555e-02) (110, 1.17145061492919921875e-01) (111, 5.03086810931563377380e-03) (112, -6.66437447071075439453e-02) (113, 6.15198872983455657959e-02) (114, 8.43218117952346801758e-02) (115, 2.36601933836936950684e-01) (116, -7.55756646394729614258e-02) (117, 8.13326835632324218750e-02) (118, 4.28616888821125030518e-02) (119, 8.85788649320602416992e-02) (120, 3.10445040464401245117e-01) (121, -8.62796008586883544922e-02) (122, 1.13705694675445556641e-01) (123, 8.80907028913497924805e-02) (124, 9.30373265873640775681e-04) (125, 7.55363702774047851562e-02) (126, 4.63019348680973052979e-02) (127, -1.06741189956665039062e-02) (128, 9.65550541877746582031e-02) (129, -6.01433105766773223877e-02) (130, 1.15131512284278869629e-01) (131, 2.11881175637245178223e-02) (132, -1.46102115511894226074e-01) (133, 4.86484281718730926514e-02) (134, 6.44575655460357666016e-02) (135, 1.45896151661872863770e-01) (136, 6.96615576744079589844e-02) (137, 5.72384260594844818115e-02) (138, -5.10773099958896636963e-02) (139, 2.44571045041084289551e-01) (140, -3.11109088361263275146e-02) (141, -1.03522002696990966797e-01) (142, -7.34176998957991600037e-03) (143, -1.13284483551979064941e-01) (144, 1.72240510582923889160e-01) (145, -7.95819163322448730469e-02) (146, -1.53088107705116271973e-01) (147, -4.63840328156948089600e-02) (148, -1.12631307274568825960e-04) (149, 1.97716243565082550049e-02) (150, 1.69826492667198181152e-01) (151, 2.44521126151084899902e-02) (152, 1.82280853390693664551e-01) (153, 2.09539070725440979004e-01) (154, 1.44237264990806579590e-01) (155, 2.53669947385787963867e-01) (156, -5.05354590713977813721e-02) (157, 9.08574610948562622070e-02) (158, -2.50411123037338256836e-01) (159, 2.94700190424919128418e-02) (160, 1.68188467621803283691e-01) (161, 1.51061210781335830688e-02) (162, 1.42468288540840148926e-01) (163, 1.70761212706565856934e-01) (164, -1.17296010255813598633e-01) (165, -1.29137083888053894043e-01) (166, -2.18361631035804748535e-01) (167, -4.60639856755733489990e-02) (168, 8.72888267040252685547e-02) (169, 1.21653810143470764160e-01) (170, 3.09342533349990844727e-01) (171, 1.31022498011589050293e-01) (172, 1.15581303834915161133e-01) (173, 1.68638393282890319824e-01) (174, 2.27204725146293640137e-01) (175, 2.02650025486946105957e-01) (176, -3.17681342363357543945e-01) (177, -1.66801288723945617676e-01) (178, -1.73703894019126892090e-01) (179, 1.41970708966255187988e-01) (180, -4.35327878221869468689e-03) (181, -1.49922564625740051270e-01) (182, -1.22592613101005554199e-01) (183, -8.49602818489074707031e-02) (184, -7.52419829368591308594e-02) (185, -2.34000697731971740723e-01) (186, -1.41866877675056457520e-01) (187, -2.58345752954483032227e-01) (188, -1.96274325251579284668e-01) (189, 1.57685384154319763184e-01) (190, 4.29739505052566528320e-01) (191, 3.03746551275253295898e-01) (192, 2.47281059622764587402e-01) (193, 1.24594420194625854492e-02) (194, 1.14175751805305480957e-01) (195, 2.93526738882064819336e-01) (196, -3.99658270180225372314e-02) (197, -2.50609844923019409180e-01) (198, -1.63206174969673156738e-01) (199, 1.00122779607772827148e-01) (200, 2.68007144331932067871e-02) (201, -2.01017245650291442871e-01) (202, -1.86257228255271911621e-01) (203, -2.15160823427140712738e-03) (204, -8.20715874433517456055e-02) (205, -1.80083766579627990723e-01) (206, -1.55281051993370056152e-01) (207, -2.17066958546638488770e-01) (208, 7.15991705656051635742e-02) (209, -1.23393032699823379517e-02) (210, 1.43857076764106750488e-01) (211, -1.22537225484848022461e-01) (212, 1.10486492514610290527e-01) (213, -1.74874253571033477783e-02) (214, 1.32150575518608093262e-01) (215, -1.28063783049583435059e-01) (216, -1.21959447860717773438e-02) (217, -1.57257452607154846191e-01) (218, -2.30333670973777770996e-01) (219, 1.66553482413291931152e-01) (220, 1.27098068594932556152e-01) (221, -1.30930542945861816406e-02) (222, -1.35332986712455749512e-01) (223, -1.57384857535362243652e-01) (224, -2.46351674199104309082e-01) (225, -1.25645980238914489746e-01) (226, -1.22574687004089355469e-01) (227, -6.86413347721099853516e-02) (228, -1.06919631361961364746e-01) (229, 5.85726788267493247986e-03) (230, 1.02890715003013610840e-01) (231, -1.10462695360183715820e-01) (232, 1.01962253451347351074e-01) (233, -3.20915244519710540771e-02) (234, 1.00285321474075317383e-01) (235, -1.71409592032432556152e-01) (236, -2.99404829740524291992e-01) (237, -1.57364413142204284668e-01) (238, -3.03170770406723022461e-01) (239, 1.86594441533088684082e-01) (240, -5.40228420868515968323e-03) (241, 2.01486393809318542480e-01) (242, 2.24821463227272033691e-01) (243, 8.69272053241729736328e-02) (244, -1.47856160998344421387e-01) (245, 5.04952631890773773193e-02) (246, 2.51288145780563354492e-01) (247, -2.54360623657703399658e-02) (248, 1.40022970736026763916e-02) (249, -5.37448115646839141846e-02) (250, -1.11993283033370971680e-01) (251, -2.48696699738502502441e-01) (252, -7.20038414001464843750e-02) (253, -1.75100371241569519043e-01) (254, -1.18480831384658813477e-01) (255, -3.12845520675182342529e-02) (256, -1.07210129499435424805e-01) (257, -1.16815730929374694824e-01) (258, -8.88302773237228393555e-02) (259, 2.67047792673110961914e-01) (260, -8.41993093490600585938e-02) (261, -1.69201746582984924316e-01) (262, -9.26680564880371093750e-02) (263, -6.95937424898147583008e-02) (264, -4.38063330948352813721e-02) (265, 1.90391585230827331543e-01) (266, 1.17843076586723327637e-01) (267, -2.66723483800888061523e-02) (268, 2.35968716442584991455e-02) (269, -1.65785655379295349121e-01) (270, -1.22815519571304321289e-01) (271, -1.99765250086784362793e-01) (272, -9.91932302713394165039e-02) (273, -5.20318932831287384033e-02) (274, -1.51718035340309143066e-01) (275, -1.91483125090599060059e-01) (276, -8.47187191247940063477e-02) (277, 1.40883717685937881470e-02) (278, 6.95546120405197143555e-02) (279, 1.79051086306571960449e-01) (280, 9.63262170553207397461e-02) (281, 6.91613852977752685547e-02) (282, 2.29324363172054290771e-02) (283, 2.94882327318191528320e-01) (284, 6.29008412361145019531e-02) (285, 9.45157855749130249023e-02) (286, 2.15645477175712585449e-01) (287, 8.25956463813781738281e-02) (288, 9.40816849470138549805e-02) (289, -2.38164737820625305176e-01) (290, -3.11098068952560424805e-01) (291, -2.29949310421943664551e-01) (292, 1.82629041373729705811e-02) (293, -6.08036778867244720459e-02) (294, -1.09998524188995361328e-01) (295, -1.09776780009269714355e-01) (296, -3.84758859872817993164e-01) (297, -9.73015874624252319336e-02) (298, 3.05084288120269775391e-02) (299, 1.04934528470039367676e-01) (300, 1.01526007056236267090e-01) (301, 4.71804700791835784912e-02) (302, -6.83327168226242065430e-02) (303, 2.17917367815971374512e-01) (304, 4.08082753419876098633e-01) (305, -4.36113439500331878662e-02) (306, 1.71307921409606933594e-02) (307, 2.55709618330001831055e-01) (308, -8.33108574151992797852e-02) (309, -1.00633025169372558594e-01) (310, -1.76540151238441467285e-01) (311, -1.04837089776992797852e-01) (312, -3.23787420988082885742e-01) (313, -3.63122135400772094727e-01) (314, 4.47911731898784637451e-02) (315, 4.26051229238510131836e-01) (316, 1.25342026352882385254e-01) (317, 1.45942702889442443848e-01) (318, 1.85191199183464050293e-01) (319, 6.04222528636455535889e-02) (320, -1.22425749897956848145e-01) (321, 5.64556457102298736572e-02) (322, -1.21448472142219543457e-01) (323, 1.09723035711795091629e-03) (324, 2.80616909265518188477e-01) (325, 1.78773477673530578613e-01) (326, -1.30888059735298156738e-01) (327, -1.60982310771942138672e-02) (328, -1.67312808334827423096e-02) (329, -1.55318245291709899902e-01) (330, 1.02166727185249328613e-01) (331, -8.70686918497085571289e-02) (332, 3.04953157901763916016e-02) (333, 1.39996811747550964355e-01) (334, 9.04394984245300292969e-02) (335, 1.83267101645469665527e-01) (336, -6.35167658329010009766e-02) (337, -7.62067884206771850586e-02) (338, 2.50054955482482910156e-01) (339, 1.56015440821647644043e-01) (340, -6.32013380527496337891e-02) (341, -5.68215502426028251648e-03) (342, 2.27589067071676254272e-03) (343, -2.84676104784011840820e-01) (344, -7.60915279388427734375e-02) (345, -2.13854297995567321777e-01) (346, 2.28689923882484436035e-01) (347, -2.44399711489677429199e-01) (348, -8.23739171028137207031e-02) (349, 5.97140053287148475647e-03) (350, 7.83408817369490861893e-04) (351, 4.85617853701114654541e-02) (352, 8.45173448324203491211e-02) (353, 6.15124665200710296631e-02) (354, 3.72412838041782379150e-02) (355, 1.19246691465377807617e-01) (356, -1.86978235840797424316e-01) (357, -1.64861709345132112503e-03) (358, 1.40098705887794494629e-01) (359, 1.50862202048301696777e-01) (360, -1.09330177307128906250e-01) (361, 1.32189378142356872559e-01) (362, -2.06028178334236145020e-01) (363, -2.44290396571159362793e-01) (364, 9.79126989841461181641e-03) (365, -2.79369726777076721191e-02) (366, -4.23721410334110260010e-02) (367, -1.53879061341285705566e-01) (368, -1.86282739043235778809e-01) (369, -4.99248020350933074951e-02) (370, -1.53814721852540969849e-02) (371, 1.10043480992317199707e-01) (372, 1.34292021393775939941e-01) (373, 1.40514671802520751953e-02) (374, -1.08503356575965881348e-01) (375, -2.98232704401016235352e-01) (376, 4.56664897501468658447e-02) (377, 1.81482478976249694824e-01) (378, 1.06958538293838500977e-01) (379, 2.08079323172569274902e-01) (380, -2.08337649703025817871e-01) (381, -9.11830514669418334961e-02) (382, -2.44232967495918273926e-01) (383, -4.25649255514144897461e-01) (384, -2.96239517629146575928e-02) (385, -6.60318136215209960938e-02) (386, 4.85436134040355682373e-02) (387, -3.01239490509033203125e-02) (388, 1.10095500946044921875e-01) (389, -6.11557550728321075439e-02) (390, -1.68356284499168395996e-01) (391, -1.64334788918495178223e-01) (392, -3.62072251737117767334e-02) (393, -8.00128281116485595703e-02) (394, 2.66872681677341461182e-02) (395, 1.51797279715538024902e-01) (396, 4.50032539665699005127e-02) (397, -1.44622549414634704590e-01) (398, 7.78393596410751342773e-02) (399, 9.69038009643554687500e-02) (400, -1.37978196144104003906e+00) (0, 3.80005598068237304688e-01) (1, 2.08967044949531555176e-01) (2, 1.91315725445747375488e-01) (3, 1.84203878045082092285e-01) (4, 9.67768654227256774902e-02) (5, 1.28258839249610900879e-01) (6, 5.31204417347908020020e-02) (7, 3.05709123611450195312e-01) (8, 1.10939882695674896240e-01) (9, 3.93720716238021850586e-02) (10, 1.27354249358177185059e-01) (11, 2.94319987297058105469e-01) (12, 4.52747521921992301941e-03) (13, 9.18777063488960266113e-02) (14, -6.97489688172936439514e-03) (15, 6.57530501484870910645e-02) (16, 2.72102355957031250000e-01) (17, 2.64442801475524902344e-01) (18, 3.38990688323974609375e-01) (19, 3.51550757884979248047e-01) (20, -3.28861996531486511230e-02) (21, 2.54930332303047180176e-02) (22, -1.29751041531562805176e-01) (23, 2.78218463063240051270e-02) (24, -1.71008870005607604980e-01) (25, -1.85334399342536926270e-01) (26, 7.19240829348564147949e-02) (27, 1.27378627657890319824e-01) (28, 8.77855047583580017090e-02) (29, -3.77430766820907592773e-02) (30, -6.58178552985191345215e-02) (31, 5.74283003807067871094e-02) (32, -1.46147822961211204529e-02) (33, -1.18521578609943389893e-01) (34, -1.11288942396640777588e-01) (35, 1.41834869980812072754e-01) (36, 4.67882007360458374023e-02) (37, -9.95466634631156921387e-02) (38, -7.95132443308830261230e-02) (39, 1.20498947799205780029e-01) (40, 1.83893963694572448730e-01) (41, 1.41776874661445617676e-01) (42, 1.15682639181613922119e-01) (43, -7.53268459811806678772e-03) (44, -4.19404059648513793945e-02) (45, 1.22378684580326080322e-01) (46, -7.72404149174690246582e-02) (47, 8.30795709043741226196e-03) (48, -5.39223477244377136230e-02) (49, -1.69863998889923095703e-02) (50, -3.81055995821952819824e-02) (51, 3.55659425258636474609e-02) (52, -2.49022915959358215332e-02) (53, -6.74916729331016540527e-02) (54, -5.47932609915733337402e-02) (55, 5.99544495344161987305e-02) (56, 1.38245210051536560059e-01) (57, -1.10672049224376678467e-01) (58, -2.43731334805488586426e-01) (59, 1.48144498467445373535e-01) (60, 4.91755753755569458008e-02) (61, 4.71914410591125488281e-02) (62, -2.57452428340911865234e-01) (63, -1.42467722296714782715e-01) (64, -4.90300869569182395935e-03) (65, -4.55198511481285095215e-02) (66, -6.51938691735267639160e-02) (67, 1.11041210591793060303e-01) (68, -1.33941611275076866150e-02) (69, 4.22982797026634216309e-02) (70, 3.25434505939483642578e-02) (71, 8.53100791573524475098e-02) (72, 1.06634624302387237549e-01) (73, -1.45356236025691032410e-02) (74, 9.10401865839958190918e-02) (75, -4.61991876363754272461e-02) (76, -1.00086517632007598877e-01) (77, -4.14041429758071899414e-02) (78, -4.54305037856101989746e-02) (79, 1.14792333915829658508e-02) (80, -1.14706300199031829834e-01) (81, -1.50928450748324394226e-02) (82, -5.24907484650611877441e-02) (83, -1.49819357320666313171e-02) (84, 8.19923207163810729980e-02) (85, 2.43764221668243408203e-02) (86, 6.46690502762794494629e-02) (87, -1.74304857850074768066e-01) (88, 1.09201468527317047119e-01) (89, 1.76938608288764953613e-01) (90, -1.49007653817534446716e-02) (91, 2.00245514512062072754e-01) (92, 1.84001341462135314941e-01) (93, 1.37236556038260459900e-02) (94, -7.06715648993849754333e-03) (95, 9.73265394568443298340e-02) (96, 1.98900327086448669434e-01) (97, -4.79267314076423645020e-02) (98, -1.59912750124931335449e-01) (99, -3.61358895897865295410e-02) (100, 3.31611931324005126953e-02) (101, -5.38131454959511756897e-03) (102, -1.85786895453929901123e-02) (103, -1.76806794479489326477e-03) (104, 1.25509396195411682129e-01) (105, -1.35811373591423034668e-01) (106, 1.77512481808662414551e-01) (107, 2.70550072193145751953e-01) (108, 2.14809194207191467285e-01) (109, 1.14417560398578643799e-01) (110, -6.55778273940086364746e-02) (111, 1.25063225626945495605e-01) (112, 3.00865527242422103882e-03) (113, 4.56021055579185485840e-02) (114, 1.39112332835793495178e-02) (115, -4.23924922943115234375e-02) (116, 1.83896228671073913574e-01) (117, 4.93991151452064514160e-02) (118, -8.60709771513938903809e-02) (119, 8.02706088870763778687e-03) (120, 1.22763387858867645264e-01) (121, 1.21988750994205474854e-01) (122, 1.60697743296623229980e-01) (123, 2.76224873960018157959e-02) (124, 7.85966739058494567871e-02) (125, -3.66769358515739440918e-03) (126, -8.59414879232645034790e-03) (127, 2.11696073412895202637e-01) (128, -8.04581586271524429321e-03) (129, 1.91255584359169006348e-02) (130, 8.13647881150245666504e-02) (131, -1.01425997912883758545e-01) (132, -2.81421514227986335754e-03) (133, -2.95194843783974647522e-03) (134, 1.27163574099540710449e-01) (135, -3.59451696276664733887e-02) (136, 7.47030004858970642090e-02) (137, 6.20777010917663574219e-02) (138, -1.17371626198291778564e-01) (139, 5.50129115581512451172e-02) (140, 1.95654347538948059082e-01) (141, 1.91523000597953796387e-01) (142, 1.36252209544181823730e-01) (143, -1.05271287262439727783e-01) (144, 3.44891250133514404297e-02) (145, 6.67162463068962097168e-02) (146, -3.79427522420883178711e-02) (147, 5.39231225848197937012e-02) (148, -1.56910642981529235840e-01) (149, 2.34214551746845245361e-02) (150, 4.56570312380790710449e-02) (151, 9.01399329304695129395e-02) (152, 2.04028608277440071106e-03) (153, -1.53146209195256233215e-02) (154, -4.74606230854988098145e-02) (155, -3.02022732794284820557e-02) (156, 1.82593718171119689941e-01) (157, -8.61633475869894027710e-03) (158, 3.26219340786337852478e-03) (159, 1.76027998328208923340e-01) (160, 1.10586009919643402100e-01) (161, 8.34348127245903015137e-02) (162, 8.58233049511909484863e-02) (163, 3.46055775880813598633e-02) (164, -9.27778240293264389038e-03) (165, 4.52954471111297607422e-02) (166, -2.78874397277832031250e-01) (167, -1.29046872258186340332e-01) (168, -6.25006705522537231445e-02) (169, -1.72166928648948669434e-01) (170, -2.17739678919315338135e-02) (171, -2.37241983413696289062e-02) (172, 9.65695604681968688965e-02) (173, 3.41917052865028381348e-02) (174, 4.24004793167114257812e-02) (175, -3.72049286961555480957e-02) (176, 1.21845103800296783447e-01) (177, 1.66576541960239410400e-02) (178, 1.84095695614814758301e-01) (179, 1.50961592793464660645e-01) (180, 2.17692956328392028809e-01) (181, 1.24786533415317535400e-01) (182, -6.78399875760078430176e-02) (183, 2.90978029370307922363e-02) (184, 6.43905028700828552246e-02) (185, -7.73739144206047058105e-02) (186, -1.63389906287193298340e-01) (187, -3.13419513404369354248e-02) (188, -6.79555013775825500488e-02) (189, -1.09614552929997444153e-02) (190, -5.58166876435279846191e-02) (191, 1.69438764452934265137e-01) (192, 5.15537410974502563477e-02) (193, 3.05749215185642242432e-02) (194, 7.00029209256172180176e-02) (195, 2.21079841256141662598e-01) (196, 6.69591054320335388184e-02) (197, 1.33073106408119201660e-01) (198, 2.40828499197959899902e-01) (199, 1.29956707358360290527e-01) (200, 1.27543404698371887207e-01) (201, -1.46240398287773132324e-01) (202, -1.18120037019252777100e-01) (203, -2.32202723622322082520e-01) (204, -2.00641706585884094238e-01) (205, 4.63363900780677795410e-02) (206, -8.31705853343009948730e-02) (207, -4.00178879499435424805e-02) (208, -2.01343849301338195801e-01) (209, -1.93212255835533142090e-01) (210, -1.44178166985511779785e-01) (211, 1.48512616753578186035e-01) (212, -8.35320577025413513184e-02) (213, -1.94257460534572601318e-02) (214, 1.37324050068855285645e-01) (215, -1.52028962969779968262e-01) (216, -1.06454499065876007080e-01) (217, -1.62409201264381408691e-01) (218, 7.00980192050337791443e-03) (219, 8.36719349026679992676e-02) (220, 1.85229435563087463379e-01) (221, 5.19527792930603027344e-02) (222, -1.09129520133137702942e-02) (223, -2.95496135950088500977e-02) (224, -1.33605832234025001526e-02) (225, -2.43332162499427795410e-02) (226, 5.37253916263580322266e-02) (227, 1.21488623321056365967e-01) (228, 4.50293123722076416016e-02) (229, -1.24169282615184783936e-01) (230, 1.44117936491966247559e-01) (231, -3.94209921360015869141e-02) (232, 4.70370203256607055664e-02) (233, 5.43387234210968017578e-02) (234, -7.63274496421217918396e-03) (235, 1.00936451926827430725e-02) (236, -9.09598395228385925293e-02) (237, -2.56728589534759521484e-01) (238, -5.26084601879119873047e-02) (239, 1.73135682940483093262e-01) (240, 2.17078849673271179199e-01) (241, 2.63902209699153900146e-02) (242, -6.08584955334663391113e-02) (243, 1.23654700815677642822e-01) (244, 1.53768464922904968262e-01) (245, 4.33445200324058532715e-02) (246, 4.09746691584587097168e-02) (247, 2.14178487658500671387e-01) (248, -6.46123662590980529785e-02) (249, 1.10392756760120391846e-01) (250, -7.89794102311134338379e-02) (251, 4.10405695438385009766e-02) (252, 4.36483621597290039062e-02) (253, 9.34447571635246276855e-02) (254, 4.19165343046188354492e-02) (255, -3.48297879099845886230e-02) (256, -5.70745095610618591309e-02) (257, -1.25430092215538024902e-01) (258, -5.02664446830749511719e-02) (259, 1.90680250525474548340e-01) (260, 1.06488384306430816650e-01) (261, -1.05393148958683013916e-01) (262, -1.63812831044197082520e-01) (263, -1.89558252692222595215e-01) (264, 1.48244872689247131348e-01) (265, 1.00158698856830596924e-01) (266, -1.08936540782451629639e-01) (267, -6.58688619732856750488e-02) (268, -5.83567693829536437988e-02) (269, -6.68423995375633239746e-02) (270, 1.26795515418052673340e-01) (271, 1.13338408991694450378e-02) (272, 1.12198762595653533936e-01) (273, -6.49898573756217956543e-02) (274, 4.14895787835121154785e-02) (275, -1.85813203454017639160e-01) (276, 1.57150521874427795410e-01) (277, 8.67837294936180114746e-02) (278, -4.64360639452934265137e-02) (279, 1.28126248717308044434e-01) (280, 9.58982929587364196777e-02) (281, -9.92655977606773376465e-02) (282, -2.06034183502197265625e-02) (283, 3.58979552984237670898e-02) (284, 5.73883503675460815430e-02) (285, 4.43219169974327087402e-02) (286, 6.53489157557487487793e-02) (287, -1.06017611920833587646e-01) (288, -1.68458625674247741699e-01) (289, -8.63778367638587951660e-02) (290, -3.38596329092979431152e-02) (291, -3.52913960814476013184e-02) (292, -4.83025843277573585510e-03) (293, -1.12024180591106414795e-01) (294, 8.39627012610435485840e-02) (295, -1.18078971281647682190e-02) (296, 5.22747039794921875000e-02) (297, 6.81847939267754554749e-03) (298, 8.00827518105506896973e-02) (299, 7.21048340201377868652e-02) (300, 4.35630753636360168457e-02) (301, 9.14831683039665222168e-02) (302, -1.10243208706378936768e-01) (303, -1.01977981626987457275e-01) (304, -1.62300750613212585449e-01) (305, -1.87729105353355407715e-01) (306, -2.41960845887660980225e-02) (307, -1.62510707974433898926e-01) (308, -1.37259647250175476074e-01) (309, 2.05745324492454528809e-02) (310, 9.40066203474998474121e-02) (311, 4.02167961001396179199e-02) (312, 1.06030918657779693604e-01) (313, -7.61632248759269714355e-02) (314, 6.54590651392936706543e-02) (315, -8.08854475617408752441e-02) (316, 7.32749775052070617676e-02) (317, -4.15114238858222961426e-02) (318, -1.23045049607753753662e-01) (319, 2.45296135544776916504e-01) (320, 6.68689087033271789551e-02) (321, 1.22786380350589752197e-01) (322, -1.41942128539085388184e-01) (323, -6.86187520623207092285e-02) (324, 3.79133224487304687500e-02) (325, 1.37098863720893859863e-01) (326, 3.99368762969970703125e-01) (327, 1.20545111596584320068e-01) (328, -4.85862046480178833008e-02) (329, 2.49540880322456359863e-02) (330, 1.37916103005409240723e-01) (331, 1.60420700907707214355e-01) (332, 1.53525337576866149902e-01) (333, 8.00526216626167297363e-02) (334, 4.78733032941818237305e-02) (335, -4.60643768310546875000e-02) (336, 6.76617249846458435059e-02) (337, -8.15405622124671936035e-02) (338, 3.15543487668037414551e-02) (339, 1.90081462264060974121e-01) (340, 6.98772594332695007324e-02) (341, -8.47750678658485412598e-02) (342, -1.84972420334815979004e-01) (343, 8.34860131144523620605e-02) (344, 1.64479985833168029785e-01) (345, 1.77150771021842956543e-01) (346, 1.57451964914798736572e-02) (347, 4.77112084627151489258e-02) (348, 2.06198468804359436035e-02) (349, -1.89474061131477355957e-01) (350, 1.93517003208398818970e-03) (351, 5.29141798615455627441e-02) (352, -1.65607020258903503418e-01) (353, -4.17574122548103332520e-02) (354, -1.46813437342643737793e-01) (355, -7.02102258801460266113e-02) (356, -1.87726333737373352051e-01) (357, -1.46312728524208068848e-01) (358, 2.27534547448158264160e-02) (359, 2.21643522381782531738e-02) (360, 1.66126295924186706543e-01) (361, 3.75609174370765686035e-02) (362, -9.77824404835700988770e-02) (363, -8.99685844779014587402e-02) (364, -1.09700866043567657471e-01) (365, -1.43374666571617126465e-01) (366, -3.30009832978248596191e-02) (367, -8.15449431538581848145e-02) (368, -3.74467372894287109375e-02) (369, -2.01924249529838562012e-01) (370, -1.39687284827232360840e-01) (371, -1.05384759604930877686e-01) (372, 7.16815367341041564941e-02) (373, 3.51123660802841186523e-02) (374, 1.54586598277091979980e-01) (375, 1.24751307070255279541e-01) (376, 2.34802588820457458496e-01) (377, -1.01175405085086822510e-01) (378, -1.40776529908180236816e-01) (379, 2.13596448302268981934e-01) (380, 4.12288680672645568848e-02) (381, -5.72866648435592651367e-02) (382, -1.00435413420200347900e-01) (383, -3.82819622755050659180e-02) (384, -3.94962430000305175781e-02) (385, 1.86883196234703063965e-01) (386, 3.91336381435394287109e-02) (387, 1.32901268079876899719e-02) (388, 1.07642225921154022217e-01) (389, 1.88510701060295104980e-01) (390, -3.58830764889717102051e-02) (391, 1.08792386949062347412e-01) (392, 1.49824753403663635254e-01) (393, 2.09973417222499847412e-02) (394, -4.36793034896254539490e-03) (395, 1.50002643465995788574e-01) (396, 1.89879700541496276855e-01) (397, 2.42725685238838195801e-01) (398, -3.33512425422668457031e-02) (399, 2.57947370409965515137e-02) (400, -1.25462043285369873047e+00) (0, -4.28483307361602783203e-01) (1, 2.74014890193939208984e-01) (2, 2.40559026598930358887e-01) (3, -1.01890496909618377686e-01) (4, 5.14655895531177520752e-02) (5, 2.65572555363178253174e-02) (6, 1.51197686791419982910e-01) (7, 1.55440405011177062988e-01) (8, -1.71929404139518737793e-01) (9, 2.17233225703239440918e-01) (10, 1.13233767449855804443e-01) (11, 1.75718441605567932129e-01) (12, 2.51178853213787078857e-02) (13, 4.55660112202167510986e-02) (14, 1.54931053519248962402e-01) (15, 5.59778399765491485596e-02) (16, 2.59735167026519775391e-01) (17, 8.35096463561058044434e-02) (18, 2.55661070346832275391e-01) (19, 1.23661182820796966553e-01) (20, 2.62771546840667724609e-01) (21, -7.19444267451763153076e-03) (22, 1.23845450580120086670e-01) (23, -1.78617075085639953613e-01) (24, -2.71829292178153991699e-02) (25, 1.08983200043439865112e-02) (26, 4.18107397854328155518e-03) (27, 2.87858396768569946289e-02) (28, 2.60656587779521942139e-02) (29, -1.68094053864479064941e-01) (30, 2.13957056403160095215e-02) (31, -1.20010457932949066162e-01) (32, 1.99332818388938903809e-01) (33, -1.04366384446620941162e-01) (34, -1.51304736733436584473e-01) (35, -8.67747142910957336426e-02) (36, 3.85366752743721008301e-03) (37, -1.84409782290458679199e-01) (38, 9.37291458249092102051e-02) (39, 1.09399668872356414795e-01) (40, 1.42448529601097106934e-01) (41, 2.58011817932128906250e-01) (42, 2.57529258728027343750e-01) (43, -2.66313813626766204834e-02) (44, 1.32363155484199523926e-01) (45, 1.88312269747257232666e-02) (46, 4.67684958130121231079e-03) (47, -1.05285339057445526123e-01) (48, -2.20444574952125549316e-01) (49, -2.95213423669338226318e-02) (50, 4.15068082511425018311e-02) (51, -1.23223923146724700928e-01) (52, -3.08053418993949890137e-02) (53, 5.27259744703769683838e-02) (54, -3.09529267251491546631e-02) (55, -1.66858419775962829590e-01) (56, -1.36445179581642150879e-01) (57, -1.31176516413688659668e-01) (58, -2.43256643414497375488e-01) (59, -1.85459867119789123535e-01) (60, 1.22552834451198577881e-01) (61, 7.40919336676597595215e-02) (62, 5.34422583878040313721e-02) (63, 3.55416297912597656250e-01) (64, 3.71772468090057373047e-01) (65, 3.59780080616474151611e-02) (66, 8.06868001818656921387e-02) (67, 1.02869026362895965576e-01) (68, 1.23714827001094818115e-01) (69, 7.98109844326972961426e-02) (70, 1.12213172018527984619e-01) (71, 6.62304535508155822754e-02) (72, -1.01336233317852020264e-01) (73, 5.93815110623836517334e-02) (74, 1.47292893379926681519e-02) (75, 4.94955144822597503662e-02) (76, 1.65683142840862274170e-02) (77, -1.85369513928890228271e-02) (78, -4.39712665975093841553e-02) (79, -3.06397378444671630859e-02) (80, -9.64687988162040710449e-02) (81, 1.30432114005088806152e-01) (82, -2.03485414385795593262e-01) (83, -1.78207561373710632324e-01) (84, 4.89147640764713287354e-02) (85, -1.36748179793357849121e-01) (86, 4.86440025269985198975e-02) (87, 2.80310213565826416016e-01) (88, 4.24921922385692596436e-02) (89, -6.38161227107048034668e-02) (90, -3.56061868369579315186e-02) (91, 5.79492188990116119385e-02) (92, -2.01444029808044433594e-02) (93, -1.53959676623344421387e-01) (94, -8.68700221180915832520e-02) (95, 1.87654758337885141373e-03) (96, -1.74589790403842926025e-02) (97, 3.61432246863842010498e-02) (98, 1.04802094399929046631e-01) (99, 6.59604892134666442871e-02) (100, -2.83850431442260742188e-01) (101, -4.37984354794025421143e-02) (102, -1.15741305053234100342e-01) (103, 3.03047485649585723877e-02) (104, 2.03219614923000335693e-02) (105, -5.07982634007930755615e-02) (106, -4.97431121766567230225e-02) (107, 1.08660288155078887939e-01) (108, 1.49470075964927673340e-01) (109, 2.42301002144813537598e-01) (110, -1.84886589646339416504e-01) (111, 5.09900934994220733643e-02) (112, -1.71997383236885070801e-01) (113, 2.03757770359516143799e-02) (114, -6.27175197005271911621e-02) (115, -2.42405012249946594238e-01) (116, -2.43241675198078155518e-02) (117, 1.62468999624252319336e-02) (118, 4.87289018929004669189e-02) (119, 3.46227698028087615967e-02) (120, 6.96053132414817810059e-02) (121, 1.78353622555732727051e-01) (122, 1.38256177306175231934e-01) (123, 9.83541235327720642090e-02) (124, 3.59401144087314605713e-02) (125, 1.40658572316169738770e-01) (126, 2.07527540624141693115e-02) (127, 8.82266238331794738770e-02) (128, -2.94735282659530639648e-03) (129, 2.45024695992469787598e-01) (130, -2.38916426897048950195e-02) (131, -3.59346531331539154053e-02) (132, -1.19360722601413726807e-01) (133, -5.77039681375026702881e-02) (134, -2.51151144504547119141e-01) (135, -3.69302034378051757812e-01) (136, -4.54187877476215362549e-02) (137, -3.67247126996517181396e-02) (138, -5.69542311131954193115e-02) (139, -1.75786623731255531311e-03) (140, 3.38478274643421173096e-02) (141, 1.92726030945777893066e-01) (142, 1.96264423429965972900e-02) (143, -1.31147750653326511383e-03) (144, 1.89879223704338073730e-01) (145, -1.89465031027793884277e-01) (146, 1.12529911100864410400e-01) (147, 3.01028490066528320312e-01) (148, 4.34905402362346649170e-02) (149, 2.41314247250556945801e-01) (150, 1.53330639004707336426e-02) (151, -1.45587697625160217285e-01) (152, -8.72694328427314758301e-02) (153, -1.83996990323066711426e-01) (154, -3.96481268107891082764e-02) (155, 5.61866201460361480713e-02) (156, 1.36600777506828308105e-01) (157, -2.96269915997982025146e-02) (158, 1.01392842829227447510e-01) (159, -2.28905528783798217773e-02) (160, -1.78806111216545104980e-02) (161, -2.50525832176208496094e-01) (162, -1.54129629954695701599e-02) (163, -2.44098737835884094238e-01) (164, 2.13251546025276184082e-01) (165, 2.19588354229927062988e-01) (166, 2.34700739383697509766e-02) (167, 1.53504803776741027832e-01) (168, -3.77624817192554473877e-02) (169, 5.81080950796604156494e-02) (170, -1.76847651600837707520e-02) (171, 2.62551158666610717773e-02) (172, 6.09035454690456390381e-02) (173, -1.06477834284305572510e-01) (174, -6.26524910330772399902e-02) (175, -3.08175861835479736328e-01) (176, 4.84470762312412261963e-02) (177, 2.36640408635139465332e-01) (178, 1.66406884789466857910e-01) (179, -9.67264845967292785645e-02) (180, 2.59874641895294189453e-01) (181, -1.16978235542774200439e-01) (182, -2.14592769742012023926e-01) (183, -1.10997043550014495850e-01) (184, 7.96686634421348571777e-02) (185, -1.39213159680366516113e-01) (186, -2.37080708146095275879e-01) (187, -2.45605744421482086182e-02) (188, 7.88410529494285583496e-02) (189, 1.03552080690860748291e-01) (190, 2.23267450928688049316e-02) (191, 1.72938868403434753418e-01) (192, -3.31859523430466651917e-03) (193, -1.32627919316291809082e-01) (194, 4.43661212921142578125e-03) (195, -1.20267130434513092041e-01) (196, 1.60130664706230163574e-01) (197, 2.72136807441711425781e-01) (198, -1.32085517048835754395e-01) (199, -1.17307584732770919800e-02) (200, 2.26829126477241516113e-02) (201, -6.05247579514980316162e-02) (202, -9.87991020083427429199e-02) (203, -3.46747577190399169922e-01) (204, -4.77118454873561859131e-02) (205, -2.51628100872039794922e-01) (206, -1.46228805184364318848e-01) (207, 3.41250635683536529541e-02) (208, -1.87107786536216735840e-01) (209, 1.19644276797771453857e-01) (210, 7.82820656895637512207e-02) (211, 1.59233048558235168457e-01) (212, 2.53638386726379394531e-01) (213, 1.39976754784584045410e-01) (214, 4.66487742960453033447e-02) (215, 1.73463597893714904785e-01) (216, 8.52197781205177307129e-02) (217, -4.27681952714920043945e-03) (218, -1.79936364293098449707e-01) (219, -6.11005909740924835205e-02) (220, 1.26314833760261535645e-01) (221, -1.69812634587287902832e-01) (222, -3.29166352748870849609e-01) (223, -2.15500906109809875488e-01) (224, 5.68129681050777435303e-02) (225, -4.06205095350742340088e-03) (226, -4.37018610537052154541e-02) (227, 5.45405084267258644104e-04) (228, 1.25214442610740661621e-01) (229, -2.00058668851852416992e-02) (230, 8.45535472035408020020e-02) (231, 2.28641167283058166504e-01) (232, 2.24610462784767150879e-01) (233, 2.65699386596679687500e-01) (234, 4.76819097995758056641e-01) (235, 8.94688442349433898926e-02) (236, 1.85203149914741516113e-01) (237, 1.06932453811168670654e-01) (238, -5.40055818855762481689e-02) (239, 5.18743731081485748291e-02) (240, 2.38227859139442443848e-01) (241, 7.31063559651374816895e-02) (242, -5.22408671677112579346e-02) (243, -1.86262413859367370605e-01) (244, 4.41949851810932159424e-02) (245, 7.42993429303169250488e-02) (246, -4.30604159832000732422e-01) (247, -1.69100686907768249512e-01) (248, -4.67083789408206939697e-02) (249, 1.40186980366706848145e-01) (250, 1.40293940901756286621e-01) (251, 1.14931456744670867920e-01) (252, 9.90214273333549499512e-02) (253, 5.96564300358295440674e-02) (254, 2.63000667095184326172e-01) (255, 1.71739622950553894043e-01) (256, 4.79017086327075958252e-02) (257, -2.39773318171501159668e-01) (258, -7.04416558146476745605e-02) (259, 9.47573557496070861816e-02) (260, -4.44684270769357681274e-03) (261, 8.56125876307487487793e-02) (262, 2.13135734200477600098e-01) (263, 6.67688474059104919434e-02) (264, 7.41545036435127258301e-02) (265, -9.18521061539649963379e-02) (266, -1.31403908133506774902e-01) (267, 3.67120318114757537842e-02) (268, -1.47179827094078063965e-01) (269, 3.07667851448059082031e-02) (270, 1.82026922702789306641e-02) (271, 4.70608361065387725830e-02) (272, -8.73491838574409484863e-02) (273, -9.66759696602821350098e-02) (274, 1.13488651812076568604e-01) (275, 3.56707088649272918701e-02) (276, -8.67610499262809753418e-02) (277, 7.43221268057823181152e-02) (278, -9.87008884549140930176e-02) (279, 1.28252074122428894043e-01) (280, 1.03368736803531646729e-01) (281, 4.27121631801128387451e-02) (282, 2.72269323468208312988e-02) (283, 2.27360315620899200439e-02) (284, -5.92180527746677398682e-02) (285, 1.46549001336097717285e-01) (286, 1.59928612411022186279e-02) (287, -1.80908247828483581543e-01) (288, -1.72786280512809753418e-01) (289, -4.73366118967533111572e-02) (290, 7.80137553811073303223e-02) (291, -2.54622876644134521484e-01) (292, -2.58966863155364990234e-01) (293, -1.44888773560523986816e-01) (294, 1.21670905500650405884e-02) (295, -1.22419502586126327515e-02) (296, 2.09040924906730651855e-01) (297, 1.40961512923240661621e-01) (298, -2.92388169327750802040e-04) (299, 9.08912047743797302246e-02) (300, 6.21086992323398590088e-02) (301, -4.60478253662586212158e-02) (302, 1.54301270842552185059e-01) (303, 2.14346364140510559082e-01) (304, -5.83375059068202972412e-02) (305, -1.33786294609308242798e-02) (306, 1.13415367901325225830e-01) (307, 1.83044839650392532349e-03) (308, -3.36399627849459648132e-03) (309, 1.56268104910850524902e-01) (310, 8.31675603985786437988e-02) (311, 8.81837084889411926270e-02) (312, -6.14508129656314849854e-02) (313, -6.86853453516960144043e-02) (314, -5.15142418444156646729e-02) (315, -2.72012531757354736328e-01) (316, 4.05403710901737213135e-02) (317, 5.33982701599597930908e-02) (318, 1.60182848572731018066e-01) (319, 1.33309140801429748535e-01) (320, 2.58866623044013977051e-02) (321, -1.07800059020519256592e-01) (322, -1.58088371157646179199e-01) (323, 1.38374194502830505371e-01) (324, 1.38554081320762634277e-01) (325, -8.36384110152721405029e-03) (326, 2.41089925169944763184e-01) (327, 2.94314444065093994141e-01) (328, 8.61771181225776672363e-02) (329, 1.91787667572498321533e-02) (330, 3.26364524662494659424e-02) (331, -1.54718831181526184082e-01) (332, 4.55195922404527664185e-03) (333, -3.67409549653530120850e-02) (334, 6.01155869662761688232e-02) (335, 3.03638633340597152710e-03) (336, -1.72816708683967590332e-01) (337, -1.28979850560426712036e-02) (338, -2.24469378590583801270e-01) (339, 1.20576042681932449341e-02) (340, 1.49825140833854675293e-01) (341, -4.54036332666873931885e-02) (342, -1.20521388947963714600e-01) (343, 1.35818347334861755371e-02) (344, -3.48554439842700958252e-02) (345, 1.06602765619754791260e-01) (346, 8.35077837109565734863e-02) (347, 2.67762959003448486328e-01) (348, -6.74582198262214660645e-02) (349, 7.80260935425758361816e-02) (350, 3.51325934752821922302e-03) (351, -2.84304246306419372559e-02) (352, -1.83018334209918975830e-02) (353, -3.76453362405300140381e-02) (354, -6.20218254625797271729e-02) (355, -7.63549879193305969238e-02) (356, 4.51172553002834320068e-02) (357, 2.04614596441388130188e-03) (358, -1.58710017800331115723e-01) (359, 1.87632665038108825684e-02) (360, -1.12205576151609420776e-02) (361, -1.40068698674440383911e-02) (362, 1.90364673733711242676e-01) (363, 8.06081220507621765137e-02) (364, -4.18745838105678558350e-02) (365, -1.68208792805671691895e-01) (366, 3.72163914144039154053e-02) (367, -2.12507024407386779785e-01) (368, 7.69121572375297546387e-02) (369, 1.43943175673484802246e-01) (370, -4.03305562213063240051e-03) (371, -1.33077755570411682129e-01) (372, -4.52974624931812286377e-02) (373, -3.17547880113124847412e-02) (374, 8.94350372254848480225e-03) (375, 1.04708380997180938721e-01) (376, -1.81898064911365509033e-02) (377, -4.97874654829502105713e-02) (378, -3.82462680339813232422e-01) (379, 7.76923522353172302246e-02) (380, 1.74826875329017639160e-01) (381, 1.98943838477134704590e-01) (382, 1.38979956507682800293e-01) (383, 1.98418125510215759277e-02) (384, -6.54075369238853454590e-02) (385, -1.19743697345256805420e-01) (386, -1.16307668387889862061e-01) (387, -1.67340502142906188965e-01) (388, -6.15012715570628643036e-04) (389, 9.46454778313636779785e-02) (390, 4.82678040862083435059e-03) (391, 1.37428954243659973145e-01) (392, -5.96015192568302154541e-02) (393, -1.84389933943748474121e-01) (394, -4.91670668125152587891e-01) (395, -2.11949869990348815918e-01) (396, 2.50987522304058074951e-02) (397, 8.19114968180656433105e-03) (398, -3.59498143196105957031e-01) (399, -1.60463266074657440186e-02) (400, -1.45332610607147216797e+00) (0, 8.77676382660865783691e-02) (1, 1.27272546291351318359e-01) (2, 2.79104895889759063721e-02) (3, -1.14364512264728546143e-01) (4, 1.52856677770614624023e-01) (5, 9.41025391221046447754e-02) (6, 2.55409836769104003906e-01) (7, 1.05381108820438385010e-01) (8, 7.77036175131797790527e-02) (9, -1.84027522802352905273e-01) (10, -3.55365015566349029541e-02) (11, 9.34043303132057189941e-02) (12, 1.77289485931396484375e-01) (13, -1.20414294302463531494e-01) (14, 3.40486876666545867920e-02) (15, -3.17608304321765899658e-02) (16, -4.44578342139720916748e-02) (17, -1.09004117548465728760e-01) (18, -2.73497879505157470703e-01) (19, 2.62773215770721435547e-01) (20, -2.07821168005466461182e-02) (21, 2.09498941898345947266e-01) (22, -8.01490172743797302246e-02) (23, 2.65651196241378784180e-02) (24, -7.94887915253639221191e-02) (25, -1.67743191123008728027e-02) (26, -1.17067612707614898682e-01) (27, 1.02480776607990264893e-01) (28, -8.63384678959846496582e-02) (29, -1.67629539966583251953e-01) (30, -3.93085539340972900391e-01) (31, -2.88460910320281982422e-01) (32, -3.62652719020843505859e-01) (33, -2.22842574119567871094e-01) (34, -1.00631617009639739990e-01) (35, -5.19884340465068817139e-02) (36, -9.36309620738029479980e-02) (37, 1.06560438871383666992e-02) (38, -4.80470061302185058594e-01) (39, 7.33072832226753234863e-02) (40, 2.25638031959533691406e-01) (41, 4.46035623550415039062e-01) (42, 7.05258129164576530457e-03) (43, 3.99740695953369140625e-01) (44, -3.40322516858577728271e-02) (45, 2.67152488231658935547e-01) (46, 1.94880902767181396484e-01) (47, 2.10913509130477905273e-01) (48, -2.34220445156097412109e-01) (49, -3.24288129806518554688e-01) (50, 4.53548468649387359619e-02) (51, -1.53717905282974243164e-01) (52, -1.64974391460418701172e-01) (53, -1.08084149658679962158e-01) (54, -2.20192253589630126953e-01) (55, 2.22408235073089599609e-01) (56, 1.25611007213592529297e-01) (57, -1.06803327798843383789e-02) (58, -4.60186488926410675049e-02) (59, 2.13193655014038085938e-01) (60, 7.25307539105415344238e-02) (61, 7.53786489367485046387e-02) (62, 1.50099545717239379883e-01) (63, -1.33306324481964111328e-01) (64, 2.24677287042140960693e-02) (65, -2.76280760765075683594e-01) (66, -9.20549705624580383301e-02) (67, 4.64142672717571258545e-02) (68, -9.96251180768013000488e-02) (69, -1.40196293592453002930e-01) (70, -8.40951129794120788574e-02) (71, 1.49669289588928222656e-01) (72, -4.92112822830677032471e-02) (73, 6.56945863738656044006e-03) (74, 7.60354027152061462402e-02) (75, -7.01964041218161582947e-03) (76, 4.22366000711917877197e-02) (77, 8.69747921824455261230e-02) (78, -1.19216136634349822998e-01) (79, 7.92745277285575866699e-02) (80, 2.54170522093772888184e-02) (81, -1.97271704673767089844e-02) (82, -2.25202649831771850586e-01) (83, -2.37922705709934234619e-02) (84, -1.10543094575405120850e-01) (85, -3.17204482853412628174e-02) (86, -1.42387509346008300781e-01) (87, 1.53886616230010986328e-01) (88, 1.48046255111694335938e-01) (89, -1.64578378200531005859e-01) (90, -1.97567850351333618164e-01) (91, -1.12265460193157196045e-02) (92, 2.60518908500671386719e-01) (93, 8.30972269177436828613e-02) (94, 2.24478840827941894531e-01) (95, -6.98021724820137023926e-02) (96, -7.84371420741081237793e-02) (97, -3.32225076854228973389e-02) (98, 1.70841723680496215820e-01) (99, -1.76450848579406738281e-01) (100, 2.65380561351776123047e-01) (101, 2.85746514797210693359e-01) (102, -1.19931526482105255127e-01) (103, -8.65845903754234313965e-02) (104, -2.29598790407180786133e-01) (105, -2.28719949722290039062e-01) (106, 6.07271455228328704834e-02) (107, 2.18406170606613159180e-01) (108, -2.71338880062103271484e-01) (109, -1.96908593177795410156e-01) (110, 1.22077398002147674561e-01) (111, -7.31555595993995666504e-02) (112, -1.07239715754985809326e-01) (113, -2.51175165176391601562e-02) (114, -2.04742789268493652344e-01) (115, 1.59486383199691772461e-01) (116, -1.87606900930404663086e-01) (117, -1.65283828973770141602e-01) (118, -1.49740517139434814453e-01) (119, 5.21448664367198944092e-02) (120, 1.12839795649051666260e-01) (121, 3.32473181188106536865e-02) (122, -2.44286000728607177734e-01) (123, -2.33193546533584594727e-01) (124, -3.60841117799282073975e-02) (125, 1.18250183761119842529e-01) (126, 4.49952371418476104736e-02) (127, 2.48778350651264190674e-02) (128, 2.13289000093936920166e-02) (129, -2.28987075388431549072e-02) (130, 1.46732062101364135742e-01) (131, -2.79532313346862792969e-01) (132, -5.29977045953273773193e-02) (133, -7.98440203070640563965e-02) (134, -1.79283022880554199219e-01) (135, 3.24223637580871582031e-01) (136, 2.32969194650650024414e-01) (137, -1.97444438934326171875e-01) (138, 1.02412246167659759521e-01) (139, -1.27704650163650512695e-01) (140, 9.86457094550132751465e-02) (141, 3.80186252295970916748e-02) (142, -2.36363619565963745117e-01) (143, -2.37575143575668334961e-01) (144, -1.93542927503585815430e-01) (145, -1.84536784887313842773e-01) (146, 9.37024727463722229004e-02) (147, -1.42162173986434936523e-01) (148, -1.04157976806163787842e-01) (149, 2.81103193759918212891e-01) (150, 1.20768539607524871826e-01) (151, 3.94602827727794647217e-02) (152, 9.94711592793464660645e-02) (153, 5.05827032029628753662e-02) (154, -1.06760058552026748657e-02) (155, 1.08290836215019226074e-02) (156, 1.77763283252716064453e-01) (157, -1.13687835633754730225e-01) (158, -2.28561013936996459961e-01) (159, 4.19232882559299468994e-02) (160, 1.88890039920806884766e-01) (161, 1.05950124561786651611e-01) (162, -1.65916949510574340820e-01) (163, -1.67213201522827148438e-01) (164, -2.45143175125122070312e-01) (165, -9.30592231452465057373e-03) (166, 2.07524776458740234375e-01) (167, 2.24371314048767089844e-01) (168, 1.33983790874481201172e-01) (169, -1.25934332609176635742e-01) (170, -4.35653142631053924561e-02) (171, -1.08848087489604949951e-01) (172, 1.12170211970806121826e-01) (173, -1.78980499505996704102e-01) (174, 1.33918613195419311523e-01) (175, 1.66653215885162353516e-01) (176, -9.91976261138916015625e-03) (177, -8.92957374453544616699e-02) (178, -3.46071600914001464844e-01) (179, 1.44826859235763549805e-01) (180, 5.42805157601833343506e-02) (181, -3.02831493318080902100e-02) (182, 3.57568822801113128662e-02) (183, -1.01162932813167572021e-01) (184, 2.17118598520755767822e-02) (185, -1.35688781738281250000e-01) (186, 1.94076389074325561523e-01) (187, 4.41948659718036651611e-02) (188, -4.43536642706021666527e-04) (189, -2.40702852606773376465e-02) (190, 1.54546070843935012817e-02) (191, 1.93511664867401123047e-01) (192, 8.10722038149833679199e-02) (193, -1.21219344437122344971e-01) (194, 1.14623926579952239990e-01) (195, 6.73424080014228820801e-02) (196, -1.32945328950881958008e-01) (197, 9.02139022946357727051e-02) (198, -5.23554645478725433350e-02) (199, 2.70890116691589355469e-01) (200, -1.27096974756568670273e-03) (201, -1.46785110235214233398e-01) (202, 7.05561088398098945618e-03) (203, 7.10385963320732116699e-02) (204, -2.33223646879196166992e-01) (205, 9.51187238097190856934e-02) (206, -7.59491845965385437012e-02) (207, -1.36247277259826660156e-01) (208, 1.34705394506454467773e-01) (209, -1.70212000608444213867e-01) (210, -5.19548021256923675537e-02) (211, 1.41391996294260025024e-02) (212, 3.70762832462787628174e-02) (213, 1.62171721458435058594e-01) (214, 2.42548525333404541016e-01) (215, 9.81444641947746276855e-02) (216, 1.16495452821254730225e-01) (217, 2.97523289918899536133e-02) (218, -3.17635655403137207031e-01) (219, 2.65482902526855468750e-01) (220, -3.24811756610870361328e-01) (221, 6.74285963177680969238e-02) (222, -1.65732115507125854492e-01) (223, 6.91035315394401550293e-02) (224, 8.37195441126823425293e-02) (225, -1.44933640956878662109e-01) (226, -1.95327609777450561523e-01) (227, 3.36871258914470672607e-02) (228, 5.04122339189052581787e-02) (229, 1.00011564791202545166e-01) (230, 1.84865921735763549805e-01) (231, 9.94077697396278381348e-02) (232, -8.12318697571754455566e-02) (233, 1.57776549458503723145e-02) (234, 1.21189244091510772705e-01) (235, 2.30317085981369018555e-01) (236, 1.37438643723726272583e-02) (237, -2.26987957954406738281e-01) (238, -1.46173685789108276367e-01) (239, 1.69177591800689697266e-01) (240, 2.26090341806411743164e-01) (241, 4.61340427398681640625e-01) (242, 1.71980530023574829102e-01) (243, -1.52174800634384155273e-01) (244, 