FANN_FLO_2.1
num_layers=4
learning_rate=0.003000
connection_rate=1.000000
network_type=0
learning_momentum=0.000000
training_algorithm=0
train_error_function=1
train_stop_function=0
cascade_output_change_fraction=0.010000
quickprop_decay=-0.000100
quickprop_mu=1.750000
rprop_increase_factor=1.200000
rprop_decrease_factor=0.500000
rprop_delta_min=0.000000
rprop_delta_max=50.000000
rprop_delta_zero=0.100000
cascade_output_stagnation_epochs=12
cascade_candidate_change_fraction=0.010000
cascade_candidate_stagnation_epochs=12
cascade_max_out_epochs=150
cascade_max_cand_epochs=150
cascade_num_candidate_groups=2
bit_fail_limit=3.49999994039535522461e-01
cascade_candidate_limit=1.00000000000000000000e+03
cascade_weight_multiplier=4.00000005960464477539e-01
cascade_activation_functions_count=10
cascade_activation_functions=3 5 7 8 10 11 14 15 16 17 
cascade_activation_steepnesses_count=4
cascade_activation_steepnesses=2.50000000000000000000e-01 5.00000000000000000000e-01 7.50000000000000000000e-01 1.00000000000000000000e+00 
layer_sizes=401 51 51 95 
scale_included=0
neurons (num_inputs, activation_function, activation_steepness)=(0, 0, 0.00000000000000000000e+00) (0, 0, 0.00000000000000000000e+00) (0, 0, 0.00000000000000000000e+00) (0, 0, 0.00000000000000000000e+00) (0, 0, 0.00000000000000000000e+00) (0, 0, 0.00000000000000000000e+00) (0, 0, 0.00000000000000000000e+00) (0, 0, 0.00000000000000000000e+00) (0, 0, 0.00000000000000000000e+00) (0, 0, 0.00000000000000000000e+00) (0, 0, 0.00000000000000000000e+00) (0, 0, 0.00000000000000000000e+00) (0, 0, 0.00000000000000000000e+00) (0, 0, 0.00000000000000000000e+00) (0, 0, 0.00000000000000000000e+00) (0, 0, 0.00000000000000000000e+00) (0, 0, 0.00000000000000000000e+00) (0, 0, 0.00000000000000000000e+00) (0, 0, 0.00000000000000000000e+00) (0, 0, 0.00000000000000000000e+00) (0, 0, 0.00000000000000000000e+00) (0, 0, 0.00000000000000000000e+00) (0, 0, 0.00000000000000000000e+00) (0, 0, 0.00000000000000000000e+00) (0, 0, 0.00000000000000000000e+00) (0, 0, 0.00000000000000000000e+00) (0, 0, 0.00000000000000000000e+00) (0, 0, 0.00000000000000000000e+00) (0, 0, 0.00000000000000000000e+00) (0, 0, 0.00000000000000000000e+00) (0, 0, 0.00000000000000000000e+00) (0, 0, 0.00000000000000000000e+00) (0, 0, 0.00000000000000000000e+00) (0, 0, 0.00000000000000000000e+00) (0, 0, 0.00000000000000000000e+00) (0, 0, 0.00000000000000000000e+00) (0, 0, 0.00000000000000000000e+00) (0, 0, 0.00000000000000000000e+00) (0, 0, 0.00000000000000000000e+00) (0, 0, 0.00000000000000000000e+00) (0, 0, 0.00000000000000000000e+00) (0, 0, 0.00000000000000000000e+00) (0, 0, 0.00000000000000000000e+00) (0, 0, 0.00000000000000000000e+00) (0, 0, 0.00000000000000000000e+00) (0, 0, 0.00000000000000000000e+00) (0, 0, 0.00000000000000000000e+00) (0, 0, 0.00000000000000000000e+00) (0, 0, 0.00000000000000000000e+00) (0, 0, 0.00000000000000000000e+00) (0, 0, 0.00000000000000000000e+00) (0, 0, 0.00000000000000000000e+00) (0, 0, 0.00000000000000000000e+00) (0, 0, 0.00000000000000000000e+00) (0, 0, 0.00000000000000000000e+00) (0, 0, 0.00000000000000000000e+00) (0, 0, 0.00000000000000000000e+00) (0, 0, 0.00000000000000000000e+00) (0, 0, 0.00000000000000000000e+00) (0, 0, 0.00000000000000000000e+00) (0, 0, 0.00000000000000000000e+00) (0, 0, 0.00000000000000000000e+00) (0, 0, 0.00000000000000000000e+00) (0, 0, 0.00000000000000000000e+00) (0, 0, 0.00000000000000000000e+00) (0, 0, 0.00000000000000000000e+00) (0, 0, 0.00000000000000000000e+00) (0, 0, 0.00000000000000000000e+00) (0, 0, 0.00000000000000000000e+00) (0, 0, 0.00000000000000000000e+00) (0, 0, 0.00000000000000000000e+00) (0, 0, 0.00000000000000000000e+00) (0, 0, 0.00000000000000000000e+00) (0, 0, 0.00000000000000000000e+00) (0, 0, 0.00000000000000000000e+00) (0, 0, 0.00000000000000000000e+00) (0, 0, 0.00000000000000000000e+00) (0, 0, 0.00000000000000000000e+00) (0, 0, 0.00000000000000000000e+00) (0, 0, 0.00000000000000000000e+00) (0, 0, 0.00000000000000000000e+00) (0, 0, 0.00000000000000000000e+00) (0, 0, 0.00000000000000000000e+00) (0, 0, 0.00000000000000000000e+00) (0, 0, 0.00000000000000000000e+00) (0, 0, 0.00000000000000000000e+00) (0, 0, 0.00000000000000000000e+00) (0, 0, 0.00000000000000000000e+00) (0, 0, 0.00000000000000000000e+00) (0, 0, 0.00000000000000000000e+00) (0, 0, 0.00000000000000000000e+00) (0, 0, 0.00000000000000000000e+00) (0, 0, 0.00000000000000000000e+00) (0, 0, 0.00000000000000000000e+00) (0, 0, 0.00000000000000000000e+00) (0, 0, 0.00000000000000000000e+00) (0, 0, 0.00000000000000000000e+00) (0, 0, 0.00000000000000000000e+00) (0, 0, 0.00000000000000000000e+00) (0, 0, 0.00000000000000000000e+00) (0, 0, 0.00000000000000000000e+00) (0, 0, 0.00000000000000000000e+00) (0, 0, 0.00000000000000000000e+00) (0, 0, 0.00000000000000000000e+00) (0, 0, 0.00000000000000000000e+00) (0, 0, 0.00000000000000000000e+00) (0, 0, 0.00000000000000000000e+00) (0, 0, 0.00000000000000000000e+00) (0, 0, 0.00000000000000000000e+00) (0, 0, 0.00000000000000000000e+00) (0, 0, 0.00000000000000000000e+00) (0, 0, 0.00000000000000000000e+00) (0, 0, 0.00000000000000000000e+00) (0, 0, 0.00000000000000000000e+00) (0, 0, 0.00000000000000000000e+00) (0, 0, 0.00000000000000000000e+00) (0, 0, 0.00000000000000000000e+00) (0, 0, 0.00000000000000000000e+00) (0, 0, 0.00000000000000000000e+00) (0, 0, 0.00000000000000000000e+00) (0, 0, 0.00000000000000000000e+00) (0, 0, 0.00000000000000000000e+00) (0, 0, 0.00000000000000000000e+00) (0, 0, 0.00000000000000000000e+00) (0, 0, 0.00000000000000000000e+00) (0, 0, 0.00000000000000000000e+00) (0, 0, 0.00000000000000000000e+00) (0, 0, 0.00000000000000000000e+00) (0, 0, 0.00000000000000000000e+00) (0, 0, 0.00000000000000000000e+00) (0, 0, 0.00000000000000000000e+00) (0, 0, 0.00000000000000000000e+00) (0, 0, 0.00000000000000000000e+00) (0, 0, 0.00000000000000000000e+00) (0, 0, 0.00000000000000000000e+00) (0, 0, 0.00000000000000000000e+00) (0, 0, 0.00000000000000000000e+00) (0, 0, 0.00000000000000000000e+00) (0, 0, 0.00000000000000000000e+00) (0, 0, 0.00000000000000000000e+00) (0, 0, 0.00000000000000000000e+00) (0, 0, 0.00000000000000000000e+00) (0, 0, 0.00000000000000000000e+00) (0, 0, 0.00000000000000000000e+00) (0, 0, 0.00000000000000000000e+00) (0, 0, 0.00000000000000000000e+00) (0, 0, 0.00000000000000000000e+00) (0, 0, 0.00000000000000000000e+00) (0, 0, 0.00000000000000000000e+00) (0, 0, 0.00000000000000000000e+00) (0, 0, 0.00000000000000000000e+00) (0, 0, 0.00000000000000000000e+00) (0, 0, 0.00000000000000000000e+00) (0, 0, 0.00000000000000000000e+00) (0, 0, 0.00000000000000000000e+00) (0, 0, 0.00000000000000000000e+00) (0, 0, 0.00000000000000000000e+00) (0, 0, 0.00000000000000000000e+00) (0, 0, 0.00000000000000000000e+00) (0, 0, 0.00000000000000000000e+00) (0, 0, 0.00000000000000000000e+00) (0, 0, 0.00000000000000000000e+00) (0, 0, 0.00000000000000000000e+00) (0, 0, 0.00000000000000000000e+00) (0, 0, 0.00000000000000000000e+00) (0, 0, 0.00000000000000000000e+00) (0, 0, 0.00000000000000000000e+00) (0, 0, 0.00000000000000000000e+00) (0, 0, 0.00000000000000000000e+00) (0, 0, 0.00000000000000000000e+00) (0, 0, 0.00000000000000000000e+00) (0, 0, 0.00000000000000000000e+00) (0, 0, 0.00000000000000000000e+00) (0, 0, 0.00000000000000000000e+00) (0, 0, 0.00000000000000000000e+00) (0, 0, 0.00000000000000000000e+00) (0, 0, 0.00000000000000000000e+00) (0, 0, 0.00000000000000000000e+00) (0, 0, 0.00000000000000000000e+00) (0, 0, 0.00000000000000000000e+00) (0, 0, 0.00000000000000000000e+00) (0, 0, 0.00000000000000000000e+00) (0, 0, 0.00000000000000000000e+00) (0, 0, 0.00000000000000000000e+00) (0, 0, 0.00000000000000000000e+00) (0, 0, 0.00000000000000000000e+00) (0, 0, 0.00000000000000000000e+00) (0, 0, 0.00000000000000000000e+00) (0, 0, 0.00000000000000000000e+00) (0, 0, 0.00000000000000000000e+00) (0, 0, 0.00000000000000000000e+00) (0, 0, 0.00000000000000000000e+00) (0, 0, 0.00000000000000000000e+00) (0, 0, 0.00000000000000000000e+00) (0, 0, 0.00000000000000000000e+00) (0, 0, 0.00000000000000000000e+00) (0, 0, 0.00000000000000000000e+00) (0, 0, 0.00000000000000000000e+00) (0, 0, 0.00000000000000000000e+00) (0, 0, 0.00000000000000000000e+00) (0, 0, 0.00000000000000000000e+00) (0, 0, 0.00000000000000000000e+00) (0, 0, 0.00000000000000000000e+00) (0, 0, 0.00000000000000000000e+00) (0, 0, 0.00000000000000000000e+00) (0, 0, 0.00000000000000000000e+00) (0, 0, 0.00000000000000000000e+00) (0, 0, 0.00000000000000000000e+00) (0, 0, 0.00000000000000000000e+00) (0, 0, 0.00000000000000000000e+00) (0, 0, 0.00000000000000000000e+00) (0, 0, 0.00000000000000000000e+00) (0, 0, 0.00000000000000000000e+00) (0, 0, 0.00000000000000000000e+00) (0, 0, 0.00000000000000000000e+00) (0, 0, 0.00000000000000000000e+00) (0, 0, 0.00000000000000000000e+00) (0, 0, 0.00000000000000000000e+00) (0, 0, 0.00000000000000000000e+00) (0, 0, 0.00000000000000000000e+00) (0, 0, 0.00000000000000000000e+00) (0, 0, 0.00000000000000000000e+00) (0, 0, 0.00000000000000000000e+00) (0, 0, 0.00000000000000000000e+00) (0, 0, 0.00000000000000000000e+00) (0, 0, 0.00000000000000000000e+00) (0, 0, 0.00000000000000000000e+00) (0, 0, 0.00000000000000000000e+00) (0, 0, 0.00000000000000000000e+00) (0, 0, 0.00000000000000000000e+00) (0, 0, 0.00000000000000000000e+00) (0, 0, 0.00000000000000000000e+00) (0, 0, 0.00000000000000000000e+00) (0, 0, 0.00000000000000000000e+00) (0, 0, 0.00000000000000000000e+00) (0, 0, 0.00000000000000000000e+00) (0, 0, 0.00000000000000000000e+00) (0, 0, 0.00000000000000000000e+00) (0, 0, 0.00000000000000000000e+00) (0, 0, 0.00000000000000000000e+00) (0, 0, 0.00000000000000000000e+00) (0, 0, 0.00000000000000000000e+00) (0, 0, 0.00000000000000000000e+00) (0, 0, 0.00000000000000000000e+00) (0, 0, 0.00000000000000000000e+00) (0, 0, 0.00000000000000000000e+00) (0, 0, 0.00000000000000000000e+00) (0, 0, 0.00000000000000000000e+00) (0, 0, 0.00000000000000000000e+00) (0, 0, 0.00000000000000000000e+00) (0, 0, 0.00000000000000000000e+00) (0, 0, 0.00000000000000000000e+00) (0, 0, 0.00000000000000000000e+00) (0, 0, 0.00000000000000000000e+00) (0, 0, 0.00000000000000000000e+00) (0, 0, 0.00000000000000000000e+00) (0, 0, 0.00000000000000000000e+00) (0, 0, 0.00000000000000000000e+00) (0, 0, 0.00000000000000000000e+00) (0, 0, 0.00000000000000000000e+00) (0, 0, 0.00000000000000000000e+00) (0, 0, 0.00000000000000000000e+00) (0, 0, 0.00000000000000000000e+00) (0, 0, 0.00000000000000000000e+00) (0, 0, 0.00000000000000000000e+00) (0, 0, 0.00000000000000000000e+00) (0, 0, 0.00000000000000000000e+00) (0, 0, 0.00000000000000000000e+00) (0, 0, 0.00000000000000000000e+00) (0, 0, 0.00000000000000000000e+00) (0, 0, 0.00000000000000000000e+00) (0, 0, 0.00000000000000000000e+00) (0, 0, 0.00000000000000000000e+00) (0, 0, 0.00000000000000000000e+00) (0, 0, 0.00000000000000000000e+00) (0, 0, 0.00000000000000000000e+00) (0, 0, 0.00000000000000000000e+00) (0, 0, 0.00000000000000000000e+00) (0, 0, 0.00000000000000000000e+00) (0, 0, 0.00000000000000000000e+00) (0, 0, 0.00000000000000000000e+00) (0, 0, 0.00000000000000000000e+00) (0, 0, 0.00000000000000000000e+00) (0, 0, 0.00000000000000000000e+00) (0, 0, 0.00000000000000000000e+00) (0, 0, 0.00000000000000000000e+00) (0, 0, 0.00000000000000000000e+00) (0, 0, 0.00000000000000000000e+00) (0, 0, 0.00000000000000000000e+00) (0, 0, 0.00000000000000000000e+00) (0, 0, 0.00000000000000000000e+00) (0, 0, 0.00000000000000000000e+00) (0, 0, 0.00000000000000000000e+00) (0, 0, 0.00000000000000000000e+00) (0, 0, 0.00000000000000000000e+00) (0, 0, 0.00000000000000000000e+00) (0, 0, 0.00000000000000000000e+00) (0, 0, 0.00000000000000000000e+00) (0, 0, 0.00000000000000000000e+00) (0, 0, 0.00000000000000000000e+00) (0, 0, 0.00000000000000000000e+00) (0, 0, 0.00000000000000000000e+00) (0, 0, 0.00000000000000000000e+00) (0, 0, 0.00000000000000000000e+00) (0, 0, 0.00000000000000000000e+00) (0, 0, 0.00000000000000000000e+00) (0, 0, 0.00000000000000000000e+00) (0, 0, 0.00000000000000000000e+00) (0, 0, 0.00000000000000000000e+00) (0, 0, 0.00000000000000000000e+00) (0, 0, 0.00000000000000000000e+00) (0, 0, 0.00000000000000000000e+00) (0, 0, 0.00000000000000000000e+00) (0, 0, 0.00000000000000000000e+00) (0, 0, 0.00000000000000000000e+00) (0, 0, 0.00000000000000000000e+00) (0, 0, 0.00000000000000000000e+00) (0, 0, 0.00000000000000000000e+00) (0, 0, 0.00000000000000000000e+00) (0, 0, 0.00000000000000000000e+00) (0, 0, 0.00000000000000000000e+00) (0, 0, 0.00000000000000000000e+00) (0, 0, 0.00000000000000000000e+00) (0, 0, 0.00000000000000000000e+00) (0, 0, 0.00000000000000000000e+00) (0, 0, 0.00000000000000000000e+00) (0, 0, 0.00000000000000000000e+00) (0, 0, 0.00000000000000000000e+00) (0, 0, 0.00000000000000000000e+00) (0, 0, 0.00000000000000000000e+00) (0, 0, 0.00000000000000000000e+00) (0, 0, 0.00000000000000000000e+00) (0, 0, 0.00000000000000000000e+00) (0, 0, 0.00000000000000000000e+00) (0, 0, 0.00000000000000000000e+00) (0, 0, 0.00000000000000000000e+00) (0, 0, 0.00000000000000000000e+00) (0, 0, 0.00000000000000000000e+00) (0, 0, 0.00000000000000000000e+00) (0, 0, 0.00000000000000000000e+00) (0, 0, 0.00000000000000000000e+00) (0, 0, 0.00000000000000000000e+00) (0, 0, 0.00000000000000000000e+00) (0, 0, 0.00000000000000000000e+00) (0, 0, 0.00000000000000000000e+00) (0, 0, 0.00000000000000000000e+00) (0, 0, 0.00000000000000000000e+00) (0, 0, 0.00000000000000000000e+00) (0, 0, 0.00000000000000000000e+00) (0, 0, 0.00000000000000000000e+00) (0, 0, 0.00000000000000000000e+00) (0, 0, 0.00000000000000000000e+00) (0, 0, 0.00000000000000000000e+00) (0, 0, 0.00000000000000000000e+00) (0, 0, 0.00000000000000000000e+00) (0, 0, 0.00000000000000000000e+00) (0, 0, 0.00000000000000000000e+00) (0, 0, 0.00000000000000000000e+00) (0, 0, 0.00000000000000000000e+00) (0, 0, 0.00000000000000000000e+00) (0, 0, 0.00000000000000000000e+00) (0, 0, 0.00000000000000000000e+00) (0, 0, 0.00000000000000000000e+00) (0, 0, 0.00000000000000000000e+00) (0, 0, 0.00000000000000000000e+00) (0, 0, 0.00000000000000000000e+00) (0, 0, 0.00000000000000000000e+00) (0, 0, 0.00000000000000000000e+00) (0, 0, 0.00000000000000000000e+00) (0, 0, 0.00000000000000000000e+00) (0, 0, 0.00000000000000000000e+00) (0, 0, 0.00000000000000000000e+00) (0, 0, 0.00000000000000000000e+00) (0, 0, 0.00000000000000000000e+00) (0, 0, 0.00000000000000000000e+00) (0, 0, 0.00000000000000000000e+00) (0, 0, 0.00000000000000000000e+00) (0, 0, 0.00000000000000000000e+00) (0, 0, 0.00000000000000000000e+00) (0, 0, 0.00000000000000000000e+00) (0, 0, 0.00000000000000000000e+00) (0, 0, 0.00000000000000000000e+00) (0, 0, 0.00000000000000000000e+00) (0, 0, 0.00000000000000000000e+00) (0, 0, 0.00000000000000000000e+00) (0, 0, 0.00000000000000000000e+00) (0, 0, 0.00000000000000000000e+00) (0, 0, 0.00000000000000000000e+00) (0, 0, 0.00000000000000000000e+00) (0, 0, 0.00000000000000000000e+00) (0, 0, 0.00000000000000000000e+00) (0, 0, 0.00000000000000000000e+00) (0, 0, 0.00000000000000000000e+00) (0, 0, 0.00000000000000000000e+00) (0, 0, 0.00000000000000000000e+00) (0, 0, 0.00000000000000000000e+00) (0, 0, 0.00000000000000000000e+00) (0, 0, 0.00000000000000000000e+00) (0, 0, 0.00000000000000000000e+00) (0, 0, 0.00000000000000000000e+00) (0, 0, 0.00000000000000000000e+00) (401, 5, 5.00000000000000000000e-01) (401, 5, 5.00000000000000000000e-01) (401, 5, 5.00000000000000000000e-01) (401, 5, 5.00000000000000000000e-01) (401, 5, 5.00000000000000000000e-01) (401, 5, 5.00000000000000000000e-01) (401, 5, 5.00000000000000000000e-01) (401, 5, 5.00000000000000000000e-01) (401, 5, 5.00000000000000000000e-01) (401, 5, 5.00000000000000000000e-01) (401, 5, 5.00000000000000000000e-01) (401, 5, 5.00000000000000000000e-01) (401, 5, 5.00000000000000000000e-01) (401, 5, 5.00000000000000000000e-01) (401, 5, 5.00000000000000000000e-01) (401, 5, 5.00000000000000000000e-01) (401, 5, 5.00000000000000000000e-01) (401, 5, 5.00000000000000000000e-01) (401, 5, 5.00000000000000000000e-01) (401, 5, 5.00000000000000000000e-01) (401, 5, 5.00000000000000000000e-01) (401, 5, 5.00000000000000000000e-01) (401, 5, 5.00000000000000000000e-01) (401, 5, 5.00000000000000000000e-01) (401, 5, 5.00000000000000000000e-01) (401, 5, 5.00000000000000000000e-01) (401, 5, 5.00000000000000000000e-01) (401, 5, 5.00000000000000000000e-01) (401, 5, 5.00000000000000000000e-01) (401, 5, 5.00000000000000000000e-01) (401, 5, 5.00000000000000000000e-01) (401, 5, 5.00000000000000000000e-01) (401, 5, 5.00000000000000000000e-01) (401, 5, 5.00000000000000000000e-01) (401, 5, 5.00000000000000000000e-01) (401, 5, 5.00000000000000000000e-01) (401, 5, 5.00000000000000000000e-01) (401, 5, 5.00000000000000000000e-01) (401, 5, 5.00000000000000000000e-01) (401, 5, 5.00000000000000000000e-01) (401, 5, 5.00000000000000000000e-01) (401, 5, 5.00000000000000000000e-01) (401, 5, 5.00000000000000000000e-01) (401, 5, 5.00000000000000000000e-01) (401, 5, 5.00000000000000000000e-01) (401, 5, 5.00000000000000000000e-01) (401, 5, 5.00000000000000000000e-01) (401, 5, 5.00000000000000000000e-01) (401, 5, 5.00000000000000000000e-01) (401, 5, 5.00000000000000000000e-01) (0, 5, 0.00000000000000000000e+00) (51, 5, 5.00000000000000000000e-01) (51, 5, 5.00000000000000000000e-01) (51, 5, 5.00000000000000000000e-01) (51, 5, 5.00000000000000000000e-01) (51, 5, 5.00000000000000000000e-01) (51, 5, 5.00000000000000000000e-01) (51, 5, 5.00000000000000000000e-01) (51, 5, 5.00000000000000000000e-01) (51, 5, 5.00000000000000000000e-01) (51, 5, 5.00000000000000000000e-01) (51, 5, 5.00000000000000000000e-01) (51, 5, 5.00000000000000000000e-01) (51, 5, 5.00000000000000000000e-01) (51, 5, 5.00000000000000000000e-01) (51, 5, 5.00000000000000000000e-01) (51, 5, 5.00000000000000000000e-01) (51, 5, 5.00000000000000000000e-01) (51, 5, 5.00000000000000000000e-01) (51, 5, 5.00000000000000000000e-01) (51, 5, 5.00000000000000000000e-01) (51, 5, 5.00000000000000000000e-01) (51, 5, 5.00000000000000000000e-01) (51, 5, 5.00000000000000000000e-01) (51, 5, 5.00000000000000000000e-01) (51, 5, 5.00000000000000000000e-01) (51, 5, 5.00000000000000000000e-01) (51, 5, 5.00000000000000000000e-01) (51, 5, 5.00000000000000000000e-01) (51, 5, 5.00000000000000000000e-01) (51, 5, 5.00000000000000000000e-01) (51, 5, 5.00000000000000000000e-01) (51, 5, 5.00000000000000000000e-01) (51, 5, 5.00000000000000000000e-01) (51, 5, 5.00000000000000000000e-01) (51, 5, 5.00000000000000000000e-01) (51, 5, 5.00000000000000000000e-01) (51, 5, 5.00000000000000000000e-01) (51, 5, 5.00000000000000000000e-01) (51, 5, 5.00000000000000000000e-01) (51, 5, 5.00000000000000000000e-01) (51, 5, 5.00000000000000000000e-01) (51, 5, 5.00000000000000000000e-01) (51, 5, 5.00000000000000000000e-01) (51, 5, 5.00000000000000000000e-01) (51, 5, 5.00000000000000000000e-01) (51, 5, 5.00000000000000000000e-01) (51, 5, 5.00000000000000000000e-01) (51, 5, 5.00000000000000000000e-01) (51, 5, 5.00000000000000000000e-01) (51, 5, 5.00000000000000000000e-01) (0, 5, 0.00000000000000000000e+00) (51, 5, 5.00000000000000000000e-01) (51, 5, 5.00000000000000000000e-01) (51, 5, 5.00000000000000000000e-01) (51, 5, 5.00000000000000000000e-01) (51, 5, 5.00000000000000000000e-01) (51, 5, 5.00000000000000000000e-01) (51, 5, 5.00000000000000000000e-01) (51, 5, 5.00000000000000000000e-01) (51, 5, 5.00000000000000000000e-01) (51, 5, 5.00000000000000000000e-01) (51, 5, 5.00000000000000000000e-01) (51, 5, 5.00000000000000000000e-01) (51, 5, 5.00000000000000000000e-01) (51, 5, 5.00000000000000000000e-01) (51, 5, 5.00000000000000000000e-01) (51, 5, 5.00000000000000000000e-01) (51, 5, 5.00000000000000000000e-01) (51, 5, 5.00000000000000000000e-01) (51, 5, 5.00000000000000000000e-01) (51, 5, 5.00000000000000000000e-01) (51, 5, 5.00000000000000000000e-01) (51, 5, 5.00000000000000000000e-01) (51, 5, 5.00000000000000000000e-01) (51, 5, 5.00000000000000000000e-01) (51, 5, 5.00000000000000000000e-01) (51, 5, 5.00000000000000000000e-01) (51, 5, 5.00000000000000000000e-01) (51, 5, 5.00000000000000000000e-01) (51, 5, 5.00000000000000000000e-01) (51, 5, 5.00000000000000000000e-01) (51, 5, 5.00000000000000000000e-01) (51, 5, 5.00000000000000000000e-01) (51, 5, 5.00000000000000000000e-01) (51, 5, 5.00000000000000000000e-01) (51, 5, 5.00000000000000000000e-01) (51, 5, 5.00000000000000000000e-01) (51, 5, 5.00000000000000000000e-01) (51, 5, 5.00000000000000000000e-01) (51, 5, 5.00000000000000000000e-01) (51, 5, 5.00000000000000000000e-01) (51, 5, 5.00000000000000000000e-01) (51, 5, 5.00000000000000000000e-01) (51, 5, 5.00000000000000000000e-01) (51, 5, 5.00000000000000000000e-01) (51, 5, 5.00000000000000000000e-01) (51, 5, 5.00000000000000000000e-01) (51, 5, 5.00000000000000000000e-01) (51, 5, 5.00000000000000000000e-01) (51, 5, 5.00000000000000000000e-01) (51, 5, 5.00000000000000000000e-01) (51, 5, 5.00000000000000000000e-01) (51, 5, 5.00000000000000000000e-01) (51, 5, 5.00000000000000000000e-01) (51, 5, 5.00000000000000000000e-01) (51, 5, 5.00000000000000000000e-01) (51, 5, 5.00000000000000000000e-01) (51, 5, 5.00000000000000000000e-01) (51, 5, 5.00000000000000000000e-01) (51, 5, 5.00000000000000000000e-01) (51, 5, 5.00000000000000000000e-01) (51, 5, 5.00000000000000000000e-01) (51, 5, 5.00000000000000000000e-01) (51, 5, 5.00000000000000000000e-01) (51, 5, 5.00000000000000000000e-01) (51, 5, 5.00000000000000000000e-01) (51, 5, 5.00000000000000000000e-01) (51, 5, 5.00000000000000000000e-01) (51, 5, 5.00000000000000000000e-01) (51, 5, 5.00000000000000000000e-01) (51, 5, 5.00000000000000000000e-01) (51, 5, 5.00000000000000000000e-01) (51, 5, 5.00000000000000000000e-01) (51, 5, 5.00000000000000000000e-01) (51, 5, 5.00000000000000000000e-01) (51, 5, 5.00000000000000000000e-01) (51, 5, 5.00000000000000000000e-01) (51, 5, 5.00000000000000000000e-01) (51, 5, 5.00000000000000000000e-01) (51, 5, 5.00000000000000000000e-01) (51, 5, 5.00000000000000000000e-01) (51, 5, 5.00000000000000000000e-01) (51, 5, 5.00000000000000000000e-01) (51, 5, 5.00000000000000000000e-01) (51, 5, 5.00000000000000000000e-01) (51, 5, 5.00000000000000000000e-01) (51, 5, 5.00000000000000000000e-01) (51, 5, 5.00000000000000000000e-01) (51, 5, 5.00000000000000000000e-01) (51, 5, 5.00000000000000000000e-01) (51, 5, 5.00000000000000000000e-01) (51, 5, 5.00000000000000000000e-01) (51, 5, 5.00000000000000000000e-01) (51, 5, 5.00000000000000000000e-01) (51, 5, 5.00000000000000000000e-01) (0, 5, 0.00000000000000000000e+00) 
connections (connected_to_neuron, weight)=(0, -7.45244100689888000488e-02) (1, -2.25064586848020553589e-02) (2, 1.86567246913909912109e-01) (3, 3.09671550989151000977e-01) (4, 3.26893597841262817383e-01) (5, 8.99560656398534774780e-03) (6, 3.88991273939609527588e-02) (7, -1.91875815391540527344e-01) (8, 9.58823934197425842285e-02) (9, -2.99831718206405639648e-01) (10, -1.93768769502639770508e-01) (11, 4.44235615432262420654e-02) (12, -4.31024618446826934814e-02) (13, -1.21031189337372779846e-02) (14, 1.64326637983322143555e-01) (15, 7.60682150721549987793e-02) (16, -1.24668560922145843506e-01) (17, -4.96274866163730621338e-02) (18, 9.84588935971260070801e-02) (19, -2.66052156686782836914e-01) (20, 2.46599704027175903320e-01) (21, -5.49977691844105720520e-03) (22, -8.55770930647850036621e-02) (23, 1.87207072973251342773e-01) (24, 4.32207547128200531006e-02) (25, 4.44039374589920043945e-01) (26, 2.39626795053482055664e-01) (27, -1.40090538188815116882e-02) (28, 8.51456597447395324707e-02) (29, 5.47450920566916465759e-03) (30, -1.72579199075698852539e-01) (31, -5.54663054645061492920e-02) (32, -1.40434294939041137695e-01) (33, -1.12038888037204742432e-01) (34, -1.74821615219116210938e-01) (35, 2.01430112123489379883e-01) (36, 2.91145175695419311523e-01) (37, 1.14989705383777618408e-01) (38, -6.52688667178153991699e-02) (39, -3.47628861665725708008e-01) (40, 8.81460234522819519043e-02) (41, 1.43810898065567016602e-01) (42, -1.26175880432128906250e-01) (43, 4.51613552868366241455e-02) (44, 1.87319755554199218750e-01) (45, 2.51656323671340942383e-01) (46, -8.47771838307380676270e-02) (47, 1.44531071186065673828e-01) (48, 2.58194562047719955444e-02) (49, -1.18960969150066375732e-01) (50, 3.59078161418437957764e-02) (51, 7.37378820776939392090e-02) (52, 7.97964408993721008301e-02) (53, 5.91291673481464385986e-02) (54, -5.05745373666286468506e-02) (55, 1.27498805522918701172e-01) (56, -2.02166866511106491089e-02) (57, -6.87144920229911804199e-02) (58, -9.30755678564310073853e-03) (59, -2.57300417870283126831e-02) (60, 1.86065584421157836914e-01) (61, 1.26775443553924560547e-01) (62, 2.16559786349534988403e-02) (63, 9.02657676488161087036e-03) (64, -4.66454364359378814697e-02) (65, -5.55285923182964324951e-02) (66, -1.91157042980194091797e-01) (67, 7.99173638224601745605e-02) (68, 5.01127354800701141357e-02) (69, -1.59878462553024291992e-01) (70, -7.21530243754386901855e-02) (71, -7.11346194148063659668e-02) (72, 1.92217230796813964844e-01) (73, -1.48239964619278907776e-02) (74, 2.79861301183700561523e-01) (75, 1.56673163175582885742e-01) (76, 1.60712953656911849976e-02) (77, -3.06350295431911945343e-03) (78, 2.81159132719039916992e-01) (79, 4.56356815993785858154e-02) (80, 2.09123700857162475586e-01) (81, 8.74763205647468566895e-02) (82, -3.00823837518692016602e-01) (83, -1.42526000738143920898e-01) (84, -1.41048461198806762695e-01) (85, -2.48600423336029052734e-01) (86, -1.14337660372257232666e-01) (87, 9.75317433476448059082e-02) (88, -9.39397737383842468262e-02) (89, -6.79697468876838684082e-02) (90, 3.76564003527164459229e-02) (91, -8.76109823584556579590e-02) (92, -1.26884192228317260742e-01) (93, 1.41905039548873901367e-01) (94, 1.35443240404129028320e-01) (95, 8.62362161278724670410e-02) (96, 4.52113337814807891846e-02) (97, 5.66547326743602752686e-02) (98, 4.55946959555149078369e-02) (99, 2.65310257673263549805e-01) (100, -7.19234421849250793457e-02) (101, -1.29590332508087158203e-01) (102, -1.08423508703708648682e-01) (103, -5.06839789450168609619e-02) (104, -1.22761419042944908142e-02) (105, -2.56361216306686401367e-01) (106, -9.65599790215492248535e-02) (107, 1.57577127218246459961e-01) (108, -1.64365112781524658203e-01) (109, -1.66820641607046127319e-02) (110, 6.58852830529212951660e-02) (111, -2.44157072156667709351e-02) (112, -7.65357390046119689941e-02) (113, 6.14674948155879974365e-02) (114, 9.87637117505073547363e-02) (115, 1.25705122947692871094e-01) (116, 1.02086432278156280518e-01) (117, 1.82337522506713867188e-01) (118, 9.51777771115303039551e-02) (119, 2.72619813680648803711e-01) (120, -1.46542666479945182800e-02) (121, -1.20440982282161712646e-01) (122, -1.25751584768295288086e-01) (123, -3.47409218549728393555e-01) (124, -2.14129269123077392578e-01) (125, -3.04766863584518432617e-01) (126, 1.06341294944286346436e-01) (127, 1.26698434352874755859e-01) (128, -4.05644737184047698975e-02) (129, 2.41963136941194534302e-02) (130, 1.09358699992299079895e-02) (131, 5.78484544530510902405e-03) (132, 2.11620796471834182739e-03) (133, 3.18796485662460327148e-01) (134, -6.25589564442634582520e-02) (135, 1.14960648119449615479e-01) (136, 1.50882257148623466492e-02) (137, -3.40677089989185333252e-02) (138, 3.84543649852275848389e-02) (139, 5.68445213139057159424e-02) (140, -3.41482050716876983643e-02) (141, 1.22908214107155799866e-02) (142, -4.23327051103115081787e-02) (143, -3.72205704450607299805e-01) (144, -2.00282871723175048828e-01) (145, 6.39262124896049499512e-02) (146, 8.46445932984352111816e-02) (147, -2.18306571245193481445e-01) (148, -6.89576640725135803223e-02) (149, -8.48895236849784851074e-02) (150, 8.39328542351722717285e-02) (151, -3.15550714731216430664e-02) (152, 2.14026391506195068359e-01) (153, 1.65388286113739013672e-01) (154, 1.12479470670223236084e-01) (155, -9.30268242955207824707e-02) (156, -4.32829596102237701416e-02) (157, 4.17849682271480560303e-02) (158, 9.39149931073188781738e-02) (159, 4.51427809894084930420e-02) (160, -2.54701167345046997070e-01) (161, -1.40204457566142082214e-02) (162, 9.37160383909940719604e-03) (163, -8.14476143568754196167e-03) (164, -9.56130102276802062988e-02) (165, -3.29644292593002319336e-01) (166, -4.33512359857559204102e-01) (167, -2.73908466100692749023e-01) (168, -2.70789176225662231445e-01) (169, -9.07544717192649841309e-02) (170, -1.34224355220794677734e-01) (171, 2.38087493926286697388e-02) (172, 1.62199735641479492188e-01) (173, 4.24445904791355133057e-02) (174, 1.96433633565902709961e-01) (175, 6.52829790487885475159e-03) (176, -5.53218163549900054932e-02) (177, -2.56142150610685348511e-02) (178, 3.52194122970104217529e-02) (179, 1.40202105045318603516e-01) (180, -2.04135537147521972656e-01) (181, 1.19039453566074371338e-01) (182, 3.86126726865768432617e-01) (183, 2.17389106750488281250e-01) (184, -2.76166468858718872070e-01) (185, 1.06870777904987335205e-01) (186, -5.91853307560086250305e-03) (187, -1.56351715326309204102e-01) (188, 6.15609101951122283936e-02) (189, 8.73154029250144958496e-02) (190, -4.16788786649703979492e-01) (191, -6.39574453234672546387e-02) (192, 1.35433137416839599609e-01) (193, -2.33071327209472656250e-01) (194, 2.16724723577499389648e-01) (195, 3.10269266366958618164e-01) (196, 3.30079764127731323242e-01) (197, 4.42505866289138793945e-01) (198, 1.37075215578079223633e-01) (199, 1.22398905456066131592e-01) (200, -2.52739876508712768555e-01) (201, -9.29322764277458190918e-02) (202, 1.26794604584574699402e-02) (203, -3.56747321784496307373e-02) (204, 5.66984200850129127502e-03) (205, -6.04955516755580902100e-02) (206, -4.76828552782535552979e-02) (207, -9.27681755274534225464e-03) (208, -3.59894968569278717041e-02) (209, -1.53108626604080200195e-01) (210, -2.88696914911270141602e-01) (211, -6.24726153910160064697e-02) (212, -6.52777478098869323730e-02) (213, -2.06549018621444702148e-01) (214, -7.49024823307991027832e-02) (215, 1.33565276861190795898e-01) (216, 2.79237836599349975586e-01) (217, 2.32528597116470336914e-01) (218, 2.20227956771850585938e-01) (219, 1.33061856031417846680e-01) (220, -4.03522662818431854248e-02) (221, 1.29879087209701538086e-01) (222, 1.68992757797241210938e-01) (223, -1.96597278118133544922e-01) (224, -5.54746575653553009033e-02) (225, -1.52439355850219726562e-01) (226, 1.95034909993410110474e-02) (227, -3.74979943037033081055e-01) (228, -1.56849205493927001953e-01) (229, -8.86371359229087829590e-02) (230, -1.38394057750701904297e-01) (231, -2.24322918802499771118e-02) (232, 6.50555863976478576660e-02) (233, 2.42758810520172119141e-01) (234, 1.43867814913392066956e-02) (235, 1.23775349929928779602e-02) (236, -4.65802662074565887451e-02) (237, -1.12633116543292999268e-01) (238, 3.92274297773838043213e-02) (239, 1.13770432770252227783e-01) (240, -3.10103625059127807617e-01) (241, -1.33384972810745239258e-01) (242, -2.44084984064102172852e-01) (243, -3.27905803918838500977e-01) (244, 7.72299990057945251465e-02) (245, -2.07962900400161743164e-01) (246, -7.27569982409477233887e-02) (247, -3.89282792806625366211e-01) (248, -1.32631301879882812500e-01) (249, -1.89370542764663696289e-01) (250, -3.26688997447490692139e-02) (251, 6.43577650189399719238e-02) (252, 1.02297691628336906433e-02) (253, 2.69530326128005981445e-01) (254, 8.68525281548500061035e-02) (255, 9.53473523259162902832e-02) (256, -5.91576285660266876221e-02) (257, -4.76564057171344757080e-02) (258, 1.94144714623689651489e-02) (259, -1.59521009773015975952e-02) (260, -2.66144841909408569336e-01) (261, -2.41719067096710205078e-01) (262, -2.51123279333114624023e-01) (263, -4.48861904442310333252e-02) (264, -1.19410254061222076416e-01) (265, -1.85057241469621658325e-02) (266, -7.43422284722328186035e-02) (267, -1.09945259988307952881e-01) (268, -3.63222993910312652588e-02) (269, -3.05111199617385864258e-01) (270, 1.94197416305541992188e-01) (271, 1.81303381919860839844e-01) (272, 1.35339319705963134766e-01) (273, 5.45154474675655364990e-02) (274, 1.46356105804443359375e-01) (275, 1.80998295545578002930e-01) (276, -1.30039513111114501953e-01) (277, -7.12729021906852722168e-02) (278, 2.38914992660284042358e-02) (279, -7.51848146319389343262e-02) (280, -8.60162898898124694824e-02) (281, -7.77589604258537292480e-02) (282, -5.42086996138095855713e-02) (283, 1.30309998989105224609e-01) (284, 3.10337871313095092773e-01) (285, 8.91674533486366271973e-02) (286, -1.08851201832294464111e-01) (287, -5.22329099476337432861e-02) (288, 3.61987017095088958740e-02) (289, -1.32995218038558959961e-01) (290, 5.67732490599155426025e-02) (291, 1.58319234848022460938e-01) (292, -7.35478922724723815918e-02) (293, 2.40371543914079666138e-02) (294, -4.33277674019336700439e-02) (295, 1.80563420057296752930e-01) (296, 4.43664453923702239990e-02) (297, -6.53196647763252258301e-02) (298, 4.57925237715244293213e-02) (299, -1.40945464372634887695e-01) (300, -2.20502942800521850586e-01) (301, -1.71527028083801269531e-01) (302, -1.14318333566188812256e-01) (303, 3.98796014487743377686e-02) (304, -9.67516377568244934082e-02) (305, 7.67735466361045837402e-02) (306, -1.00860603153705596924e-01) (307, -5.59738092124462127686e-02) (308, -1.52589619159698486328e-01) (309, 1.45913690328598022461e-01) (310, 1.01748639717698097229e-02) (311, -3.59569974243640899658e-02) (312, 1.73319816589355468750e-01) (313, 2.00232177972793579102e-01) (314, 2.30891276150941848755e-02) (315, -7.28727802634239196777e-02) (316, 1.16740740835666656494e-01) (317, -2.66425777226686477661e-02) (318, 1.18128977715969085693e-01) (319, -1.26703739166259765625e-01) (320, -1.97374314069747924805e-01) (321, -3.23966257274150848389e-02) (322, 3.21129173040390014648e-01) (323, -4.26189042627811431885e-02) (324, -5.99377565085887908936e-02) (325, -1.24887205660343170166e-01) (326, 8.08739587664604187012e-02) (327, -1.73671394586563110352e-01) (328, 1.77372783422470092773e-01) (329, 1.38269007205963134766e-01) (330, -4.75636161863803863525e-02) (331, -1.86157226562500000000e-01) (332, -4.45281080901622772217e-02) (333, -3.37405987083911895752e-02) (334, -5.90755306184291839600e-02) (335, 8.60376283526420593262e-02) (336, 3.84321645833551883698e-03) (337, -1.02005444467067718506e-01) (338, 9.11190733313560485840e-02) (339, -8.92483964562416076660e-02) (340, -1.94046914577484130859e-01) (341, 2.58572429418563842773e-01) (342, 2.61614114046096801758e-01) (343, -1.06630973517894744873e-01) (344, -1.55601287260651588440e-02) (345, -1.61160349845886230469e-01) (346, -4.19495142996311187744e-02) (347, 1.28089576959609985352e-01) (348, -1.11800931394100189209e-01) (349, 1.85583591461181640625e-01) (350, 1.20387366041541099548e-02) (351, 3.88366021215915679932e-02) (352, -8.21299012750387191772e-03) (353, -5.44134117662906646729e-02) (354, -5.49422465264797210693e-02) (355, 1.54579043388366699219e-01) (356, 3.32622565329074859619e-02) (357, -1.56167954206466674805e-01) (358, 9.83594432473182678223e-02) (359, 9.31285601109266281128e-03) (360, -2.83388823270797729492e-01) (361, 1.20249845087528228760e-01) (362, 4.32430416345596313477e-01) (363, 2.14471399784088134766e-01) (364, 1.59977465867996215820e-01) (365, 1.41952723264694213867e-01) (366, -1.05730436742305755615e-01) (367, 7.05064758658409118652e-02) (368, -1.32626205682754516602e-01) (369, 5.97941018640995025635e-02) (370, -6.31952807307243347168e-02) (371, -1.32491022348403930664e-01) (372, -4.29058782756328582764e-02) (373, 3.30234199762344360352e-01) (374, 1.63970500230789184570e-01) (375, 1.93030089139938354492e-01) (376, 1.35873079299926757812e-01) (377, -1.90947148948907852173e-02) (378, 1.74405723810195922852e-01) (379, -2.40714639425277709961e-01) (380, 1.04303754866123199463e-01) (381, -2.25966330617666244507e-02) (382, 3.85262519121170043945e-01) (383, 2.09909468889236450195e-01) (384, 8.29109624028205871582e-02) (385, -5.12114875018596649170e-02) (386, -4.16549116373062133789e-01) (387, -1.54589861631393432617e-01) (388, -2.02053546905517578125e-01) (389, -8.36995169520378112793e-02) (390, 2.37382024526596069336e-01) (391, -9.67715755105018615723e-02) (392, 8.42214450240135192871e-02) (393, 1.67246162891387939453e-01) (394, 9.07010659575462341309e-02) (395, 6.52381852269172668457e-02) (396, -3.19315880537033081055e-01) (397, -6.13956041634082794189e-02) (398, 4.63104508817195892334e-02) (399, -1.41977936029434204102e-01) (400, 1.36523532867431640625e+00) (0, 1.50009587407112121582e-01) (1, 1.35076586157083511353e-02) (2, -1.94489493966102600098e-01) (3, -1.31400093436241149902e-01) (4, 9.68578234314918518066e-02) (5, -1.10701911151409149170e-01) (6, -2.27053329348564147949e-01) (7, -2.36299857497215270996e-01) (8, -1.64358362555503845215e-01) (9, 6.92263469099998474121e-02) (10, 2.10713185369968414307e-02) (11, 4.54040281474590301514e-02) (12, -4.04341854155063629150e-02) (13, 1.64077177643775939941e-01) (14, 1.48461516946554183960e-02) (15, -8.21308717131614685059e-02) (16, -2.10015729069709777832e-01) (17, -5.23964874446392059326e-02) (18, -1.07885725796222686768e-01) (19, 2.48668387532234191895e-01) (20, -2.82828439958393573761e-03) (21, -3.30091081559658050537e-02) (22, 7.84364268183708190918e-02) (23, -1.59569516777992248535e-01) (24, -5.37548996508121490479e-02) (25, -1.82363495230674743652e-01) (26, -1.26445814967155456543e-01) (27, -4.58908192813396453857e-02) (28, -8.43571648001670837402e-02) (29, -1.47303238511085510254e-01) (30, 1.82678066194057464600e-02) (31, 2.06422403454780578613e-01) (32, 6.45522549748420715332e-02) (33, -1.02602414786815643311e-01) (34, -1.31603196263313293457e-01) (35, -1.38452634215354919434e-01) (36, -1.30790695548057556152e-01) (37, 4.21023853123188018799e-02) (38, -1.27904899418354034424e-02) (39, 1.00447468459606170654e-01) (40, 2.48010084033012390137e-01) (41, 8.01204666495323181152e-02) (42, 9.76114198565483093262e-02) (43, 6.14353157579898834229e-02) (44, -6.48226514458656311035e-02) (45, -2.25493684411048889160e-01) (46, 1.23119942843914031982e-01) (47, 2.41034999489784240723e-02) (48, 4.13282122462987899780e-03) (49, 5.96669502556324005127e-02) (50, -3.17543633282184600830e-02) (51, 1.87723591923713684082e-01) (52, 4.57081310451030731201e-02) (53, -6.42572119832038879395e-02) (54, -4.18764837086200714111e-02) (55, -1.10958121716976165771e-01) (56, -1.27900943160057067871e-01) (57, -4.98411944136023521423e-03) (58, 5.56008554995059967041e-02) (59, -1.89493899233639240265e-03) (60, -8.18267092108726501465e-03) (61, 1.32494911551475524902e-01) (62, 7.80688300728797912598e-02) (63, -1.79944500327110290527e-01) (64, 1.10919572412967681885e-01) (65, 6.72269538044929504395e-02) (66, 1.64097562432289123535e-01) (67, 9.97057035565376281738e-02) (68, 1.91468432545661926270e-01) (69, 2.59981274604797363281e-01) (70, -3.44719551503658294678e-02) (71, 2.37632051110267639160e-01) (72, 9.70765277743339538574e-02) (73, 6.74856528639793395996e-02) (74, 1.56566109508275985718e-02) (75, 5.98345287144184112549e-02) (76, 8.55414792895317077637e-02) (77, -1.23001269996166229248e-01) (78, -5.73195107281208038330e-02) (79, 6.14743940532207489014e-02) (80, 8.79480615258216857910e-02) (81, -3.65002274513244628906e-01) (82, -9.82883945107460021973e-02) (83, -3.56849491596221923828e-01) (84, 7.91180357336997985840e-02) (85, 5.10824285447597503662e-02) (86, 1.77042350172996520996e-01) (87, 5.11460423469543457031e-01) (88, 1.60630539059638977051e-01) (89, 2.87590503692626953125e-01) (90, 2.52032160758972167969e-01) (91, 7.01197758316993713379e-02) (92, 1.54706416651606559753e-02) (93, 7.70599469542503356934e-02) (94, 1.18967093527317047119e-01) (95, -5.72609789669513702393e-02) (96, 2.86956012248992919922e-01) (97, -8.57573524117469787598e-02) (98, -6.38051554560661315918e-02) (99, 2.17951640486717224121e-01) (100, 9.54511389136314392090e-02) (101, -2.92463064193725585938e-01) (102, -3.63994948565959930420e-02) (103, -8.95316526293754577637e-02) (104, 5.24565065279603004456e-03) (105, -4.50092218816280364990e-02) (106, 4.38260026276111602783e-02) (107, 1.35592088103294372559e-01) (108, 2.92080342769622802734e-01) (109, 6.83015659451484680176e-02) (110, 2.31464728713035583496e-02) (111, 7.53222778439521789551e-02) (112, 5.59314561542123556137e-04) (113, -8.40718857944011688232e-03) (114, -4.24931757152080535889e-02) (115, -2.09383293986320495605e-02) (116, -6.92085400223731994629e-02) (117, -6.62390217185020446777e-02) (118, 5.13507239520549774170e-02) (119, 1.29184558987617492676e-01) (120, 3.75718213617801666260e-02) (121, -1.80514112114906311035e-01) (122, 2.78018303215503692627e-02) (123, 2.74438932538032531738e-02) (124, -2.34261155128479003906e-02) (125, -7.35132917761802673340e-02) (126, -1.68035589158535003662e-02) (127, 1.23256094753742218018e-01) (128, 4.94156219065189361572e-02) (129, 7.44646415114402770996e-02) (130, -7.13163688778877258301e-02) (131, -1.17702730000019073486e-01) (132, -1.37869402766227722168e-01) (133, -1.96290090680122375488e-01) (134, -2.06917330622673034668e-01) (135, -2.53048419952392578125e-01) (136, -5.18702156841754913330e-02) (137, 1.24004088342189788818e-01) (138, 1.98113307356834411621e-01) (139, -3.32641266286373138428e-02) (140, -1.79971270263195037842e-02) (141, -2.56754696369171142578e-01) (142, -2.29170732200145721436e-02) (143, -1.99536755681037902832e-02) (144, 1.79545814171433448792e-03) (145, -4.66834492981433868408e-02) (146, 1.04338623583316802979e-01) (147, 9.75345149636268615723e-02) (148, 2.94895172119140625000e-01) (149, 1.74060776829719543457e-01) (150, 7.46078565716743469238e-02) (151, 4.98767308890819549561e-02) (152, 5.94281293451786041260e-02) (153, -7.89343193173408508301e-02) (154, -9.92363914847373962402e-02) (155, -1.60596475005149841309e-01) (156, 6.33254721760749816895e-02) (157, 8.26149061322212219238e-02) (158, 1.56596377491950988770e-01) (159, -3.33341993391513824463e-02) (160, 1.35713532567024230957e-01) (161, -2.63802886009216308594e-01) (162, -2.65943944454193115234e-01) (163, 2.37291306257247924805e-02) (164, 1.77149817347526550293e-01) (165, 1.13130219280719757080e-01) (166, 2.17961713671684265137e-01) (167, 1.33138503879308700562e-02) (168, 1.36875644326210021973e-01) (169, 6.37125447392463684082e-02) (170, 2.73621678352355957031e-01) (171, 2.70655453205108642578e-02) (172, -9.31185260415077209473e-02) (173, -9.93527844548225402832e-02) (174, -3.90539206564426422119e-02) (175, -3.22217822074890136719e-01) (176, 4.37089540064334869385e-02) (177, -1.22110255062580108643e-01) (178, 7.29408189654350280762e-02) (179, 1.20790235698223114014e-01) (180, 7.49859884381294250488e-02) (181, -5.58175854384899139404e-02) (182, -1.06259785592555999756e-01) (183, 2.89417579770088195801e-02) (184, 1.83157399296760559082e-01) (185, 7.16251805424690246582e-02) (186, 7.48700127005577087402e-02) (187, 5.87969087064266204834e-02) (188, -2.10970342159271240234e-02) (189, 1.45760521292686462402e-01) (190, 7.57732382044196128845e-03) (191, -2.38082781434059143066e-01) (192, -1.12771548330783843994e-01) (193, -1.57426185905933380127e-02) (194, 4.97611127793788909912e-02) (195, -1.29707977175712585449e-01) (196, 4.39116619527339935303e-02) (197, -4.47740964591503143311e-02) (198, 1.14882998168468475342e-01) (199, 1.54732838273048400879e-01) (200, 9.37239751219749450684e-02) (201, 3.73363234102725982666e-02) (202, -2.56209790706634521484e-01) (203, -2.69360542297363281250e-01) (204, -1.35590836405754089355e-01) (205, -1.31605222821235656738e-01) (206, -3.48362289369106292725e-02) (207, 2.34017923474311828613e-01) (208, 1.12427808344364166260e-01) (209, -1.33814916014671325684e-01) (210, 3.16038466989994049072e-02) (211, -1.65380254387855529785e-01) (212, -1.52603223919868469238e-01) (213, -1.71913251280784606934e-01) (214, -1.31202623248100280762e-01) (215, 1.88420370221138000488e-01) (216, -5.98986772820353507996e-03) (217, 4.38527064397931098938e-03) (218, -1.00242726504802703857e-01) (219, 1.32551893591880798340e-01) (220, -1.31169542670249938965e-01) (221, -2.15968057513236999512e-01) (222, -1.75828948616981506348e-01) (223, -5.23297749459743499756e-02) (224, 8.09223875403404235840e-02) (225, 1.01103402674198150635e-01) (226, 5.06050847470760345459e-02) (227, 8.22414830327033996582e-02) (228, 1.98495313525199890137e-01) (229, 1.81586042046546936035e-01) (230, 5.89493699371814727783e-02) (231, -5.85868023335933685303e-02) (232, -1.35176554322242736816e-01) (233, -1.39681950211524963379e-01) (234, -5.21143488585948944092e-02) (235, -1.18774451315402984619e-01) (236, 1.62438705563545227051e-01) (237, 1.03869996964931488037e-01) (238, -2.77527160942554473877e-02) (239, 9.36206504702568054199e-02) (240, -9.62904021143913269043e-02) (241, -2.50756680965423583984e-01) (242, -2.39647373557090759277e-01) (243, -1.91919758915901184082e-01) (244, -1.69266924262046813965e-01) (245, -3.70239727199077606201e-02) (246, -1.22853897511959075928e-01) (247, 6.97228386998176574707e-02) (248, -2.89715803228318691254e-03) (249, 6.58968612551689147949e-02) (250, -9.73623320460319519043e-02) (251, 1.32013158872723579407e-03) (252, -8.20463672280311584473e-02) (253, -4.95895333588123321533e-02) (254, 5.17152138054370880127e-02) (255, 9.52142551541328430176e-02) (256, 2.44961246848106384277e-01) (257, -3.15289497375488281250e-01) (258, -2.65036642551422119141e-01) (259, 1.09009660780429840088e-01) (260, -1.70959010720252990723e-01) (261, -1.67915061116218566895e-01) (262, -1.18901334702968597412e-01) (263, -2.21457347273826599121e-01) (264, -2.41212531924247741699e-01) (265, -1.90737545490264892578e-02) (266, -1.77638396620750427246e-01) (267, 8.20487663149833679199e-02) (268, 2.76349601335823535919e-03) (269, -2.29930169880390167236e-02) (270, -5.93583546578884124756e-02) (271, -1.85622736811637878418e-01) (272, -1.90975084900856018066e-01) (273, -1.77102163434028625488e-01) (274, -2.32037976384162902832e-02) (275, -2.33442321419715881348e-01) (276, 6.46569998934864997864e-03) (277, 4.78584356606006622314e-02) (278, -2.39308252930641174316e-02) (279, 2.03315302729606628418e-01) (280, 1.35161355137825012207e-01) (281, 1.33446767926216125488e-01) (282, 1.75420239567756652832e-01) (283, 6.74475654959678649902e-02) (284, 1.86064824461936950684e-01) (285, 3.36178275756537914276e-03) (286, -8.60041454434394836426e-02) (287, 5.51707707345485687256e-02) (288, 7.58276954293251037598e-02) (289, 7.31041803956031799316e-02) (290, -3.58418561518192291260e-02) (291, -3.19391727447509765625e-01) (292, -7.14561417698860168457e-02) (293, 1.21062703430652618408e-01) (294, -2.40374758839607238770e-01) (295, -1.20789818465709686279e-01) (296, 7.50806406140327453613e-02) (297, -3.11892386525869369507e-02) (298, -1.79942563176155090332e-01) (299, 1.15217112004756927490e-01) (300, 2.43278988637030124664e-03) (301, -1.59285381436347961426e-01) (302, -3.55409264564514160156e-01) (303, -1.83112874627113342285e-01) (304, -8.78672078251838684082e-02) (305, 1.41279056668281555176e-01) (306, 1.01173944771289825439e-01) (307, 1.06342829763889312744e-01) (308, 3.14548730850219726562e-01) (309, -1.16959802806377410889e-01) (310, -1.24227590858936309814e-01) (311, -1.16555519402027130127e-01) (312, -1.18293158710002899170e-01) (313, 1.74010060727596282959e-02) (314, 1.79107449948787689209e-02) (315, -6.77890852093696594238e-02) (316, -4.44036535918712615967e-02) (317, -1.30976751446723937988e-01) (318, -1.44648268818855285645e-01) (319, 6.82159885764122009277e-02) (320, 5.93822784721851348877e-02) (321, -2.67984509468078613281e-01) (322, -4.37403321266174316406e-01) (323, -3.26934278011322021484e-01) (324, -3.94519381225109100342e-02) (325, -1.24545283615589141846e-02) (326, -1.01311884820461273193e-01) (327, 5.00582046806812286377e-02) (328, 2.36213937401771545410e-01) (329, 1.55761584639549255371e-01) (330, -5.44574446976184844971e-02) (331, 8.07961598038673400879e-02) (332, 1.77823416888713836670e-02) (333, -7.34489485621452331543e-02) (334, -1.57509461045265197754e-01) (335, 1.29591986536979675293e-01) (336, -1.07347749173641204834e-01) (337, -2.69788205623626708984e-01) (338, 2.45732837356626987457e-03) (339, 9.15394350886344909668e-02) (340, 8.36047604680061340332e-02) (341, -6.76675960421562194824e-02) (342, -3.97188782691955566406e-01) (343, -2.05250129103660583496e-01) (344, -2.62379907071590423584e-02) (345, -1.79126486182212829590e-01) (346, 1.88509032130241394043e-01) (347, 7.43389828130602836609e-03) (348, 1.49822518229484558105e-01) (349, 1.22951380908489227295e-01) (350, 1.75181046128273010254e-01) (351, 2.82529056072235107422e-01) (352, -4.52228002250194549561e-02) (353, -3.22586037218570709229e-02) (354, -1.58274754881858825684e-01) (355, -2.02386125922203063965e-01) (356, -1.81333318352699279785e-01) (357, -1.39648839831352233887e-01) (358, -1.43081113696098327637e-01) (359, 1.59960225224494934082e-01) (360, -4.41359588876366615295e-03) (361, -9.26686897873878479004e-02) (362, -3.77964377403259277344e-01) (363, -1.79609462618827819824e-01) (364, 3.37440036237239837646e-02) (365, -1.04298070073127746582e-02) (366, -1.89478561282157897949e-01) (367, -1.45639404654502868652e-01) (368, -1.86513960361480712891e-02) (369, 1.18747107684612274170e-01) (370, 2.18512043356895446777e-01) (371, -1.93727269768714904785e-01) (372, -3.75238656997680664062e-01) (373, -9.53324809670448303223e-02) (374, -2.45687022805213928223e-01) (375, 2.89919912815093994141e-01) (376, 2.66938447952270507812e-01) (377, -4.38375584781169891357e-02) (378, -4.32607494294643402100e-02) (379, 6.33961781859397888184e-02) (380, 1.03875868022441864014e-01) (381, 1.00576020777225494385e-01) (382, -1.53807416558265686035e-01) (383, 1.07717521488666534424e-01) (384, 5.49823753535747528076e-02) (385, -6.67453929781913757324e-02) (386, -2.73617766797542572021e-02) (387, -4.22254987061023712158e-02) (388, 1.62205055356025695801e-01) (389, 1.49615153670310974121e-01) (390, 2.56438970565795898438e-01) (391, 1.61014452576637268066e-01) (392, 2.22887799143791198730e-01) (393, 4.62381429970264434814e-02) (394, 3.40127907693386077881e-02) (395, 9.39691625535488128662e-03) (396, 9.74210426211357116699e-02) (397, -7.75283351540565490723e-02) (398, -4.09526936709880828857e-02) (399, 1.82707622647285461426e-01) (400, -1.17501378059387207031e+00) (0, 1.27133297920227050781e+00) (1, -1.37259796261787414551e-01) (2, 7.29605704545974731445e-02) (3, 1.72826483845710754395e-01) (4, 7.09145665168762207031e-02) (5, 2.70722862333059310913e-02) (6, 2.27519020438194274902e-01) (7, -6.92014098167419433594e-02) (8, -2.42266997694969177246e-01) (9, 1.85327306389808654785e-01) (10, 1.49880334734916687012e-01) (11, 4.72147129476070404053e-02) (12, -7.13057965040206909180e-02) (13, -2.16683726757764816284e-02) (14, 1.97658225893974304199e-01) (15, 1.89667657017707824707e-01) (16, -6.20218999683856964111e-02) (17, -2.36257091164588928223e-01) (18, -2.62742545455694198608e-02) (19, -2.77263671159744262695e-01) (20, -1.43129602074623107910e-01) (21, 2.08954941481351852417e-02) (22, 5.21034337580204010010e-02) (23, -2.30963990092277526855e-01) (24, 1.71780481934547424316e-01) (25, 1.85512408614158630371e-01) (26, 4.16064471006393432617e-01) (27, -1.37363210320472717285e-01) (28, 2.30273202061653137207e-01) (29, -1.20264217257499694824e-01) (30, -3.72775904834270477295e-02) (31, -2.73340493440628051758e-01) (32, 1.51147469878196716309e-01) (33, 3.88248234987258911133e-01) (34, -1.73101220279932022095e-02) (35, 5.45137338340282440186e-02) (36, -1.17615967988967895508e-01) (37, -3.29051129519939422607e-02) (38, -1.14242658019065856934e-01) (39, -4.14223879575729370117e-01) (40, 1.57408919185400009155e-02) (41, -1.21626168489456176758e-01) (42, -3.66116203367710113525e-02) (43, -2.21756622195243835449e-01) (44, 1.75295487046241760254e-01) (45, 8.33293944597244262695e-02) (46, 1.92503798753023147583e-02) (47, 3.65871526300907135010e-02) (48, 2.73655448108911514282e-02) (49, 2.29450210928916931152e-01) (50, -3.04359998553991317749e-02) (51, 9.12781208753585815430e-02) (52, -1.11917018890380859375e-01) (53, 1.48043498396873474121e-01) (54, -6.42684549093246459961e-02) (55, 8.22526067495346069336e-02) (56, 2.24645603448152542114e-02) (57, 3.16412486135959625244e-02) (58, -1.12456664443016052246e-01) (59, -1.63341388106346130371e-01) (60, 2.31426730751991271973e-01) (61, 1.32222371175885200500e-02) (62, 1.65146753191947937012e-01) (63, 7.86701738834381103516e-02) (64, 2.14690402150154113770e-01) (65, 2.49460950493812561035e-01) (66, 9.19003188610076904297e-02) (67, 3.39057654142379760742e-01) (68, 1.62235096096992492676e-01) (69, 4.43910388275980949402e-03) (70, 6.46411329507827758789e-02) (71, 6.75845146179199218750e-02) (72, 1.33346155285835266113e-01) (73, 1.76611408591270446777e-01) (74, 1.55862933024764060974e-02) (75, -6.89744353294372558594e-02) (76, -2.72811558097600936890e-02) (77, -3.55165213346481323242e-01) (78, 2.18107867985963821411e-02) (79, 5.96902854740619659424e-02) (80, -2.19142958521842956543e-01) (81, -1.26487806439399719238e-01) (82, -1.03118389844894409180e-01) (83, -1.68734863400459289551e-01) (84, 4.28720153868198394775e-02) (85, 1.95694908499717712402e-01) (86, 2.06991415470838546753e-02) (87, -8.72229039669036865234e-02) (88, 9.98040735721588134766e-02) (89, 3.54999043047428131104e-02) (90, 2.01239451766014099121e-01) (91, 2.10261926054954528809e-01) (92, 2.53309365361928939819e-02) (93, -1.58139154314994812012e-01) (94, -5.29935695230960845947e-02) (95, -7.04754739999771118164e-02) (96, -2.11538508534431457520e-01) (97, -2.90197301656007766724e-02) (98, 1.19743674993515014648e-01) (99, 5.96338845789432525635e-02) (100, 6.39868974685668945312e-02) (101, -8.20618029683828353882e-03) (102, -3.22741836309432983398e-01) (103, -5.59756793081760406494e-02) (104, -1.63535490632057189941e-01) (105, 1.57926723361015319824e-01) (106, 2.34389808028936386108e-02) (107, -2.45870456099510192871e-01) (108, 1.79770931601524353027e-01) (109, 2.98413127660751342773e-01) (110, 1.40672937035560607910e-01) (111, 1.38949230313301086426e-01) (112, 3.43196801841259002686e-02) (113, -7.97032862901687622070e-02) (114, -2.18018576502799987793e-01) (115, -4.02191072702407836914e-01) (116, -2.34253332018852233887e-01) (117, -4.73928488790988922119e-02) (118, 2.20733597874641418457e-01) (119, 2.05550696700811386108e-02) (120, -2.25761845707893371582e-01) (121, 1.14167407155036926270e-01) (122, -5.75879402458667755127e-02) (123, -1.98022853583097457886e-02) (124, -1.73895254731178283691e-01) (125, -5.29525019228458404541e-02) (126, -1.28854736685752868652e-01) (127, -3.21046598255634307861e-02) (128, 8.48524421453475952148e-02) (129, 2.60088611394166946411e-02) (130, 1.01959362626075744629e-01) (131, 2.53793865442276000977e-01) (132, -3.75813208520412445068e-02) (133, 1.69073417782783508301e-01) (134, -3.92446249723434448242e-01) (135, -3.26896399259567260742e-01) (136, -1.47588625550270080566e-01) (137, -3.66923622786998748779e-02) (138, -2.08768323063850402832e-01) (139, -1.43902733922004699707e-01) (140, -2.28371694684028625488e-01) (141, -2.48699113726615905762e-01) (142, -4.55788046121597290039e-01) (143, 1.09317926689982414246e-02) (144, -4.12402041256427764893e-02) (145, 2.68072813749313354492e-01) (146, -9.83912497758865356445e-02) (147, 1.16860777139663696289e-01) (148, 2.53852814435958862305e-01) (149, 1.05782195925712585449e-01) (150, -3.03761214017868041992e-01) (151, -8.75155329704284667969e-02) (152, -2.61420220136642456055e-01) (153, -3.32058340311050415039e-01) (154, -4.79084700345993041992e-01) (155, -1.31081357598304748535e-01) (156, -1.50088444352149963379e-01) (157, -8.88287872076034545898e-02) (158, -1.08287082985043525696e-02) (159, -2.93126612901687622070e-01) (160, -2.55184322595596313477e-01) (161, -1.90601840615272521973e-01) (162, -1.14619553089141845703e-01) (163, 2.69922107458114624023e-01) (164, 9.76009368896484375000e-02) (165, 1.80821672081947326660e-01) (166, 1.76511123776435852051e-01) (167, 1.43886581063270568848e-01) (168, 5.79189471900463104248e-02) (169, 3.74873988330364227295e-02) (170, -1.47285476326942443848e-01) (171, 1.96512356400489807129e-01) (172, -1.02416826412081718445e-02) (173, -2.16177865862846374512e-01) (174, 4.02586422860622406006e-02) (175, -1.09235584735870361328e-01) (176, 2.26332053542137145996e-01) (177, 8.13330858945846557617e-02) (178, -1.42586424946784973145e-01) (179, -1.97575941681861877441e-01) (180, -6.81904703378677368164e-02) (181, 5.50887035205960273743e-03) (182, 1.29899397492408752441e-01) (183, 3.32975655794143676758e-01) (184, 2.68506914377212524414e-01) (185, 1.44522383809089660645e-01) (186, 1.63772538304328918457e-01) (187, 2.02031090855598449707e-01) (188, 1.42510190606117248535e-01) (189, -9.96330082416534423828e-02) (190, 1.56798198819160461426e-01) (191, -4.48008859530091285706e-03) (192, -1.52488663792610168457e-01) (193, -4.46202941238880157471e-02) (194, 6.19690604507923126221e-02) (195, 1.44381806254386901855e-01) (196, 1.81014463305473327637e-01) (197, -2.38566592335700988770e-01) (198, -1.59582272171974182129e-01) (199, -8.22589993476867675781e-02) (200, 2.72387415170669555664e-01) (201, 1.49728044867515563965e-01) (202, 3.36080282926559448242e-01) (203, 9.28279608488082885742e-02) (204, 1.57210960984230041504e-01) (205, -1.34029075503349304199e-01) (206, 9.62485671043395996094e-02) (207, 1.15991160273551940918e-01) (208, -9.02500450611114501953e-02) (209, 4.61290171369910240173e-03) (210, 2.14978381991386413574e-01) (211, 1.43053857609629631042e-02) (212, -2.39840641617774963379e-01) (213, -9.83533412218093872070e-02) (214, -1.55119284987449645996e-01) (215, 7.41191357374191284180e-02) (216, 1.56397685408592224121e-01) (217, -1.34433761239051818848e-01) (218, -8.81581306457519531250e-02) (219, -2.10035279393196105957e-01) (220, 9.54429507255554199219e-02) (221, 1.63362398743629455566e-01) (222, 3.20374853909015655518e-02) (223, -4.13606427609920501709e-02) (224, 1.78722992539405822754e-01) (225, 7.46996849775314331055e-02) (226, -3.49461473524570465088e-02) (227, 6.92086219787597656250e-02) (228, 2.84245889633893966675e-02) (229, -3.02373260259628295898e-01) (230, 5.32736442983150482178e-02) (231, 5.40702752768993377686e-02) (232, -1.00930863991379737854e-02) (233, -8.79679713398218154907e-03) (234, 2.60523825883865356445e-01) (235, 1.22882559895515441895e-01) (236, -9.75542981177568435669e-03) (237, 6.74636363983154296875e-02) (238, 1.58406838774681091309e-01) (239, -5.85516132414340972900e-02) (240, 8.00219178199768066406e-02) (241, 2.27465584874153137207e-01) (242, -2.53032650798559188843e-02) (243, -1.35872796177864074707e-01) (244, 1.30573377013206481934e-01) (245, -7.27690607309341430664e-02) (246, -5.54961562156677246094e-01) (247, -3.60965222120285034180e-01) (248, -3.38788002729415893555e-01) (249, -1.76061436533927917480e-01) (250, 4.33000810444355010986e-02) (251, 4.45377044379711151123e-02) (252, 1.20851278305053710938e-01) (253, 1.72801181674003601074e-01) (254, -2.13859036564826965332e-01) (255, 3.84169407188892364502e-02) (256, -2.92259782552719116211e-01) (257, 7.56258666515350341797e-02) (258, 1.79175157099962234497e-02) (259, -1.87305863946676254272e-02) (260, 1.22177973389625549316e-01) (261, 1.52931198477745056152e-01) (262, 1.51750162243843078613e-01) (263, -4.33962903916835784912e-02) (264, -7.25481212139129638672e-02) (265, -2.51693874597549438477e-01) (266, -4.90024350583553314209e-02) (267, -1.47249892354011535645e-01) (268, -2.14435353875160217285e-01) (269, 4.33789081871509552002e-02) (270, -2.01609030365943908691e-01) (271, -1.00633189082145690918e-01) (272, 7.32165575027465820312e-02) (273, -3.22421006858348846436e-02) (274, 8.56082737445831298828e-02) (275, 1.02439150214195251465e-01) (276, 6.33656382560729980469e-02) (277, 1.37928828597068786621e-01) (278, -6.78875446319580078125e-02) (279, 2.31946155428886413574e-01) (280, 2.08084687590599060059e-01) (281, 2.87670403718948364258e-01) (282, 8.61539989709854125977e-02) (283, 3.19755464792251586914e-01) (284, 1.34098842740058898926e-01) (285, -1.22213959693908691406e-01) (286, -2.65199750661849975586e-01) (287, -1.73987790942192077637e-01) (288, -4.41758073866367340088e-02) (289, 1.12477555871009826660e-01) (290, -2.08503201603889465332e-01) (291, 3.40721271932125091553e-02) (292, 1.42582938075065612793e-01) (293, -7.50082433223724365234e-02) (294, -6.42419159412384033203e-02) (295, -4.00965847074985504150e-02) (296, 1.83226563967764377594e-03) (297, -2.91150491684675216675e-02) (298, -4.44123633205890655518e-02) (299, 1.14355325698852539062e-01) (300, -2.81986724585294723511e-02) (301, 2.06383183598518371582e-01) (302, 1.75185993313789367676e-01) (303, 3.44090908765792846680e-01) (304, 3.14106673002243041992e-01) (305, -5.09741194546222686768e-02) (306, -4.29402701556682586670e-02) (307, -2.18625441193580627441e-01) (308, -3.55078019201755523682e-02) (309, -1.14471957087516784668e-01) (310, -8.26712232083082199097e-03) (311, -8.61233025789260864258e-02) (312, -1.09186425805091857910e-01) (313, 6.28211200237274169922e-02) (314, -1.84182241559028625488e-01) (315, 9.79223251342773437500e-02) (316, 2.39841535687446594238e-01) (317, 8.93756151199340820312e-02) (318, 2.69823282957077026367e-01) (319, 1.98072835803031921387e-01) (320, 2.21982911229133605957e-01) (321, -6.78982883691787719727e-02) (322, 2.06734672188758850098e-01) (323, 1.10057413578033447266e-01) (324, 1.25562146306037902832e-01) (325, 1.96318011730909347534e-02) (326, 1.96603372693061828613e-01) (327, -1.93222925066947937012e-01) (328, -6.62065893411636352539e-02) (329, -1.00874841213226318359e-01) (330, 5.50734587013721466064e-02) (331, 7.83020108938217163086e-02) (332, 3.95689047873020172119e-02) (333, 4.14170138537883758545e-02) (334, 3.03909648209810256958e-02) (335, 2.62120097875595092773e-01) (336, 2.12933436036109924316e-01) (337, 1.64093878120183944702e-02) (338, 1.47033318877220153809e-01) (339, 8.99809747934341430664e-02) (340, -1.09904602169990539551e-01) (341, -2.54792541265487670898e-01) (342, -1.46966114640235900879e-01) (343, 2.12143853306770324707e-01) (344, 5.87572716176509857178e-02) (345, 1.51729062199592590332e-01) (346, 9.98064037412405014038e-03) (347, -1.80797558277845382690e-02) (348, -4.68931114301085472107e-03) (349, -2.27314904332160949707e-01) (350, -2.87461131811141967773e-01) (351, -2.96032875776290893555e-01) (352, -1.31946250796318054199e-01) (353, 1.90554276108741760254e-01) (354, -1.28183141350746154785e-01) (355, -2.81210631132125854492e-01) (356, 9.56865549087524414062e-02) (357, -7.95590430498123168945e-02) (358, 2.85808354616165161133e-01) (359, 3.92244644463062286377e-02) (360, 2.14261218905448913574e-01) (361, -1.35480567812919616699e-01) (362, -7.51984072849154472351e-03) (363, -1.05323508381843566895e-01) (364, -1.06461346149444580078e-01) (365, -9.95037984102964401245e-03) (366, 1.25594481825828552246e-01) (367, 6.72746002674102783203e-02) (368, 1.08755320310592651367e-01) (369, 6.57621473073959350586e-02) (370, -8.26025847345590591431e-03) (371, -1.18729799985885620117e-01) (372, 1.13902002573013305664e-01) (373, -2.09524650126695632935e-02) (374, -3.28182071447372436523e-01) (375, -3.24735157191753387451e-02) (376, -2.85890191793441772461e-01) (377, 3.66468094289302825928e-02) (378, 1.50785401463508605957e-01) (379, 1.09709829092025756836e-01) (380, 1.19922682642936706543e-01) (381, 1.49544820189476013184e-01) (382, 2.31504276394844055176e-01) (383, -1.05257436633110046387e-01) (384, 6.22702464461326599121e-02) (385, -9.94361340999603271484e-02) (386, 7.77467638254165649414e-02) (387, -2.14952658861875534058e-02) (388, 2.54766255617141723633e-01) (389, 1.59008786082267761230e-01) (390, -6.83831423521041870117e-02) (391, 1.01030007004737854004e-01) (392, -2.91042834520339965820e-01) (393, 3.98481003940105438232e-02) (394, -2.27183654904365539551e-01) (395, -5.07855368778109550476e-03) (396, -2.63916820287704467773e-01) (397, -1.26508221030235290527e-01) (398, 5.16775138676166534424e-02) (399, 1.40039220452308654785e-01) (400, 2.11340803653001785278e-02) (0, -1.19374707341194152832e-01) (1, -1.57701298594474792480e-01) (2, 3.45894359052181243896e-02) (3, -8.02997648715972900391e-02) (4, 1.46600648760795593262e-01) (5, 3.23565363883972167969e-01) (6, 2.14466713368892669678e-02) (7, 4.67473529279232025146e-02) (8, -3.20615060627460479736e-02) (9, 7.89542347192764282227e-02) (10, 1.74620404839515686035e-01) (11, 7.52506405115127563477e-02) (12, 1.02861330378800630569e-03) (13, -1.09929054975509643555e-01) (14, 1.32351383566856384277e-01) (15, -5.67577369511127471924e-02) (16, 4.86446209251880645752e-02) (17, -7.12865889072418212891e-02) (18, -1.80412963032722473145e-01) (19, -5.46634383499622344971e-02) (20, -6.36972580105066299438e-03) (21, 2.80826911330223083496e-02) (22, -1.60992890596389770508e-02) (23, -4.09442126750946044922e-01) (24, -8.44450145959854125977e-02) (25, 4.80248071253299713135e-02) (26, 1.18072077631950378418e-01) (27, 2.76439368724822998047e-01) (28, 1.25119090080261230469e-01) (29, 1.88873991370201110840e-01) (30, 3.07800889015197753906e-01) (31, -5.38864843547344207764e-02) (32, 5.13074807822704315186e-02) (33, 2.94742107391357421875e-01) (34, 2.62093096971511840820e-02) (35, 2.53467448055744171143e-02) (36, 2.07585506141185760498e-02) (37, -1.24853223562240600586e-01) (38, -1.86043247580528259277e-01) (39, -6.14856667816638946533e-02) (40, 5.63499815762042999268e-02) (41, 1.87552466988563537598e-01) (42, -1.25194475054740905762e-01) (43, -1.46359670907258987427e-02) (44, 3.89461100101470947266e-01) (45, 3.43622446060180664062e-01) (46, 2.25063823163509368896e-02) (47, 8.87090861797332763672e-02) (48, 3.24077345430850982666e-02) (49, -1.09263300895690917969e-01) (50, 7.06117425579577684402e-04) (51, 2.33875252306461334229e-02) (52, 5.71270622313022613525e-02) (53, 1.13197490572929382324e-01) (54, 7.92107284069061279297e-02) (55, 2.49951764941215515137e-01) (56, 6.84215575456619262695e-02) (57, -8.02639499306678771973e-03) (58, -2.05381557345390319824e-01) (59, 1.41170337796211242676e-01) (60, 2.28531971573829650879e-01) (61, 8.00382196903228759766e-02) (62, -2.04038396477699279785e-01) (63, -1.58379182219505310059e-01) (64, 9.88693982362747192383e-02) (65, 9.18198823928833007812e-02) (66, 1.72262623906135559082e-01) (67, 4.48528766632080078125e-01) (68, -2.39489972591400146484e-02) (69, 1.63974426686763763428e-02) (70, -1.51925548911094665527e-01) (71, 1.25226657837629318237e-02) (72, -9.31133702397346496582e-03) (73, 1.72468736767768859863e-01) (74, -4.57069985568523406982e-02) (75, 1.57349005341529846191e-01) (76, 6.83832317590713500977e-02) (77, 4.74519375711679458618e-03) (78, 2.05661068321205675602e-04) (79, 8.36493819952011108398e-02) (80, -1.12733811140060424805e-01) (81, 8.14525038003921508789e-02) (82, -3.13944756984710693359e-01) (83, -2.37113386392593383789e-02) (84, 5.23552782833576202393e-02) (85, 3.74133944511413574219e-01) (86, 2.56352901458740234375e-01) (87, 1.31741777062416076660e-01) (88, -1.61034949123859405518e-02) (89, 1.20988547801971435547e-01) (90, -2.54495441913604736328e-01) (91, 4.09298948943614959717e-02) (92, -1.11660599708557128906e-01) (93, -7.36260116100311279297e-02) (94, -9.38410609960556030273e-02) (95, 9.89996343851089477539e-02) (96, -5.05838878452777862549e-02) (97, 3.04382860660552978516e-01) (98, -1.44321754574775695801e-01) (99, 1.21406912803649902344e-01) (100, -1.15180641412734985352e-01) (101, -3.48302461206912994385e-02) (102, 6.34534005075693130493e-03) (103, 7.62947499752044677734e-02) (104, -2.04416558146476745605e-01) (105, 2.37806722521781921387e-01) (106, 1.87456771731376647949e-01) (107, -4.30193804204463958740e-02) (108, 4.80584688484668731689e-02) (109, -1.51120439171791076660e-01) (110, -1.47503212094306945801e-01) (111, -1.74157425761222839355e-01) (112, -1.88150897622108459473e-01) (113, -2.29834154248237609863e-01) (114, -9.49793159961700439453e-02) (115, -1.73836126923561096191e-01) (116, -4.27663862705230712891e-01) (117, -1.71671256422996520996e-01) (118, -9.35118347406387329102e-02) (119, -9.32426191866397857666e-03) (120, -1.91301628947257995605e-01) (121, 6.65942430496215820312e-02) (122, -1.18758335709571838379e-01) (123, 4.33247722685337066650e-02) (124, 3.50452423095703125000e-01) (125, 2.74805188179016113281e-01) (126, 3.77103947103023529053e-02) (127, -2.18561872839927673340e-01) (128, -3.31124722957611083984e-01) (129, 1.08164191246032714844e-01) (130, -3.32713901996612548828e-01) (131, -2.06972584128379821777e-02) (132, -2.37646177411079406738e-02) (133, -1.76917001605033874512e-01) (134, -2.70774781703948974609e-01) (135, -7.59874880313873291016e-02) (136, -1.15778058767318725586e-01) (137, -3.68488252162933349609e-01) (138, 1.77944555878639221191e-01) (139, -1.07402175664901733398e-01) (140, 3.11430692672729492188e-02) (141, -2.63070821762084960938e-01) (142, -1.78845241665840148926e-01) (143, 1.15042239427566528320e-01) (144, -7.98153579235076904297e-02) (145, -1.21765807271003723145e-01) (146, -2.49374285340309143066e-02) (147, -1.57428041100502014160e-01) (148, -7.21742957830429077148e-02) (149, -6.94860517978668212891e-03) (150, -2.68812119960784912109e-01) (151, 5.90396188199520111084e-02) (152, -2.88486540317535400391e-01) (153, -4.70668487250804901123e-02) (154, -4.02252852916717529297e-01) (155, -8.79416763782501220703e-02) (156, 1.09569042921066284180e-01) (157, -1.35395392775535583496e-01) (158, -1.27914443612098693848e-01) (159, -5.44535331428050994873e-02) (160, 1.38688012957572937012e-01) (161, 8.55678319931030273438e-02) (162, 1.83835163712501525879e-01) (163, 2.72473990917205810547e-01) (164, -1.52336433529853820801e-01) (165, -9.72900241613388061523e-02) (166, 4.81216199696063995361e-02) (167, 1.10661253333091735840e-01) (168, 5.11388890445232391357e-02) (169, 2.02428153716027736664e-03) (170, -1.15755543112754821777e-01) (171, -5.42409978806972503662e-02) (172, -2.51857966184616088867e-01) (173, 1.22487977147102355957e-01) (174, -2.83936671912670135498e-02) (175, 4.40701209008693695068e-02) (176, -2.43277549743652343750e-02) (177, -2.81976222991943359375e-01) (178, 6.92616123706102371216e-03) (179, -1.17612943053245544434e-01) (180, 2.38945916295051574707e-01) (181, 1.64639964699745178223e-01) (182, 1.43337592482566833496e-01) (183, -2.49153479933738708496e-01) (184, 1.83002464473247528076e-02) (185, -8.51095318794250488281e-02) (186, 7.52113163471221923828e-02) (187, -1.57852962613105773926e-01) (188, -2.22864151000976562500e-02) (189, -2.31201052665710449219e-02) (190, -1.24005675315856933594e-01) (191, -1.87932386994361877441e-01) (192, 1.27821579575538635254e-01) (193, -2.09124423563480377197e-02) (194, -1.60293146967887878418e-01) (195, -1.38162538409233093262e-01) (196, 1.93591877818107604980e-01) (197, -1.42153397202491760254e-01) (198, 2.87359431385993957520e-02) (199, -1.29435323178768157959e-02) (200, -6.32478855550289154053e-03) (201, -3.52662466466426849365e-02) (202, 2.18240752816200256348e-01) (203, -3.30178625881671905518e-02) (204, -4.36963476240634918213e-02) (205, 4.43905629217624664307e-02) (206, -6.81399255990982055664e-02) (207, -1.24566838145256042480e-01) (208, 1.81752398610115051270e-01) (209, 1.43211022019386291504e-01) (210, -1.30943819880485534668e-01) (211, -9.55572128295898437500e-02) (212, -1.53895631432533264160e-01) (213, -7.30567425489425659180e-02) (214, -1.74695514142513275146e-02) (215, -1.76101878285408020020e-01) (216, 1.37762770056724548340e-01) (217, 1.49464532732963562012e-01) (218, -3.11756230075843632221e-05) (219, -9.06616747379302978516e-02) (220, 1.33185729384422302246e-01) (221, 2.40418568253517150879e-01) (222, 1.03071987628936767578e-01) (223, -1.06249395757913589478e-02) (224, 8.44712704420089721680e-02) (225, -4.19748388230800628662e-02) (226, 5.99748603999614715576e-02) (227, -3.56855951249599456787e-02) (228, -1.01376980543136596680e-01) (229, -1.04814574122428894043e-01) (230, 3.93980136141180992126e-03) (231, -3.79230618476867675781e-01) (232, 8.49757641553878784180e-02) (233, -5.84010742604732513428e-02) (234, -2.29409918189048767090e-01) (235, 4.79840971529483795166e-02) (236, 1.57099947333335876465e-01) (237, -4.35069762170314788818e-02) (238, -7.09828287363052368164e-02) (239, -1.09391048550605773926e-01) (240, 6.40655755996704101562e-02) (241, 3.04851889610290527344e-01) (242, 2.89115011692047119141e-01) (243, 8.16662758588790893555e-02) (244, -1.53457954525947570801e-01) (245, -4.97645325958728790283e-02) (246, -1.17239430546760559082e-01) (247, -2.10904851555824279785e-01) (248, -2.70114779472351074219e-01) (249, 1.14642873406410217285e-01) (250, 2.98995792865753173828e-01) (251, -4.13281261920928955078e-01) (252, -2.79474258422851562500e-01) (253, -2.68752016127109527588e-02) (254, -7.05915910657495260239e-04) (255, -6.11773617565631866455e-02) (256, -2.67554707825183868408e-02) (257, 1.55514761805534362793e-01) (258, -1.21469840407371520996e-01) (259, -6.20265938341617584229e-02) (260, 2.19456329941749572754e-01) (261, 6.14257268607616424561e-02) (262, -9.89309139549732208252e-03) (263, -4.79246862232685089111e-03) (264, 1.35832831263542175293e-01) (265, 9.68484282493591308594e-02) (266, -3.87388281524181365967e-02) (267, -3.10488864779472351074e-02) (268, -1.16318047046661376953e-01) (269, 2.20465555787086486816e-01) (270, 2.15721726417541503906e-02) (271, 1.22462406754493713379e-01) (272, -6.28806799650192260742e-02) (273, 8.13292562961578369141e-02) (274, 1.26989468932151794434e-01) (275, -6.20119534432888031006e-02) (276, 1.72843918204307556152e-01) (277, 2.32649847865104675293e-01) (278, -1.01268544793128967285e-01) (279, -1.70575529336929321289e-02) (280, 1.50499328970909118652e-01) (281, -5.20189665257930755615e-02) (282, -1.43984362483024597168e-01) (283, -1.97015807032585144043e-01) (284, 1.59856632351875305176e-01) (285, 1.31326451897621154785e-01) (286, 3.68774542585015296936e-03) (287, 1.65347829461097717285e-01) (288, -5.13666011393070220947e-02) (289, 1.39958992600440979004e-01) (290, -3.12667824327945709229e-02) (291, 2.63992726802825927734e-01) (292, -1.59011051058769226074e-01) (293, -1.61716207861900329590e-01) (294, 9.56716090440750122070e-02) (295, 8.49661009851843118668e-05) (296, 2.05436810851097106934e-01) (297, 4.16124522686004638672e-01) (298, -1.23677715659141540527e-01) (299, -2.31448747217655181885e-02) (300, 7.20928311347961425781e-02) (301, -1.31197627633810043335e-02) (302, -1.02468952536582946777e-02) (303, 3.16447913646697998047e-01) (304, 2.55827844142913818359e-01) (305, 4.69438359141349792480e-03) (306, -8.64324569702148437500e-02) (307, 6.34194314479827880859e-02) (308, -3.02513241767883300781e-01) (309, -3.37459325790405273438e-01) (310, -3.85613143444061279297e-01) (311, 2.74727791547775268555e-02) (312, -2.59533047676086425781e-01) (313, -9.01734083890914916992e-02) (314, 9.54652577638626098633e-02) (315, 1.42711386084556579590e-01) (316, -3.01197320222854614258e-02) (317, 3.52903790771961212158e-02) (318, -1.50269046425819396973e-01) (319, 1.26443766057491302490e-02) (320, 7.12998211383819580078e-02) (321, 2.33340904116630554199e-01) (322, 6.28490090370178222656e-01) (323, 2.03043535351753234863e-01) (324, 1.37285720556974411011e-02) (325, 5.66230826079845428467e-02) (326, -9.13344919681549072266e-02) (327, -1.88957586884498596191e-01) (328, -1.58966407179832458496e-01) (329, -7.13028609752655029297e-02) (330, -8.15274417400360107422e-02) (331, 1.13051638007164001465e-01) (332, 8.01040232181549072266e-02) (333, 6.56195431947708129883e-02) (334, -3.84548567235469818115e-02) (335, 1.33660778403282165527e-01) (336, 1.61228612065315246582e-01) (337, 1.59186497330665588379e-01) (338, -1.95754602551460266113e-01) (339, 4.22850959002971649170e-02) (340, 5.66859133541584014893e-02) (341, 1.34095624089241027832e-02) (342, 3.78466427326202392578e-01) (343, 1.67912498116493225098e-01) (344, 3.66312444210052490234e-01) (345, 1.19380205869674682617e-01) (346, -6.38586729764938354492e-02) (347, -3.80836636759340763092e-03) (348, -7.56781995296478271484e-02) (349, -1.38014957308769226074e-01) (350, -1.96899488568305969238e-01) (351, 1.62098817527294158936e-02) (352, 1.56842097640037536621e-01) (353, 5.52526153624057769775e-02) (354, -6.12802393734455108643e-02) (355, -4.74998913705348968506e-02) (356, 7.27732200175523757935e-03) (357, 1.59390468616038560867e-03) (358, 1.46999955177307128906e-02) (359, -6.04459010064601898193e-02) (360, 7.82603919506072998047e-02) (361, 5.37468381226062774658e-02) (362, 3.22938919067382812500e-01) (363, 1.34321048855781555176e-01) (364, 6.27946257591247558594e-02) (365, 2.87814915180206298828e-01) (366, -6.75387829542160034180e-02) (367, 1.13801032304763793945e-01) (368, -4.08662892878055572510e-02) (369, -1.11607804894447326660e-01) (370, -5.05955033004283905029e-02) (371, -2.87964999675750732422e-01) (372, -2.68914163112640380859e-01) (373, 1.55366018414497375488e-01) (374, -2.04570695757865905762e-01) (375, 9.16793011128902435303e-03) (376, 2.11488857865333557129e-01) (377, -1.39852032065391540527e-01) (378, 1.98484495282173156738e-01) (379, -6.38212263584136962891e-02) (380, 3.06498706340789794922e-01) (381, 7.74338329210877418518e-03) (382, 6.36407434940338134766e-02) (383, 2.85248279571533203125e-01) (384, 9.70096886157989501953e-03) (385, -1.88082054257392883301e-01) (386, 8.18981677293777465820e-02) (387, -1.63729473948478698730e-01) (388, 1.10004022717475891113e-01) (389, 2.20347061753273010254e-01) (390, -1.81561902165412902832e-01) (391, -5.83601117134094238281e-01) (392, -1.42545178532600402832e-01) (393, 1.19070559740066528320e-01) (394, -1.11511051654815673828e-02) (395, 1.79839804768562316895e-01) (396, 2.41491898894309997559e-01) (397, 6.43524676561355590820e-02) (398, 2.56403148174285888672e-01) (399, 1.00555032491683959961e-01) (400, -3.36807109415531158447e-02) (0, 3.10949206352233886719e-01) (1, 3.80144655704498291016e-01) (2, 1.39070630073547363281e-01) (3, 1.68346524238586425781e-01) (4, 1.45040720701217651367e-01) (5, 1.24682344496250152588e-01) (6, 4.54235523939132690430e-02) (7, 8.59857872128486633301e-02) (8, 1.08754195272922515869e-01) (9, 3.40409755706787109375e-01) (10, -3.80345992743968963623e-03) (11, 2.60940253734588623047e-01) (12, 1.35493189096450805664e-01) (13, 1.36005729436874389648e-01) (14, -3.47365200519561767578e-01) (15, -1.07439450919628143311e-01) (16, -1.64290755987167358398e-01) (17, 5.39110600948333740234e-02) (18, 1.30481928586959838867e-01) (19, 4.08019721508026123047e-01) (20, -2.18872696161270141602e-01) (21, -2.87171840667724609375e-01) (22, 1.63222879171371459961e-01) (23, 2.33140945434570312500e-01) (24, 7.26507529616355895996e-02) (25, 2.63498187065124511719e-01) (26, 1.96380406618118286133e-01) (27, -3.05123217403888702393e-02) (28, -8.05900320410728454590e-02) (29, -3.96337568759918212891e-01) (30, -4.02421951293945312500e-01) (31, -4.30019497871398925781e-01) (32, -3.35921645164489746094e-01) (33, 3.51738631725311279297e-02) (34, 4.44138869643211364746e-02) (35, -6.51600882411003112793e-02) (36, 2.30079621076583862305e-01) (37, 2.39273130893707275391e-01) (38, 1.79447144269943237305e-01) (39, -4.26638498902320861816e-02) (40, 3.69785606861114501953e-01) (41, 2.44658380746841430664e-01) (42, 4.79047521948814392090e-02) (43, 2.39997982978820800781e-01) (44, 1.86399757862091064453e-01) (45, 4.83081415295600891113e-02) (46, -1.88075453042984008789e-02) (47, 1.60513192415237426758e-01) (48, -6.95145204663276672363e-02) (49, 5.96638545393943786621e-02) (50, -1.22137509286403656006e-01) (51, -5.82406073808670043945e-02) (52, -2.15197294950485229492e-01) (53, -9.98835936188697814941e-02) (54, -1.66381090879440307617e-01) (55, -1.66397303342819213867e-01) (56, -2.16882795095443725586e-01) (57, -1.15343235433101654053e-01) (58, -3.79959940910339355469e-02) (59, -1.45818637683987617493e-02) (60, 1.46469950675964355469e-01) (61, 1.05222262442111968994e-01) (62, 2.46888786554336547852e-01) (63, -1.37246936559677124023e-01) (64, 8.02218243479728698730e-02) (65, -1.89210884273052215576e-02) (66, -1.08846716582775115967e-01) (67, -2.22750306129455566406e-02) (68, -1.23955868184566497803e-01) (69, -8.49859341979026794434e-02) (70, -2.20818161964416503906e-01) (71, -2.12014794349670410156e-01) (72, -2.27951407432556152344e-01) (73, 7.16915503144264221191e-02) (74, -1.59302651882171630859e-02) (75, -2.79892981052398681641e-01) (76, -8.11383053660392761230e-02) (77, 5.63332438468933105469e-02) (78, -2.50985234975814819336e-01) (79, -3.01706314086914062500e-01) (80, -1.87426865100860595703e-01) (81, -1.52478337287902832031e-01) (82, -1.37403845787048339844e-01) (83, -2.86799132823944091797e-01) (84, -1.55367273837327957153e-02) (85, -9.38308611512184143066e-02) (86, 4.02837470173835754395e-02) (87, 6.32749870419502258301e-02) (88, -4.06924858689308166504e-02) (89, -2.25370287895202636719e-01) (90, -8.43390151858329772949e-02) (91, -7.40429088473320007324e-02) (92, -3.17740738391876220703e-01) (93, -2.30644494295120239258e-01) (94, -2.48576313257217407227e-01) (95, -4.13523197174072265625e-01) (96, -9.22521278262138366699e-02) (97, -2.47922874987125396729e-02) (98, -4.50327634811401367188e-01) (99, -2.69737064838409423828e-01) (100, 4.73476797342300415039e-02) (101, 7.09899142384529113770e-02) (102, -3.22120130062103271484e-01) (103, -2.14343279600143432617e-01) (104, 7.64451846480369567871e-02) (105, 5.09729906916618347168e-02) (106, 1.63671821355819702148e-01) (107, 1.01713789626955986023e-02) (108, 1.48199498653411865234e-01) (109, -6.50640949606895446777e-02) (110, -1.12554512917995452881e-01) (111, -1.45233720541000366211e-01) (112, -1.45323216915130615234e-01) (113, 2.20536589622497558594e-02) (114, -1.68709844350814819336e-01) (115, 9.41514447331428527832e-02) (116, -1.25626325607299804688e-01) (117, 1.23168818652629852295e-01) (118, -2.83029139041900634766e-01) (119, -3.24981033802032470703e-01) (120, 2.64366388320922851562e-01) (121, 7.77477696537971496582e-02) (122, -2.14398264884948730469e-01) (123, -2.61160731315612792969e-01) (124, 1.64222717285156250000e-01) (125, 1.94117188453674316406e-01) (126, 8.62497910857200622559e-02) (127, 1.45303368568420410156e-01) (128, 4.59674000740051269531e-02) (129, 6.58127143979072570801e-02) (130, 6.86404183506965637207e-02) (131, 2.04447090625762939453e-01) (132, -2.62709669768810272217e-02) (133, 4.14779901504516601562e-01) (134, -8.77233818173408508301e-02) (135, 2.12920367717742919922e-01) (136, 4.97116297483444213867e-02) (137, 1.01314894855022430420e-01) (138, -7.35137686133384704590e-02) (139, -1.66596889495849609375e-01) (140, 2.09304153919219970703e-01) (141, 9.21279862523078918457e-02) (142, 3.73749285936355590820e-02) (143, 2.44980603456497192383e-02) (144, 6.50419369339942932129e-02) (145, -2.62767542153596878052e-03) (146, 1.32506996393203735352e-01) (147, 1.43733015283942222595e-02) (148, 4.81897443532943725586e-02) (149, -1.41902854666113853455e-02) (150, -3.68880182504653930664e-02) (151, -4.54617515206336975098e-02) (152, 2.71057724952697753906e-01) (153, 3.86661454103887081146e-03) (154, 2.39514082670211791992e-01) (155, 1.51320129632949829102e-01) (156, 1.99319183826446533203e-01) (157, 3.88369932770729064941e-02) (158, 1.24044800177216529846e-02) (159, -1.43033964559435844421e-02) (160, 1.12006105482578277588e-01) (161, 1.89889639616012573242e-01) (162, 8.07204321026802062988e-02) (163, 1.18602253496646881104e-01) (164, 1.18789620697498321533e-01) (165, 1.52975171804428100586e-01) (166, -4.30087000131607055664e-02) (167, -1.49634093046188354492e-01) (168, -1.45222106948494911194e-02) (169, 1.30541682243347167969e-01) (170, 1.88960820436477661133e-01) (171, 1.24241955578327178955e-01) (172, 1.90936416387557983398e-01) (173, 2.43608132004737854004e-02) (174, -4.00607287883758544922e-02) (175, -4.73641753196716308594e-02) (176, 1.54702421277761459351e-02) (177, 1.07246913015842437744e-01) (178, 2.46268659830093383789e-01) (179, 3.34189385175704956055e-02) (180, 1.29938036203384399414e-01) (181, 3.25708508491516113281e-01) (182, 4.09302473068237304688e-01) (183, 4.57872807979583740234e-01) (184, 1.82671099901199340820e-01) (185, 2.74316906929016113281e-01) (186, 6.74035325646400451660e-02) (187, -9.62020978331565856934e-02) (188, 2.75218524038791656494e-02) (189, 1.43050909042358398438e-01) (190, -1.40532612800598144531e-01) (191, 1.31667822599411010742e-01) (192, 9.16737243533134460449e-02) (193, -4.12464663386344909668e-02) (194, 1.30040258169174194336e-01) (195, 8.62922742962837219238e-02) (196, 1.92765027284622192383e-01) (197, 4.06274020671844482422e-01) (198, 2.53790259361267089844e-01) (199, 6.89537897706031799316e-02) (200, 3.64226326346397399902e-02) (201, -5.89344592299312353134e-04) (202, 3.32332178950309753418e-02) (203, 1.82572901248931884766e-01) (204, -9.66296121478080749512e-02) (205, 2.42710448801517486572e-02) (206, 4.24712449312210083008e-02) (207, 3.11127509921789169312e-02) (208, 8.62254127860069274902e-02) (209, -2.60050654411315917969e-01) (210, -3.07969927787780761719e-01) (211, 6.10699132084846496582e-02) (212, -6.20028674602508544922e-02) (213, 2.14435122907161712646e-02) (214, -5.94588741660118103027e-02) (215, -6.99261948466300964355e-02) (216, 9.81929227709770202637e-02) (217, 1.54183119535446166992e-01) (218, 1.84861570596694946289e-01) (219, 1.11570887267589569092e-01) (220, 9.74932685494422912598e-02) (221, 1.28012150526046752930e-01) (222, 3.88095825910568237305e-02) (223, -5.75065687298774719238e-02) (224, 1.71497613191604614258e-01) (225, -1.79559707641601562500e-01) (226, -4.73657399415969848633e-02) (227, 4.57129999995231628418e-02) (228, -6.71435371041297912598e-02) (229, -5.71176707744598388672e-02) (230, 1.04416809976100921631e-01) (231, -5.89262172579765319824e-02) (232, -1.79320067167282104492e-01) (233, 2.36206203699111938477e-01) (234, -7.24384412169456481934e-02) (235, -8.49382206797599792480e-02) (236, -8.05075541138648986816e-02) (237, 2.05835133790969848633e-01) (238, -6.10271766781806945801e-02) (239, 9.27657410502433776855e-02) (240, 1.14628849551081657410e-02) (241, -4.30102422833442687988e-02) (242, 6.94587752223014831543e-02) (243, -2.61137522757053375244e-02) (244, 3.90549823641777038574e-02) (245, -9.16107520461082458496e-02) (246, -1.00043885409832000732e-01) (247, -2.37531363964080810547e-01) (248, -3.50493639707565307617e-02) (249, -1.33388251066207885742e-01) (250, -1.12216256558895111084e-01) (251, -2.06460267305374145508e-01) (252, -4.58117425441741943359e-02) (253, -3.59552130103111267090e-02) (254, -4.17838394641876220703e-02) (255, 4.90407366305589675903e-03) (256, -2.77672708034515380859e-01) (257, 8.23617205023765563965e-02) (258, -5.51538765430450439453e-02) (259, 1.31122827529907226562e-01) (260, 1.25417590141296386719e-01) (261, -5.68740218877792358398e-02) (262, -6.43840655684471130371e-02) (263, 2.38916128873825073242e-02) (264, 3.09938136488199234009e-02) (265, 8.08091238141059875488e-02) (266, -2.87862420082092285156e-01) (267, -2.20394879579544067383e-01) (268, -3.08625221252441406250e-01) (269, -5.33387586474418640137e-02) (270, -6.47580549120903015137e-02) (271, -5.28474152088165283203e-02) (272, 1.00891001522541046143e-01) (273, -1.32996708154678344727e-01) (274, -1.45432323217391967773e-01) (275, -4.42348718643188476562e-02) (276, 3.55747155845165252686e-03) (277, 1.70466214418411254883e-01) (278, 1.64832808077335357666e-02) (279, 8.69431570172309875488e-02) (280, 1.64864689111709594727e-01) (281, -8.85153040289878845215e-02) (282, -6.76928833127021789551e-02) (283, 4.28973957896232604980e-02) (284, 1.26800714060664176941e-02) (285, -1.51612967252731323242e-01) (286, 9.16941538453102111816e-02) (287, -9.83269978314638137817e-03) (288, -1.63143068552017211914e-01) (289, -1.82086527347564697266e-01) (290, -2.21495851874351501465e-02) (291, 1.39796724542975425720e-02) (292, 8.04639700800180435181e-03) (293, 5.81184104084968566895e-02) (294, -1.48906022310256958008e-01) (295, -3.96690294146537780762e-02) (296, -8.52772369980812072754e-02) (297, -7.24440738558769226074e-02) (298, -8.78763720393180847168e-02) (299, 5.30925169587135314941e-02) (300, -9.90947708487510681152e-02) (301, 9.91603508591651916504e-02) (302, 9.49443355202674865723e-02) (303, 1.04510731995105743408e-01) (304, -2.15897977352142333984e-01) (305, 8.13887789845466613770e-02) (306, 1.13083384931087493896e-01) (307, 3.15870344638824462891e-01) (308, 1.10258139669895172119e-01) (309, 1.19458204135298728943e-02) (310, 1.87138952314853668213e-02) (311, 6.83908239006996154785e-02) (312, -4.84989432152360677719e-04) (313, -9.21904982533305883408e-04) (314, -9.01919379830360412598e-02) (315, -4.66349418275058269501e-04) (316, -3.63107100129127502441e-02) (317, -1.19808308780193328857e-01) (318, 1.78364157676696777344e-01) (319, 1.12818188965320587158e-01) (320, 1.56255960464477539062e-01) (321, 1.55495941638946533203e-01) (322, 2.62676060199737548828e-01) (323, 6.47482052445411682129e-02) (324, -1.00822754204273223877e-01) (325, -1.25052958726882934570e-01) (326, 1.42811626195907592773e-01) (327, -2.32627928256988525391e-01) (328, 1.52914583683013916016e-01) (329, -6.91955462098121643066e-02) (330, 2.14815080165863037109e-01) (331, -6.98575302958488464355e-02) (332, -3.57540026307106018066e-02) (333, 1.84418149292469024658e-02) (334, 4.47472780942916870117e-02) (335, 1.49823995307087898254e-02) (336, 1.07561228796839714050e-02) (337, -4.25821393728256225586e-02) (338, 2.56517291069030761719e-01) (339, 2.97106146812438964844e-01) (340, -4.78989258408546447754e-02) (341, -2.44245797395706176758e-01) (342, 1.30870908498764038086e-01) (343, 7.62083157896995544434e-02) (344, -7.86111578345298767090e-02) (345, 1.54904089868068695068e-02) (346, -2.84312665462493896484e-01) (347, 1.50210736319422721863e-02) (348, -4.04781326651573181152e-02) (349, 1.90315365791320800781e-01) (350, -2.25379541516304016113e-02) (351, 1.35717660188674926758e-01) (352, 1.16614751517772674561e-01) (353, 9.12286415696144104004e-02) (354, 3.12816262245178222656e-01) (355, 1.43506258726119995117e-01) (356, -1.57294660806655883789e-01) (357, -1.46022081375122070312e-01) (358, -1.34471459314227104187e-02) (359, 1.51447683572769165039e-01) (360, 1.09729818999767303467e-01) (361, -4.38764467835426330566e-02) (362, 3.74336019158363342285e-02) (363, -2.07074433565139770508e-01) (364, 3.80980893969535827637e-02) (365, 2.64775082468986511230e-02) (366, 4.86484169960021972656e-02) (367, -8.13651457428932189941e-02) (368, -1.20623134076595306396e-01) (369, 4.91773411631584167480e-02) (370, -8.57473257929086685181e-03) (371, -1.35108539834618568420e-02) (372, -6.00471571087837219238e-02) (373, 4.01897802948951721191e-02) (374, 1.01614974439144134521e-01) (375, 1.58718466758728027344e-01) (376, 6.37763813138008117676e-02) (377, 1.11565701663494110107e-01) (378, 8.93391203135251998901e-03) (379, -2.31138505041599273682e-02) (380, -1.33530259132385253906e-01) (381, -2.48996824026107788086e-01) (382, 6.87400773167610168457e-02) (383, -2.31017209589481353760e-02) (384, -4.81806322932243347168e-02) (385, 1.68258756399154663086e-01) (386, 1.20155615732073783875e-02) (387, -1.85926467180252075195e-01) (388, -1.75626836717128753662e-02) (389, -4.21980768442153930664e-03) (390, -1.25598490238189697266e-01) (391, 1.14703923463821411133e-03) (392, 4.16479655541479587555e-04) (393, -6.87253847718238830566e-03) (394, 2.90793478488922119141e-01) (395, 1.94538861513137817383e-01) (396, 1.41780942678451538086e-01) (397, 7.56556317210197448730e-02) (398, 3.89350801706314086914e-02) (399, 7.16966167092323303223e-02) (400, -8.20440232753753662109e-01) (0, 1.03798186779022216797e+00) (1, 4.05954837799072265625e-01) (2, 1.03590115904808044434e-01) (3, 9.15358513593673706055e-02) (4, 4.20790374279022216797e-01) (5, 6.52147233486175537109e-02) (6, -3.25876325368881225586e-02) (7, 1.10542401671409606934e-01) (8, 1.94436535239219665527e-01) (9, 1.12679332494735717773e-01) (10, -4.06428426504135131836e-02) (11, -2.38049730658531188965e-01) (12, -1.71638414263725280762e-01) (13, -4.34190690517425537109e-01) (14, -1.42752245068550109863e-01) (15, -1.58669039607048034668e-01) (16, 1.92110255360603332520e-01) (17, 3.64831984043121337891e-01) (18, 2.93453689664602279663e-02) (19, 2.85259783267974853516e-01) (20, -5.98487704992294311523e-02) (21, 2.15184345841407775879e-01) (22, -9.93508696556091308594e-02) (23, 2.60174453258514404297e-01) (24, 3.12173783779144287109e-01) (25, 3.73422950506210327148e-02) (26, -1.42780020833015441895e-01) (27, 5.30777037143707275391e-01) (28, 2.07458928227424621582e-01) (29, 4.38302814960479736328e-01) (30, 8.44983011484146118164e-02) (31, 3.15324723720550537109e-01) (32, 5.74584156274795532227e-02) (33, -6.86235129833221435547e-02) (34, -3.62277776002883911133e-02) (35, 4.03526350855827331543e-02) (36, 1.01914286613464355469e-01) (37, 4.65021908283233642578e-01) (38, 4.32392895221710205078e-01) (39, 1.27985611557960510254e-01) (40, -8.67933630943298339844e-02) (41, 1.19738783687353134155e-02) (42, 1.35524138808250427246e-01) (43, 8.68025049567222595215e-03) (44, 1.59601971507072448730e-01) (45, -2.22217455506324768066e-01) (46, -1.33446827530860900879e-01) (47, 3.90561297535896301270e-02) (48, 1.66446253657341003418e-01) (49, 1.45469948649406433105e-01) (50, -6.34327977895736694336e-02) (51, 2.28182926774024963379e-01) (52, 1.30732163786888122559e-01) (53, -4.09135073423385620117e-02) (54, 7.96251595020294189453e-02) (55, -6.88361674547195434570e-02) (56, 3.51313471794128417969e-01) (57, 1.71635553240776062012e-01) (58, 3.36733400821685791016e-01) (59, 1.10212668776512145996e-01) (60, -2.40875467658042907715e-01) (61, -1.10411390662193298340e-01) (62, -1.30385383963584899902e-01) (63, -1.58879145979881286621e-01) (64, -8.68548303842544555664e-02) (65, -1.13980323076248168945e-01) (66, -1.94520130753517150879e-01) (67, 1.16864308714866638184e-01) (68, 5.37200033664703369141e-01) (69, 2.75548119097948074341e-02) (70, -2.14200541377067565918e-01) (71, -5.97512125968933105469e-02) (72, 1.37339547276496887207e-01) (73, -1.05612248182296752930e-01) (74, -7.73427039384841918945e-02) (75, 1.23706571757793426514e-02) (76, 2.15053364634513854980e-01) (77, -8.49004276096820831299e-03) (78, 1.05137944221496582031e-01) (79, -1.67701169848442077637e-01) (80, 5.48803627490997314453e-01) (81, -1.63079008460044860840e-01) (82, 1.03238776326179504395e-01) (83, 1.27135798335075378418e-01) (84, -1.27446219325065612793e-01) (85, 1.01508915424346923828e-01) (86, -2.37063411623239517212e-02) (87, -2.95304477214813232422e-01) (88, 2.11970522999763488770e-01) (89, -1.43330469727516174316e-01) (90, -6.93389922380447387695e-02) (91, -2.69152283668518066406e-01) (92, 2.51811277121305465698e-02) (93, 9.71820354461669921875e-02) (94, 4.84901070594787597656e-02) (95, -1.60098865628242492676e-01) (96, -2.87920963019132614136e-02) (97, -2.81152904033660888672e-01) (98, 1.75875768065452575684e-01) (99, -1.10058426856994628906e-01) (100, 1.84383973479270935059e-01) (101, -2.72873818874359130859e-01) (102, 1.13815769553184509277e-01) (103, -7.38369126338511705399e-04) (104, 5.01175582408905029297e-01) (105, 3.16382646560668945312e-02) (106, -4.01529610157012939453e-01) (107, 1.11407041549682617188e-01) (108, 5.38340285420417785645e-02) (109, -1.40033558011054992676e-01) (110, -6.56198441982269287109e-01) (111, -2.61397182941436767578e-01) (112, -1.71759173274040222168e-01) (113, -1.18031501770019531250e-02) (114, 1.38509586453437805176e-01) (115, -7.76529908180236816406e-02) (116, 2.10450097918510437012e-01) (117, -1.24281998723745346069e-02) (118, -5.65514564514160156250e-02) (119, -6.96756094694137573242e-02) (120, 1.89821377396583557129e-01) (121, -8.17304551601409912109e-02) (122, -1.67935207486152648926e-01) (123, 7.35696703195571899414e-02) (124, -2.41768416017293930054e-02) (125, -7.51034170389175415039e-03) (126, 5.37912473082542419434e-02) (127, 1.78927764296531677246e-01) (128, -1.24656587839126586914e-01) (129, -5.83023950457572937012e-02) (130, -2.56479624658823013306e-02) (131, -3.25149953365325927734e-01) (132, -2.11772490292787551880e-02) (133, -1.07995048165321350098e-02) (134, 2.24190339446067810059e-01) (135, 2.28354051709175109863e-01) (136, 8.20766836404800415039e-02) (137, 1.17953330278396606445e-01) (138, 3.13442796468734741211e-02) (139, -1.88763692975044250488e-01) (140, -2.01593384146690368652e-01) (141, -3.29248607158660888672e-02) (142, 1.19149938225746154785e-01) (143, -5.63755482435226440430e-02) (144, 1.46724894642829895020e-01) (145, 8.63298177719116210938e-02) (146, -3.08233380317687988281e-01) (147, -1.96181878447532653809e-01) (148, 1.21759489178657531738e-01) (149, 4.45957556366920471191e-02) (150, -1.95473805069923400879e-01) (151, -3.41702759265899658203e-01) (152, -1.42651215195655822754e-01) (153, 2.44594946503639221191e-01) (154, 9.04225707054138183594e-02) (155, -3.50743308663368225098e-02) (156, -2.49568775296211242676e-01) (157, -5.21650969982147216797e-01) (158, -5.33783376216888427734e-01) (159, -3.23280155658721923828e-01) (160, -4.23108711838722229004e-02) (161, -1.03988386690616607666e-02) (162, -1.90965738147497177124e-02) (163, -1.08234480023384094238e-01) (164, -3.67728948593139648438e-01) (165, -7.13703483343124389648e-02) (166, -1.87953248620033264160e-01) (167, -7.07952082157135009766e-02) (168, -1.96511730551719665527e-01) (169, -8.10893774032592773438e-02) (170, -1.45000621676445007324e-01) (171, -2.15821489691734313965e-01) (172, 1.53380766510963439941e-01) (173, 1.50133505463600158691e-01) (174, 1.90891638398170471191e-01) (175, -6.68857693672180175781e-02) (176, -1.83810546994209289551e-01) (177, -3.26987564563751220703e-01) (178, -1.68093487620353698730e-01) (179, -6.15650415420532226562e-02) (180, -2.05265864729881286621e-01) (181, -9.24707353115081787109e-02) (182, -2.35254719853401184082e-01) (183, -3.34124445915222167969e-01) (184, -2.96874701976776123047e-01) (185, -1.30392447113990783691e-01) (186, -1.99723854660987854004e-01) (187, 1.21474817395210266113e-01) (188, -2.17635050415992736816e-01) (189, 7.64141976833343505859e-02) (190, 2.49293252825736999512e-01) (191, 2.12246403098106384277e-01) (192, -4.56794872879981994629e-02) (193, 4.54740300774574279785e-02) (194, -6.83987587690353393555e-02) (195, 1.26743242144584655762e-01) (196, -1.55431494116783142090e-01) (197, 1.33015438914299011230e-01) (198, -2.05567050725221633911e-02) (199, -3.15337777137756347656e-01) (200, -5.53022027015686035156e-02) (201, -1.41171123832464218140e-02) (202, -8.17526429891586303711e-02) (203, 6.85096085071563720703e-02) (204, -3.65991771221160888672e-01) (205, -3.67557704448699951172e-01) (206, -3.76198291778564453125e-01) (207, 6.26966729760169982910e-02) (208, -2.22764417529106140137e-01) (209, 2.77942061424255371094e-01) (210, 1.52541711926460266113e-01) (211, -7.14082363992929458618e-03) (212, 1.81041613221168518066e-01) (213, -9.76800359785556793213e-03) (214, 1.14162504673004150391e-01) (215, -1.57482013106346130371e-01) (216, -2.00170669704675674438e-02) (217, 1.66024163365364074707e-01) (218, 1.51056006550788879395e-01) (219, -3.26476022601127624512e-02) (220, -8.81569981575012207031e-02) (221, 1.58972695469856262207e-01) (222, -1.55926182866096496582e-01) (223, 7.63624757528305053711e-02) (224, -4.76187944412231445312e-01) (225, -8.36958289146423339844e-02) (226, -6.29985630512237548828e-01) (227, -3.15663337707519531250e-01) (228, -1.35893091559410095215e-01) (229, 1.65034964680671691895e-01) (230, 1.14657312631607055664e-01) (231, 2.57282137870788574219e-01) (232, 1.91660091280937194824e-01) (233, 1.07885375618934631348e-01) (234, -1.64966329932212829590e-01) (235, -2.90181580930948257446e-02) (236, -5.27021363377571105957e-02) (237, 3.32969501614570617676e-02) (238, 4.50819209218025207520e-02) (239, 3.27820540405809879303e-03) (240, -3.96147310733795166016e-01) (241, 1.30179822444915771484e-02) (242, -9.60714071989059448242e-02) (243, -3.74263375997543334961e-02) (244, 1.37873664498329162598e-01) (245, 2.58908569812774658203e-01) (246, -2.99967885017395019531e-01) (247, -1.89165905117988586426e-01) (248, 2.29743141680955886841e-02) (249, -2.25586071610450744629e-01) (250, 1.44296184182167053223e-01) (251, 2.82546222209930419922e-01) (252, 4.14030849933624267578e-01) (253, -1.86057195067405700684e-01) (254, -4.72678914666175842285e-02) (255, 1.04488909244537353516e-01) (256, -1.55762270092964172363e-01) (257, 2.02090129256248474121e-01) (258, 5.23901209235191345215e-02) (259, 1.45609542727470397949e-01) (260, -5.78459322452545166016e-01) (261, 5.57704940438270568848e-02) (262, 1.12631365656852722168e-01) (263, 1.22205197811126708984e-01) (264, -1.25772133469581604004e-01) 