FANN_FLO_2.1
num_layers=4
learning_rate=0.007500
connection_rate=1.000000
network_type=0
learning_momentum=0.000000
training_algorithm=0
train_error_function=1
train_stop_function=0
cascade_output_change_fraction=0.010000
quickprop_decay=-0.000100
quickprop_mu=1.750000
rprop_increase_factor=1.200000
rprop_decrease_factor=0.500000
rprop_delta_min=0.000000
rprop_delta_max=50.000000
rprop_delta_zero=0.100000
cascade_output_stagnation_epochs=12
cascade_candidate_change_fraction=0.010000
cascade_candidate_stagnation_epochs=12
cascade_max_out_epochs=150
cascade_max_cand_epochs=150
cascade_num_candidate_groups=2
bit_fail_limit=3.49999994039535522461e-01
cascade_candidate_limit=1.00000000000000000000e+03
cascade_weight_multiplier=4.00000005960464477539e-01
cascade_activation_functions_count=10
cascade_activation_functions=3 5 7 8 10 11 14 15 16 17 
cascade_activation_steepnesses_count=4
cascade_activation_steepnesses=2.50000000000000000000e-01 5.00000000000000000000e-01 7.50000000000000000000e-01 1.00000000000000000000e+00 
layer_sizes=226 51 51 95 
scale_included=0
neurons (num_inputs, activation_function, activation_steepness)=(0, 0, 0.00000000000000000000e+00) (0, 0, 0.00000000000000000000e+00) (0, 0, 0.00000000000000000000e+00) (0, 0, 0.00000000000000000000e+00) (0, 0, 0.00000000000000000000e+00) (0, 0, 0.00000000000000000000e+00) (0, 0, 0.00000000000000000000e+00) (0, 0, 0.00000000000000000000e+00) (0, 0, 0.00000000000000000000e+00) (0, 0, 0.00000000000000000000e+00) (0, 0, 0.00000000000000000000e+00) (0, 0, 0.00000000000000000000e+00) (0, 0, 0.00000000000000000000e+00) (0, 0, 0.00000000000000000000e+00) (0, 0, 0.00000000000000000000e+00) (0, 0, 0.00000000000000000000e+00) (0, 0, 0.00000000000000000000e+00) (0, 0, 0.00000000000000000000e+00) (0, 0, 0.00000000000000000000e+00) (0, 0, 0.00000000000000000000e+00) (0, 0, 0.00000000000000000000e+00) (0, 0, 0.00000000000000000000e+00) (0, 0, 0.00000000000000000000e+00) (0, 0, 0.00000000000000000000e+00) (0, 0, 0.00000000000000000000e+00) (0, 0, 0.00000000000000000000e+00) (0, 0, 0.00000000000000000000e+00) (0, 0, 0.00000000000000000000e+00) (0, 0, 0.00000000000000000000e+00) (0, 0, 0.00000000000000000000e+00) (0, 0, 0.00000000000000000000e+00) (0, 0, 0.00000000000000000000e+00) (0, 0, 0.00000000000000000000e+00) (0, 0, 0.00000000000000000000e+00) (0, 0, 0.00000000000000000000e+00) (0, 0, 0.00000000000000000000e+00) (0, 0, 0.00000000000000000000e+00) (0, 0, 0.00000000000000000000e+00) (0, 0, 0.00000000000000000000e+00) (0, 0, 0.00000000000000000000e+00) (0, 0, 0.00000000000000000000e+00) (0, 0, 0.00000000000000000000e+00) (0, 0, 0.00000000000000000000e+00) (0, 0, 0.00000000000000000000e+00) (0, 0, 0.00000000000000000000e+00) (0, 0, 0.00000000000000000000e+00) (0, 0, 0.00000000000000000000e+00) (0, 0, 0.00000000000000000000e+00) (0, 0, 0.00000000000000000000e+00) (0, 0, 0.00000000000000000000e+00) (0, 0, 0.00000000000000000000e+00) (0, 0, 0.00000000000000000000e+00) (0, 0, 0.00000000000000000000e+00) (0, 0, 0.00000000000000000000e+00) (0, 0, 0.00000000000000000000e+00) (0, 0, 0.00000000000000000000e+00) (0, 0, 0.00000000000000000000e+00) (0, 0, 0.00000000000000000000e+00) (0, 0, 0.00000000000000000000e+00) (0, 0, 0.00000000000000000000e+00) (0, 0, 0.00000000000000000000e+00) (0, 0, 0.00000000000000000000e+00) (0, 0, 0.00000000000000000000e+00) (0, 0, 0.00000000000000000000e+00) (0, 0, 0.00000000000000000000e+00) (0, 0, 0.00000000000000000000e+00) (0, 0, 0.00000000000000000000e+00) (0, 0, 0.00000000000000000000e+00) (0, 0, 0.00000000000000000000e+00) (0, 0, 0.00000000000000000000e+00) (0, 0, 0.00000000000000000000e+00) (0, 0, 0.00000000000000000000e+00) (0, 0, 0.00000000000000000000e+00) (0, 0, 0.00000000000000000000e+00) (0, 0, 0.00000000000000000000e+00) (0, 0, 0.00000000000000000000e+00) (0, 0, 0.00000000000000000000e+00) (0, 0, 0.00000000000000000000e+00) (0, 0, 0.00000000000000000000e+00) (0, 0, 0.00000000000000000000e+00) (0, 0, 0.00000000000000000000e+00) (0, 0, 0.00000000000000000000e+00) (0, 0, 0.00000000000000000000e+00) (0, 0, 0.00000000000000000000e+00) (0, 0, 0.00000000000000000000e+00) (0, 0, 0.00000000000000000000e+00) (0, 0, 0.00000000000000000000e+00) (0, 0, 0.00000000000000000000e+00) (0, 0, 0.00000000000000000000e+00) (0, 0, 0.00000000000000000000e+00) (0, 0, 0.00000000000000000000e+00) (0, 0, 0.00000000000000000000e+00) (0, 0, 0.00000000000000000000e+00) (0, 0, 0.00000000000000000000e+00) (0, 0, 0.00000000000000000000e+00) (0, 0, 0.00000000000000000000e+00) (0, 0, 0.00000000000000000000e+00) (0, 0, 0.00000000000000000000e+00) (0, 0, 0.00000000000000000000e+00) (0, 0, 0.00000000000000000000e+00) (0, 0, 0.00000000000000000000e+00) (0, 0, 0.00000000000000000000e+00) (0, 0, 0.00000000000000000000e+00) (0, 0, 0.00000000000000000000e+00) (0, 0, 0.00000000000000000000e+00) (0, 0, 0.00000000000000000000e+00) (0, 0, 0.00000000000000000000e+00) (0, 0, 0.00000000000000000000e+00) (0, 0, 0.00000000000000000000e+00) (0, 0, 0.00000000000000000000e+00) (0, 0, 0.00000000000000000000e+00) (0, 0, 0.00000000000000000000e+00) (0, 0, 0.00000000000000000000e+00) (0, 0, 0.00000000000000000000e+00) (0, 0, 0.00000000000000000000e+00) (0, 0, 0.00000000000000000000e+00) (0, 0, 0.00000000000000000000e+00) (0, 0, 0.00000000000000000000e+00) (0, 0, 0.00000000000000000000e+00) (0, 0, 0.00000000000000000000e+00) (0, 0, 0.00000000000000000000e+00) (0, 0, 0.00000000000000000000e+00) (0, 0, 0.00000000000000000000e+00) (0, 0, 0.00000000000000000000e+00) (0, 0, 0.00000000000000000000e+00) (0, 0, 0.00000000000000000000e+00) (0, 0, 0.00000000000000000000e+00) (0, 0, 0.00000000000000000000e+00) (0, 0, 0.00000000000000000000e+00) (0, 0, 0.00000000000000000000e+00) (0, 0, 0.00000000000000000000e+00) (0, 0, 0.00000000000000000000e+00) (0, 0, 0.00000000000000000000e+00) (0, 0, 0.00000000000000000000e+00) (0, 0, 0.00000000000000000000e+00) (0, 0, 0.00000000000000000000e+00) (0, 0, 0.00000000000000000000e+00) (0, 0, 0.00000000000000000000e+00) (0, 0, 0.00000000000000000000e+00) (0, 0, 0.00000000000000000000e+00) (0, 0, 0.00000000000000000000e+00) (0, 0, 0.00000000000000000000e+00) (0, 0, 0.00000000000000000000e+00) (0, 0, 0.00000000000000000000e+00) (0, 0, 0.00000000000000000000e+00) (0, 0, 0.00000000000000000000e+00) (0, 0, 0.00000000000000000000e+00) (0, 0, 0.00000000000000000000e+00) (0, 0, 0.00000000000000000000e+00) (0, 0, 0.00000000000000000000e+00) (0, 0, 0.00000000000000000000e+00) (0, 0, 0.00000000000000000000e+00) (0, 0, 0.00000000000000000000e+00) (0, 0, 0.00000000000000000000e+00) (0, 0, 0.00000000000000000000e+00) (0, 0, 0.00000000000000000000e+00) (0, 0, 0.00000000000000000000e+00) (0, 0, 0.00000000000000000000e+00) (0, 0, 0.00000000000000000000e+00) (0, 0, 0.00000000000000000000e+00) (0, 0, 0.00000000000000000000e+00) (0, 0, 0.00000000000000000000e+00) (0, 0, 0.00000000000000000000e+00) (0, 0, 0.00000000000000000000e+00) (0, 0, 0.00000000000000000000e+00) (0, 0, 0.00000000000000000000e+00) (0, 0, 0.00000000000000000000e+00) (0, 0, 0.00000000000000000000e+00) (0, 0, 0.00000000000000000000e+00) (0, 0, 0.00000000000000000000e+00) (0, 0, 0.00000000000000000000e+00) (0, 0, 0.00000000000000000000e+00) (0, 0, 0.00000000000000000000e+00) (0, 0, 0.00000000000000000000e+00) (0, 0, 0.00000000000000000000e+00) (0, 0, 0.00000000000000000000e+00) (0, 0, 0.00000000000000000000e+00) (0, 0, 0.00000000000000000000e+00) (0, 0, 0.00000000000000000000e+00) (0, 0, 0.00000000000000000000e+00) (0, 0, 0.00000000000000000000e+00) (0, 0, 0.00000000000000000000e+00) (0, 0, 0.00000000000000000000e+00) (0, 0, 0.00000000000000000000e+00) (0, 0, 0.00000000000000000000e+00) (0, 0, 0.00000000000000000000e+00) (0, 0, 0.00000000000000000000e+00) (0, 0, 0.00000000000000000000e+00) (0, 0, 0.00000000000000000000e+00) (0, 0, 0.00000000000000000000e+00) (0, 0, 0.00000000000000000000e+00) (0, 0, 0.00000000000000000000e+00) (0, 0, 0.00000000000000000000e+00) (0, 0, 0.00000000000000000000e+00) (0, 0, 0.00000000000000000000e+00) (0, 0, 0.00000000000000000000e+00) (0, 0, 0.00000000000000000000e+00) (0, 0, 0.00000000000000000000e+00) (0, 0, 0.00000000000000000000e+00) (0, 0, 0.00000000000000000000e+00) (0, 0, 0.00000000000000000000e+00) (0, 0, 0.00000000000000000000e+00) (0, 0, 0.00000000000000000000e+00) (0, 0, 0.00000000000000000000e+00) (0, 0, 0.00000000000000000000e+00) (0, 0, 0.00000000000000000000e+00) (0, 0, 0.00000000000000000000e+00) (0, 0, 0.00000000000000000000e+00) (0, 0, 0.00000000000000000000e+00) (0, 0, 0.00000000000000000000e+00) (0, 0, 0.00000000000000000000e+00) (0, 0, 0.00000000000000000000e+00) (0, 0, 0.00000000000000000000e+00) (0, 0, 0.00000000000000000000e+00) (0, 0, 0.00000000000000000000e+00) (0, 0, 0.00000000000000000000e+00) (0, 0, 0.00000000000000000000e+00) (0, 0, 0.00000000000000000000e+00) (0, 0, 0.00000000000000000000e+00) (0, 0, 0.00000000000000000000e+00) (0, 0, 0.00000000000000000000e+00) (0, 0, 0.00000000000000000000e+00) (0, 0, 0.00000000000000000000e+00) (0, 0, 0.00000000000000000000e+00) (0, 0, 0.00000000000000000000e+00) (0, 0, 0.00000000000000000000e+00) (226, 5, 5.00000000000000000000e-01) (226, 5, 5.00000000000000000000e-01) (226, 5, 5.00000000000000000000e-01) (226, 5, 5.00000000000000000000e-01) (226, 5, 5.00000000000000000000e-01) (226, 5, 5.00000000000000000000e-01) (226, 5, 5.00000000000000000000e-01) (226, 5, 5.00000000000000000000e-01) (226, 5, 5.00000000000000000000e-01) (226, 5, 5.00000000000000000000e-01) (226, 5, 5.00000000000000000000e-01) (226, 5, 5.00000000000000000000e-01) (226, 5, 5.00000000000000000000e-01) (226, 5, 5.00000000000000000000e-01) (226, 5, 5.00000000000000000000e-01) (226, 5, 5.00000000000000000000e-01) (226, 5, 5.00000000000000000000e-01) (226, 5, 5.00000000000000000000e-01) (226, 5, 5.00000000000000000000e-01) (226, 5, 5.00000000000000000000e-01) (226, 5, 5.00000000000000000000e-01) (226, 5, 5.00000000000000000000e-01) (226, 5, 5.00000000000000000000e-01) (226, 5, 5.00000000000000000000e-01) (226, 5, 5.00000000000000000000e-01) (226, 5, 5.00000000000000000000e-01) (226, 5, 5.00000000000000000000e-01) (226, 5, 5.00000000000000000000e-01) (226, 5, 5.00000000000000000000e-01) (226, 5, 5.00000000000000000000e-01) (226, 5, 5.00000000000000000000e-01) (226, 5, 5.00000000000000000000e-01) (226, 5, 5.00000000000000000000e-01) (226, 5, 5.00000000000000000000e-01) (226, 5, 5.00000000000000000000e-01) (226, 5, 5.00000000000000000000e-01) (226, 5, 5.00000000000000000000e-01) (226, 5, 5.00000000000000000000e-01) (226, 5, 5.00000000000000000000e-01) (226, 5, 5.00000000000000000000e-01) (226, 5, 5.00000000000000000000e-01) (226, 5, 5.00000000000000000000e-01) (226, 5, 5.00000000000000000000e-01) (226, 5, 5.00000000000000000000e-01) (226, 5, 5.00000000000000000000e-01) (226, 5, 5.00000000000000000000e-01) (226, 5, 5.00000000000000000000e-01) (226, 5, 5.00000000000000000000e-01) (226, 5, 5.00000000000000000000e-01) (226, 5, 5.00000000000000000000e-01) (0, 5, 0.00000000000000000000e+00) (51, 5, 5.00000000000000000000e-01) (51, 5, 5.00000000000000000000e-01) (51, 5, 5.00000000000000000000e-01) (51, 5, 5.00000000000000000000e-01) (51, 5, 5.00000000000000000000e-01) (51, 5, 5.00000000000000000000e-01) (51, 5, 5.00000000000000000000e-01) (51, 5, 5.00000000000000000000e-01) (51, 5, 5.00000000000000000000e-01) (51, 5, 5.00000000000000000000e-01) (51, 5, 5.00000000000000000000e-01) (51, 5, 5.00000000000000000000e-01) (51, 5, 5.00000000000000000000e-01) (51, 5, 5.00000000000000000000e-01) (51, 5, 5.00000000000000000000e-01) (51, 5, 5.00000000000000000000e-01) (51, 5, 5.00000000000000000000e-01) (51, 5, 5.00000000000000000000e-01) (51, 5, 5.00000000000000000000e-01) (51, 5, 5.00000000000000000000e-01) (51, 5, 5.00000000000000000000e-01) (51, 5, 5.00000000000000000000e-01) (51, 5, 5.00000000000000000000e-01) (51, 5, 5.00000000000000000000e-01) (51, 5, 5.00000000000000000000e-01) (51, 5, 5.00000000000000000000e-01) (51, 5, 5.00000000000000000000e-01) (51, 5, 5.00000000000000000000e-01) (51, 5, 5.00000000000000000000e-01) (51, 5, 5.00000000000000000000e-01) (51, 5, 5.00000000000000000000e-01) (51, 5, 5.00000000000000000000e-01) (51, 5, 5.00000000000000000000e-01) (51, 5, 5.00000000000000000000e-01) (51, 5, 5.00000000000000000000e-01) (51, 5, 5.00000000000000000000e-01) (51, 5, 5.00000000000000000000e-01) (51, 5, 5.00000000000000000000e-01) (51, 5, 5.00000000000000000000e-01) (51, 5, 5.00000000000000000000e-01) (51, 5, 5.00000000000000000000e-01) (51, 5, 5.00000000000000000000e-01) (51, 5, 5.00000000000000000000e-01) (51, 5, 5.00000000000000000000e-01) (51, 5, 5.00000000000000000000e-01) (51, 5, 5.00000000000000000000e-01) (51, 5, 5.00000000000000000000e-01) (51, 5, 5.00000000000000000000e-01) (51, 5, 5.00000000000000000000e-01) (51, 5, 5.00000000000000000000e-01) (0, 5, 0.00000000000000000000e+00) (51, 5, 5.00000000000000000000e-01) (51, 5, 5.00000000000000000000e-01) (51, 5, 5.00000000000000000000e-01) (51, 5, 5.00000000000000000000e-01) (51, 5, 5.00000000000000000000e-01) (51, 5, 5.00000000000000000000e-01) (51, 5, 5.00000000000000000000e-01) (51, 5, 5.00000000000000000000e-01) (51, 5, 5.00000000000000000000e-01) (51, 5, 5.00000000000000000000e-01) (51, 5, 5.00000000000000000000e-01) (51, 5, 5.00000000000000000000e-01) (51, 5, 5.00000000000000000000e-01) (51, 5, 5.00000000000000000000e-01) (51, 5, 5.00000000000000000000e-01) (51, 5, 5.00000000000000000000e-01) (51, 5, 5.00000000000000000000e-01) (51, 5, 5.00000000000000000000e-01) (51, 5, 5.00000000000000000000e-01) (51, 5, 5.00000000000000000000e-01) (51, 5, 5.00000000000000000000e-01) (51, 5, 5.00000000000000000000e-01) (51, 5, 5.00000000000000000000e-01) (51, 5, 5.00000000000000000000e-01) (51, 5, 5.00000000000000000000e-01) (51, 5, 5.00000000000000000000e-01) (51, 5, 5.00000000000000000000e-01) (51, 5, 5.00000000000000000000e-01) (51, 5, 5.00000000000000000000e-01) (51, 5, 5.00000000000000000000e-01) (51, 5, 5.00000000000000000000e-01) (51, 5, 5.00000000000000000000e-01) (51, 5, 5.00000000000000000000e-01) (51, 5, 5.00000000000000000000e-01) (51, 5, 5.00000000000000000000e-01) (51, 5, 5.00000000000000000000e-01) (51, 5, 5.00000000000000000000e-01) (51, 5, 5.00000000000000000000e-01) (51, 5, 5.00000000000000000000e-01) (51, 5, 5.00000000000000000000e-01) (51, 5, 5.00000000000000000000e-01) (51, 5, 5.00000000000000000000e-01) (51, 5, 5.00000000000000000000e-01) (51, 5, 5.00000000000000000000e-01) (51, 5, 5.00000000000000000000e-01) (51, 5, 5.00000000000000000000e-01) (51, 5, 5.00000000000000000000e-01) (51, 5, 5.00000000000000000000e-01) (51, 5, 5.00000000000000000000e-01) (51, 5, 5.00000000000000000000e-01) (51, 5, 5.00000000000000000000e-01) (51, 5, 5.00000000000000000000e-01) (51, 5, 5.00000000000000000000e-01) (51, 5, 5.00000000000000000000e-01) (51, 5, 5.00000000000000000000e-01) (51, 5, 5.00000000000000000000e-01) (51, 5, 5.00000000000000000000e-01) (51, 5, 5.00000000000000000000e-01) (51, 5, 5.00000000000000000000e-01) (51, 5, 5.00000000000000000000e-01) (51, 5, 5.00000000000000000000e-01) (51, 5, 5.00000000000000000000e-01) (51, 5, 5.00000000000000000000e-01) (51, 5, 5.00000000000000000000e-01) (51, 5, 5.00000000000000000000e-01) (51, 5, 5.00000000000000000000e-01) (51, 5, 5.00000000000000000000e-01) (51, 5, 5.00000000000000000000e-01) (51, 5, 5.00000000000000000000e-01) (51, 5, 5.00000000000000000000e-01) (51, 5, 5.00000000000000000000e-01) (51, 5, 5.00000000000000000000e-01) (51, 5, 5.00000000000000000000e-01) (51, 5, 5.00000000000000000000e-01) (51, 5, 5.00000000000000000000e-01) (51, 5, 5.00000000000000000000e-01) (51, 5, 5.00000000000000000000e-01) (51, 5, 5.00000000000000000000e-01) (51, 5, 5.00000000000000000000e-01) (51, 5, 5.00000000000000000000e-01) (51, 5, 5.00000000000000000000e-01) (51, 5, 5.00000000000000000000e-01) (51, 5, 5.00000000000000000000e-01) (51, 5, 5.00000000000000000000e-01) (51, 5, 5.00000000000000000000e-01) (51, 5, 5.00000000000000000000e-01) (51, 5, 5.00000000000000000000e-01) (51, 5, 5.00000000000000000000e-01) (51, 5, 5.00000000000000000000e-01) (51, 5, 5.00000000000000000000e-01) (51, 5, 5.00000000000000000000e-01) (51, 5, 5.00000000000000000000e-01) (51, 5, 5.00000000000000000000e-01) (51, 5, 5.00000000000000000000e-01) (0, 5, 0.00000000000000000000e+00) 
connections (connected_to_neuron, weight)=(0, -8.11650380492210388184e-02) (1, -1.19486354291439056396e-01) (2, -3.09761017560958862305e-01) (3, -4.35685962438583374023e-01) (4, -1.04703746736049652100e-01) (5, -1.42894580960273742676e-01) (6, -3.17111521959304809570e-01) (7, -2.62722760438919067383e-01) (8, -8.05113185197114944458e-03) (9, -2.62646883726119995117e-01) (10, -1.41992256045341491699e-01) (11, -1.68297365307807922363e-02) (12, 4.61217075586318969727e-01) (13, 6.52484297752380371094e-01) (14, 3.34451466798782348633e-01) (15, -1.30094602704048156738e-01) (16, -6.90312981605529785156e-01) (17, -1.76149114966392517090e-01) (18, -6.50379538536071777344e-01) (19, -3.39941352605819702148e-01) (20, 1.22046969830989837646e-01) (21, -3.98321822285652160645e-02) (22, -5.99168896675109863281e-01) (23, -6.88976287841796875000e-01) (24, 1.54953524470329284668e-01) (25, 6.70277401804924011230e-02) (26, 3.10230012983083724976e-02) (27, 4.16871041059494018555e-01) (28, 3.60621303319931030273e-01) (29, 4.17836695909500122070e-01) (30, 7.41811871528625488281e-01) (31, -5.30776619911193847656e-01) (32, -8.40177610516548156738e-02) (33, 9.89147648215293884277e-02) (34, -2.71004587411880493164e-01) (35, -9.81479212641716003418e-02) (36, -1.48340478539466857910e-01) (37, 4.67821136116981506348e-02) (38, -2.12469950318336486816e-01) (39, 6.07088729739189147949e-02) (40, 4.01160031557083129883e-01) (41, 1.91003933548927307129e-01) (42, 4.90238517522811889648e-01) (43, -1.87319926917552947998e-02) (44, -3.32754626870155334473e-02) (45, -7.77699872851371765137e-02) (46, -2.67304152250289916992e-01) (47, -4.40214663743972778320e-01) (48, -1.30953088402748107910e-01) (49, -1.98066666722297668457e-01) (50, -2.19564303755760192871e-01) (51, -1.94948837161064147949e-01) (52, -4.14957731962203979492e-01) (53, 9.37296971678733825684e-02) (54, 3.07303816080093383789e-01) (55, 2.17719718813896179199e-01) (56, 1.89695164561271667480e-01) (57, -1.18449721485376358032e-02) (58, -7.93178156018257141113e-02) (59, -4.61223751306533813477e-01) (60, -4.66855973005294799805e-01) (61, 4.01460612192749977112e-03) (62, -4.02162343263626098633e-01) (63, -2.59618073701858520508e-01) (64, 1.62552967667579650879e-02) (65, -3.13794583082199096680e-01) (66, -5.78859567642211914062e-01) (67, -5.45415878295898437500e-01) (68, -2.59530037641525268555e-01) (69, 4.97192829847335815430e-01) (70, -2.39687114953994750977e-02) (71, 2.57353872060775756836e-01) (72, 3.08471471071243286133e-01) (73, -4.42643970251083374023e-01) (74, 9.85537245869636535645e-02) (75, -1.34822770953178405762e-01) (76, -3.91241818666458129883e-01) (77, 6.14335983991622924805e-02) (78, 3.58958750963211059570e-01) (79, 1.32282339036464691162e-02) (80, -2.79569417238235473633e-01) (81, -4.12327259778976440430e-01) (82, -2.91934639215469360352e-01) (83, -4.67995181679725646973e-02) (84, -1.74721032381057739258e-02) (85, -2.55239933729171752930e-01) (86, -4.40760403871536254883e-01) (87, 5.45450687408447265625e-01) (88, 3.98731883615255355835e-03) (89, 3.96596819162368774414e-01) (90, -3.92466560006141662598e-02) (91, 1.61010369658470153809e-01) (92, 1.05309955775737762451e-01) (93, 2.36657693982124328613e-01) (94, 3.66827875375747680664e-01) (95, -4.49423819780349731445e-01) (96, -1.98982849717140197754e-01) (97, -5.77101111412048339844e-01) (98, -6.31875514984130859375e-01) (99, 1.09776638448238372803e-01) (100, 1.64423808455467224121e-01) (101, -9.58379358053207397461e-03) (102, -9.96578857302665710449e-02) (103, 1.39017418026924133301e-01) (104, -5.52106499671936035156e-02) (105, 5.72174668312072753906e-01) (106, -1.07837997376918792725e-01) (107, -4.55170184373855590820e-01) (108, 4.52439218759536743164e-01) (109, 1.43481269478797912598e-01) (110, -5.24880766868591308594e-01) (111, -1.91317334771156311035e-01) (112, -6.53530597686767578125e-01) (113, -4.13108259439468383789e-01) (114, 2.50376611948013305664e-01) (115, -5.11087849736213684082e-02) (116, -5.55473705753684043884e-03) (117, 9.64609757065773010254e-02) (118, 2.20951721072196960449e-01) (119, -1.78034901618957519531e-02) (120, 6.27491593360900878906e-01) (121, 3.88612836599349975586e-01) (122, -5.16619801521301269531e-01) (123, 4.51921850442886352539e-01) (124, 3.78951430320739746094e-02) (125, -1.85518279671669006348e-01) (126, -3.36076766252517700195e-01) (127, -1.26358047127723693848e-01) (128, -2.10607156157493591309e-01) (129, 2.39723488688468933105e-01) (130, 1.44202634692192077637e-01) (131, -2.16560885310173034668e-01) (132, -9.50028225779533386230e-02) (133, -9.92140993475914001465e-02) (134, -3.88841837644577026367e-01) (135, 4.06863063573837280273e-01) (136, 2.23081424832344055176e-01) (137, 4.00829106569290161133e-01) (138, 1.78129747509956359863e-01) (139, 3.71906191110610961914e-01) (140, 2.24512025713920593262e-01) (141, -2.06266716122627258301e-01) (142, 6.78021833300590515137e-02) (143, -1.45014509558677673340e-01) (144, -1.90698608756065368652e-01) (145, -4.93593290448188781738e-02) (146, -2.60472744703292846680e-01) (147, -1.34652838110923767090e-01) (148, 4.96380776166915893555e-01) (149, -2.16449066996574401855e-01) (150, -1.99819311499595642090e-01) (151, 1.87277004122734069824e-01) (152, -4.86489623785018920898e-01) (153, -5.45485764741897583008e-02) (154, 2.69618421792984008789e-01) (155, 4.95067387819290161133e-02) (156, 2.30543449521064758301e-01) (157, -1.48563817143440246582e-01) (158, 1.02359734475612640381e-01) (159, -3.30532521009445190430e-01) (160, 3.70452948845922946930e-03) (161, -1.29704579710960388184e-01) (162, 5.91629743576049804688e-01) (163, 1.16682924330234527588e-01) (164, 1.50637909770011901855e-01) (165, -2.33122125267982482910e-01) (166, -5.19082069396972656250e-01) (167, 1.36586483567953109741e-02) (168, -2.48498842120170593262e-02) (169, 3.40646654367446899414e-01) (170, 5.15976995229721069336e-02) (171, 1.92830488085746765137e-01) (172, 4.39495116472244262695e-01) (173, 3.64498764276504516602e-01) (174, 2.34211638569831848145e-01) (175, 1.31401702761650085449e-01) (176, 1.94929108023643493652e-01) (177, 2.43962809443473815918e-01) (178, 3.62719386816024780273e-01) (179, 1.94194130599498748779e-02) (180, -9.23353061079978942871e-02) (181, -1.07770420610904693604e-01) (182, -5.37384986877441406250e-01) (183, -3.71473520994186401367e-01) (184, -3.34761470556259155273e-01) (185, 2.42088362574577331543e-01) (186, 8.98385286331176757812e-01) (187, 8.80871936678886413574e-02) (188, 5.20563006401062011719e-01) (189, 1.91378369927406311035e-01) (190, 2.93600469827651977539e-01) (191, -9.18614044785499572754e-02) (192, 4.12811130285263061523e-01) (193, 1.16725839674472808838e-01) (194, 4.73355084657669067383e-01) (195, 7.96804800629615783691e-02) (196, -1.59685745835304260254e-01) (197, 5.68299144506454467773e-02) (198, 4.61084321141242980957e-02) (199, -1.14175207912921905518e-01) (200, 6.52848407626152038574e-02) (201, 5.38147464394569396973e-02) (202, 1.45821586251258850098e-01) (203, 2.61328786611557006836e-01) (204, 9.55012068152427673340e-02) (205, -2.31417152099311351776e-03) (206, 2.51325398683547973633e-01) (207, 3.39522868394851684570e-01) (208, 1.99697464704513549805e-02) (209, 4.55325752496719360352e-01) (210, -1.93676486611366271973e-01) (211, 3.33858802914619445801e-02) (212, 6.50012269616127014160e-02) (213, -1.39603868126869201660e-01) (214, -6.01405948400497436523e-02) (215, -2.72823899984359741211e-01) (216, 2.29543700814247131348e-01) (217, 4.59666401147842407227e-02) (218, 4.38930243253707885742e-02) (219, -1.43013224005699157715e-01) (220, 3.55994254350662231445e-01) (221, 3.49312812089920043945e-01) (222, 3.42837274074554443359e-02) (223, -1.63471296429634094238e-01) (224, 3.56444209814071655273e-01) (225, -1.95077610015869140625e+00) (0, 3.55500191450119018555e-01) (1, 4.04451280832290649414e-01) (2, 1.63546308875083923340e-01) (3, -3.13689559698104858398e-01) (4, 1.08642458915710449219e-01) (5, -1.84582129120826721191e-01) (6, -1.12312763929367065430e-01) (7, -2.80864268541336059570e-01) (8, 3.57846587896347045898e-01) (9, -9.36800241470336914062e-02) (10, 1.21181815862655639648e-01) (11, 1.15472406148910522461e-01) (12, -1.22941344976425170898e-01) (13, 3.96124631166458129883e-01) (14, 2.50310420989990234375e-01) (15, 2.43160858750343322754e-01) (16, 2.25619748234748840332e-02) (17, 6.31198845803737640381e-03) (18, -1.39908924698829650879e-01) (19, -1.94517269730567932129e-01) (20, 1.34831117466092109680e-02) (21, 1.27678826451301574707e-01) (22, -3.14507454633712768555e-01) (23, 8.34316313266754150391e-02) (24, -1.42625465989112854004e-01) (25, 1.38269430026412010193e-02) (26, 3.55536431074142456055e-01) (27, 3.28552573919296264648e-01) (28, 6.16773307323455810547e-01) (29, 1.94400086998939514160e-01) (30, 4.18116122484207153320e-01) (31, -1.11248537898063659668e-01) (32, -3.97355966269969940186e-02) (33, -2.08180531859397888184e-01) (34, -3.15885037183761596680e-01) (35, -6.24153077602386474609e-01) (36, -2.26076677441596984863e-01) (37, -2.75380283594131469727e-01) (38, 9.83603745698928833008e-02) (39, -4.06350307166576385498e-02) (40, -3.82863253355026245117e-01) (41, 3.03025335073471069336e-01) (42, 3.78731817007064819336e-01) (43, 7.22179591655731201172e-01) (44, -4.17585633695125579834e-02) (45, -1.06361687183380126953e-01) (46, 1.24746328219771385193e-02) (47, -5.90443432331085205078e-01) (48, 4.06225956976413726807e-02) (49, -2.22220793366432189941e-01) (50, 2.09584017284214496613e-03) (51, -1.00949376821517944336e-01) (52, -3.27091604471206665039e-01) (53, 1.48095533251762390137e-01) (54, -2.15427473187446594238e-01) (55, -2.52690762281417846680e-02) (56, -3.92866991460323333740e-02) (57, -9.96211171150207519531e-02) (58, -2.08011105656623840332e-01) (59, -4.53269988298416137695e-01) (60, -2.56998509168624877930e-01) (61, -5.76901398599147796631e-02) (62, 4.56147044897079467773e-01) (63, 1.24262094497680664062e-01) (64, 8.85131061077117919922e-02) (65, 1.30862131714820861816e-01) (66, 1.33369311690330505371e-01) (67, -2.54806071519851684570e-01) (68, -1.41667768359184265137e-01) (69, -1.89154073596000671387e-01) (70, -9.26002413034439086914e-02) (71, -6.98494613170623779297e-02) (72, -8.98844897747039794922e-02) (73, -2.76621013879776000977e-01) (74, -3.51101726293563842773e-01) (75, 5.02270124852657318115e-02) (76, 2.75290459394454956055e-01) (77, 3.32446426153182983398e-01) (78, 2.15353474020957946777e-01) (79, 2.64920800924301147461e-01) (80, 4.15154427289962768555e-01) (81, 3.99476379156112670898e-01) (82, -3.78225237131118774414e-01) (83, -8.46995115280151367188e-02) (84, 5.41058890521526336670e-02) (85, 1.41580954194068908691e-01) (86, 2.52154976129531860352e-01) (87, -2.52442866563796997070e-01) (88, -1.28055199980735778809e-01) (89, -3.22222784161567687988e-02) (90, -5.87052814662456512451e-02) (91, 2.90477365255355834961e-01) (92, 3.34873288869857788086e-01) (93, 1.15809845738112926483e-03) (94, 1.32659217342734336853e-02) (95, 6.52944743633270263672e-02) (96, -1.02134540677070617676e-01) (97, -2.08144471049308776855e-01) (98, -2.13929548859596252441e-01) (99, 7.75561034679412841797e-02) (100, 3.75938266515731811523e-01) (101, -4.55063842236995697021e-02) (102, -3.42866986989974975586e-01) (103, 6.79242163896560668945e-02) (104, 2.71862596273422241211e-01) (105, 2.19836041331291198730e-01) (106, 2.81080216169357299805e-01) (107, -3.14575344324111938477e-01) (108, -5.56069672107696533203e-01) (109, -1.59594528377056121826e-02) (110, 5.42619526386260986328e-01) (111, 7.28298425674438476562e-02) (112, 5.57339973747730255127e-02) (113, 1.46316841244697570801e-01) (114, -9.62106883525848388672e-02) (115, 9.81821957975625991821e-03) (116, -2.47362568974494934082e-01) (117, 1.35269299149513244629e-01) (118, -1.07686311006546020508e-01) (119, 8.83586257696151733398e-02) (120, -1.46299824118614196777e-01) (121, -1.74079343676567077637e-01) (122, -2.43729993700981140137e-01) (123, -3.59501391649246215820e-01) (124, -3.57128411531448364258e-01) (125, -1.93366870284080505371e-01) (126, -5.66288493573665618896e-02) (127, 1.89906522631645202637e-01) (128, -1.33939728140830993652e-01) (129, 1.57265341840684413910e-03) (130, 2.62847930192947387695e-01) (131, 6.85505270957946777344e-02) (132, 2.58248776197433471680e-01) (133, -2.54719883203506469727e-01) (134, 3.24839204549789428711e-01) (135, -3.53883057832717895508e-01) (136, 7.51099437475204467773e-02) (137, -4.80572022497653961182e-02) (138, -4.00687187910079956055e-01) (139, -1.71849593520164489746e-01) (140, -1.69887974858283996582e-01) (141, -1.02542906999588012695e-01) (142, 7.49271810054779052734e-02) (143, 2.12304159998893737793e-01) (144, 5.91249018907546997070e-03) (145, 1.57692655920982360840e-01) (146, 7.18083381652832031250e-02) (147, 4.53135877847671508789e-01) (148, 2.72189453244209289551e-02) (149, 1.12321749329566955566e-01) (150, 7.37452926114201545715e-03) (151, -2.12718732655048370361e-02) (152, -3.03253307938575744629e-02) (153, -3.74677449464797973633e-01) (154, -3.93598467111587524414e-01) (155, -4.68877643346786499023e-01) (156, -8.13480746001005172729e-03) (157, 2.61262357234954833984e-02) (158, -5.76891563832759857178e-02) (159, -6.28616660833358764648e-02) (160, -4.05989974737167358398e-01) (161, -4.50164645910263061523e-01) (162, 1.15593358874320983887e-01) (163, 1.19456335902214050293e-01) (164, -7.49963801354169845581e-03) (165, -9.35461223125457763672e-02) (166, 2.04285755753517150879e-01) (167, -4.88047927618026733398e-01) (168, 1.26361772418022155762e-01) (169, 5.23772180080413818359e-01) (170, 1.20835170149803161621e-01) (171, -2.66736537218093872070e-01) (172, 2.07021668553352355957e-01) (173, 2.97016531229019165039e-01) (174, -1.74610361456871032715e-01) (175, -1.60645499825477600098e-01) (176, 2.75574475526809692383e-02) (177, -9.82618778944015502930e-02) (178, 1.17148160934448242188e-01) (179, -1.85664787888526916504e-01) (180, 9.95760504156351089478e-03) (181, 1.35382577776908874512e-01) (182, 2.97407299280166625977e-01) (183, 4.01592642068862915039e-01) (184, 4.71380084753036499023e-01) (185, 4.83638554811477661133e-01) (186, 2.39966049790382385254e-01) (187, 4.72040381282567977905e-03) (188, -4.05873566865921020508e-01) (189, -1.95927396416664123535e-01) (190, -2.64811664819717407227e-02) (191, 1.10195830464363098145e-01) (192, -4.33647865429520606995e-03) (193, -3.21452707052230834961e-01) (194, -2.59101003408432006836e-01) (195, -1.53292909264564514160e-01) (196, 3.67492526769638061523e-01) (197, 1.03150099515914916992e-01) (198, 1.59203484654426574707e-01) (199, 2.24586144089698791504e-01) (200, 4.06821161508560180664e-01) (201, 2.18213573098182678223e-01) (202, 6.93324804306030273438e-02) (203, -9.45171266794204711914e-02) (204, -2.99229830503463745117e-01) (205, 2.30368450284004211426e-01) (206, 3.93247511237859725952e-03) (207, -4.62471157312393188477e-01) (208, -5.61036884784698486328e-01) (209, -4.28927928209304809570e-01) (210, 2.55461841821670532227e-01) (211, 2.42762878537178039551e-01) (212, -1.48564711213111877441e-01) (213, 1.66510835289955139160e-01) (214, -2.30429694056510925293e-01) (215, -1.28217739984393119812e-03) (216, 3.41857224702835083008e-01) (217, 7.22216427326202392578e-01) (218, 6.33658707141876220703e-01) (219, 4.13657516241073608398e-01) (220, 2.40142360329627990723e-01) (221, -4.83659915626049041748e-02) (222, -4.32180792093276977539e-01) (223, -1.01052927970886230469e+00) (224, -7.69198715686798095703e-01) (225, 1.37275740504264831543e-01) (0, 2.15043857693672180176e-01) (1, -3.81823182106018066406e-02) (2, -4.18277606368064880371e-02) (3, 4.65860873460769653320e-01) (4, -2.62559503316879272461e-01) (5, -3.00926893949508666992e-01) (6, 4.38537746667861938477e-01) (7, -2.21410557627677917480e-01) (8, -5.59421837329864501953e-01) (9, -2.49688029289245605469e-01) (10, 6.29406198859214782715e-02) (11, -4.19925078749656677246e-02) (12, -1.36868551373481750488e-01) (13, 1.49686625227332115173e-02) (14, 3.39990645647048950195e-01) (15, 4.59060341119766235352e-01) (16, 5.25372087955474853516e-01) (17, 2.99933642148971557617e-01) (18, -9.46878343820571899414e-02) (19, -8.21561217308044433594e-02) (20, 1.39655962586402893066e-01) (21, -3.97895187139511108398e-01) (22, -6.70485079288482666016e-01) (23, 7.05983191728591918945e-02) (24, -2.05189898610115051270e-01) (25, -1.35390564799308776855e-01) (26, -2.03515514731407165527e-01) (27, 4.78449791669845581055e-01) (28, -3.21704953908920288086e-01) (29, -4.88730639219284057617e-01) (30, -7.51293361186981201172e-01) (31, 7.13594019412994384766e-01) (32, -2.92312294244766235352e-01) (33, -7.83858954906463623047e-01) (34, -8.60300213098526000977e-02) (35, 9.38228913582861423492e-04) (36, -1.97875484824180603027e-01) (37, -5.86546659469604492188e-02) (38, -1.96935489773750305176e-01) (39, -2.95807749032974243164e-01) (40, -5.16790330410003662109e-01) (41, -3.82479518651962280273e-01) (42, -1.79144367575645446777e-01) (43, -4.87522333860397338867e-01) (44, -2.24406018853187561035e-01) (45, -2.37802460789680480957e-01) (46, -4.57911938428878784180e-01) (47, -2.73397296667098999023e-01) (48, 5.08840382099151611328e-01) (49, -3.10247212648391723633e-01) (50, -2.73777395486831665039e-01) (51, -2.64125198125839233398e-01) (52, -3.48455220460891723633e-01) (53, 2.35175993293523788452e-02) (54, -7.10745036602020263672e-01) (55, -3.35419625043869018555e-01) (56, -6.07697069644927978516e-01) (57, 2.67362862825393676758e-01) (58, 3.89093726873397827148e-01) (59, 5.62554597854614257812e-02) (60, 2.63625960797071456909e-02) (61, -4.47420507669448852539e-01) (62, 6.81123733520507812500e-02) (63, -3.36005777120590209961e-01) (64, 3.65258425474166870117e-01) (65, -7.70987689495086669922e-01) (66, 3.65771681070327758789e-01) (67, -5.03956526517868041992e-02) (68, -2.22610667347908020020e-01) (69, -5.63313543796539306641e-01) (70, -4.21164721250534057617e-01) (71, -7.49805271625518798828e-01) (72, -8.62818777561187744141e-01) (73, 1.75752546638250350952e-02) (74, -5.96547901630401611328e-01) (75, -2.18608751893043518066e-01) (76, 2.17209801077842712402e-01) (77, 1.20136206969618797302e-02) (78, -2.86220580339431762695e-01) (79, -1.59352406859397888184e-01) (80, 2.50289469957351684570e-01) (81, 6.04658424854278564453e-01) (82, 5.38236796855926513672e-01) (83, 4.17899698019027709961e-01) (84, 1.09514281153678894043e-01) (85, 5.19481836818158626556e-04) (86, -4.99375045299530029297e-01) (87, -4.43217962980270385742e-01) (88, 1.95586774498224258423e-02) (89, -2.85801023244857788086e-01) (90, 3.12974601984024047852e-01) (91, 4.76375520229339599609e-02) (92, -3.10772091150283813477e-01) (93, -4.71381396055221557617e-01) (94, -1.86769321560859680176e-01) (95, -3.71403247117996215820e-01) (96, 7.11951255798339843750e-02) (97, 3.44078153371810913086e-01) (98, -1.53561815619468688965e-01) (99, -2.65405088663101196289e-01) (100, -7.71774500608444213867e-02) (101, -2.82185763120651245117e-01) (102, 3.77278425730764865875e-03) (103, -1.72175601124763488770e-01) (104, -4.96925026178359985352e-01) (105, 1.25402286648750305176e-01) (106, 3.32616776227951049805e-01) (107, 1.08825832605361938477e-01) (108, -2.19045743346214294434e-01) (109, -2.26173594594001770020e-01) (110, 2.32177838683128356934e-01) (111, -4.82210546731948852539e-01) (112, -1.74139514565467834473e-01) (113, -1.23704686760902404785e-01) (114, -2.98767775297164916992e-01) (115, 8.97559970617294311523e-02) (116, -3.70476469397544860840e-02) (117, -1.72264024615287780762e-01) (118, -7.54693299531936645508e-02) (119, 2.06793770194053649902e-01) (120, -3.48304361104965209961e-01) (121, 1.50817021727561950684e-01) (122, -1.36953249573707580566e-01) (123, -3.91427010297775268555e-01) (124, -2.29789867997169494629e-01) (125, -3.99213165044784545898e-01) (126, -1.24542051926255226135e-02) (127, 1.93150743842124938965e-01) (128, 6.54710978269577026367e-02) (129, 1.74584593623876571655e-02) (130, 5.09037435054779052734e-01) (131, 4.20672088861465454102e-01) (132, 2.70877808332443237305e-01) (133, 8.01663577556610107422e-01) (134, 3.11346441507339477539e-01) (135, -5.11171162128448486328e-01) (136, 2.30779275298118591309e-01) (137, -5.43597042560577392578e-01) (138, 2.27693989872932434082e-01) (139, -4.69407469034194946289e-01) (140, -4.35664281249046325684e-02) (141, -3.84234696626663208008e-01) (142, 5.62794059514999389648e-02) (143, 4.60632950067520141602e-01) (144, 1.68525483459234237671e-02) (145, 5.97821652889251708984e-01) (146, -4.00487452745437622070e-01) (147, 5.36392390727996826172e-01) (148, 4.24953922629356384277e-02) (149, 8.08342546224594116211e-02) (150, -1.80984541773796081543e-01) (151, -3.86162489652633666992e-01) (152, -2.78156489133834838867e-01) (153, -2.01498791575431823730e-01) (154, 1.39971867203712463379e-01) (155, -1.96652695536613464355e-01) (156, -9.23686940222978591919e-03) (157, 1.75203755497932434082e-01) (158, 6.26780912280082702637e-02) (159, 4.91734772920608520508e-01) (160, 1.60407170653343200684e-01) (161, -1.02930918335914611816e-01) (162, -4.11746650934219360352e-01) (163, -1.45432785153388977051e-01) (164, -2.21830740571022033691e-01) (165, 6.25280737876892089844e-02) (166, 1.23220801353454589844e-01) (167, 1.83669105172157287598e-01) (168, 1.29894837737083435059e-01) (169, 1.08070924878120422363e-01) (170, -1.77183195948600769043e-01) (171, -3.62950652837753295898e-01) (172, 6.20304755866527557373e-02) (173, 3.32497805356979370117e-01) (174, -1.88810035586357116699e-01) (175, 1.44583180546760559082e-01) (176, 3.61009091138839721680e-02) (177, -5.03356039524078369141e-01) (178, -1.19606435298919677734e-01) (179, 1.37074841186404228210e-02) (180, 2.30679765343666076660e-01) (181, 1.31162151694297790527e-01) (182, 1.66181668639183044434e-01) (183, -4.52002137899398803711e-01) (184, 2.99726933240890502930e-01) (185, 2.08005961030721664429e-02) (186, -5.30498027801513671875e-02) (187, 1.77231922745704650879e-01) (188, 2.43053302168846130371e-01) (189, 1.50095537304878234863e-01) (190, -1.47491648793220520020e-01) (191, -3.01120132207870483398e-01) (192, 3.15927892923355102539e-01) (193, 1.95417359471321105957e-01) (194, -5.17314150929450988770e-02) (195, 8.88636857271194458008e-02) (196, -6.09514936804771423340e-02) (197, -3.75402301549911499023e-01) (198, 3.01623195409774780273e-01) (199, 1.67568072676658630371e-01) (200, -3.64681184291839599609e-02) (201, 4.31230992078781127930e-01) (202, 1.13473847508430480957e-01) (203, 6.08403742313385009766e-01) (204, -1.10681280493736267090e-01) (205, 1.48935124278068542480e-01) (206, -1.11615851521492004395e-01) (207, 4.35570150613784790039e-01) (208, 2.35935464501380920410e-01) (209, -1.63704290986061096191e-01) (210, 2.98761516809463500977e-01) (211, 2.45642617344856262207e-01) (212, 1.83410450816154479980e-01) (213, 3.20475846529006958008e-02) (214, 1.73584744334220886230e-01) (215, 1.52900412678718566895e-01) (216, 4.95263487100601196289e-01) (217, 3.04873794317245483398e-01) (218, 2.22435127943754196167e-02) (219, 9.20986533164978027344e-02) (220, 6.21995218098163604736e-02) (221, 1.95421531796455383301e-01) (222, -2.29813709855079650879e-01) (223, -1.85843303799629211426e-01) (224, -3.97551745176315307617e-01) (225, 1.20757424831390380859e+00) (0, 1.84422165155410766602e-01) (1, 1.06015674769878387451e-01) (2, -3.55078168213367462158e-02) (3, 1.64154440164566040039e-01) (4, 1.98354452848434448242e-01) (5, 1.95288151502609252930e-01) (6, 2.46427297592163085938e-01) (7, 1.80990785360336303711e-01) (8, 1.33380806073546409607e-02) (9, 2.43346411734819412231e-02) (10, -1.94364070892333984375e-01) (11, 2.67746988683938980103e-02) (12, 1.11209593713283538818e-01) (13, -8.23227241635322570801e-02) (14, 2.38318741321563720703e-01) (15, 2.34451442956924438477e-01) (16, 1.42837703227996826172e-01) (17, 6.45330622792243957520e-02) (18, -2.03530788421630859375e-01) (19, -2.84933168441057205200e-02) (20, -1.28501385450363159180e-01) (21, -7.61010125279426574707e-02) (22, 3.60254966653883457184e-03) (23, -1.45407885313034057617e-01) (24, -2.64654099941253662109e-01) (25, -1.85645788908004760742e-01) (26, -4.07979190349578857422e-01) (27, -1.39630645513534545898e-01) (28, -6.11537359654903411865e-02) (29, -8.39674398303031921387e-02) (30, 1.28416074439883232117e-02) (31, 1.41042143106460571289e-01) (32, 1.05372823774814605713e-01) (33, 1.25215679407119750977e-01) (34, -4.40150462090969085693e-02) (35, -1.12052090466022491455e-01) (36, -1.03605603799223899841e-02) (37, 2.61925339698791503906e-01) (38, -4.70561869442462921143e-02) (39, -1.37081027030944824219e-01) (40, -9.91346910595893859863e-02) (41, -2.55631823092699050903e-02) (42, -3.51101569831371307373e-02) (43, 1.14759407937526702881e-01) (44, 9.70590040087699890137e-02) (45, 5.17982710152864456177e-03) (46, -2.74600293487310409546e-02) (47, -4.11927737295627593994e-02) (48, 4.51414845883846282959e-02) (49, 3.43216694891452789307e-02) (50, 1.21119774878025054932e-01) (51, 1.32184803485870361328e-01) (52, 7.71672055125236511230e-02) (53, 3.82508076727390289307e-02) (54, -3.04251145571470260620e-02) (55, 1.10601805150508880615e-01) (56, -4.97161112725734710693e-02) (57, 2.42151826620101928711e-01) (58, 3.34155917167663574219e-01) (59, -2.66593713313341140747e-02) (60, 6.37899860739707946777e-02) (61, -8.19486156105995178223e-02) (62, -9.14092138409614562988e-02) (63, -1.50295376777648925781e-01) (64, -4.61349748075008392334e-02) (65, 3.47494967281818389893e-02) (66, -2.67849385738372802734e-01) (67, 1.19698874652385711670e-01) (68, 1.71089529991149902344e-01) (69, 2.07382053136825561523e-01) (70, 1.23401038348674774170e-01) (71, 7.19274301081895828247e-03) (72, 1.50463849306106567383e-01) (73, 8.32609608769416809082e-02) (74, -3.33819054067134857178e-02) (75, 3.38745079934597015381e-02) (76, 4.47052605450153350830e-02) (77, 1.37843787670135498047e-01) (78, 4.10576649010181427002e-02) (79, 2.55426645278930664062e-01) (80, 1.65111750364303588867e-01) (81, -6.12088181078433990479e-02) (82, 4.63650189340114593506e-03) (83, 8.37588980793952941895e-02) (84, 1.66045784950256347656e-01) (85, 3.16401839256286621094e-01) (86, 2.14498341083526611328e-01) (87, 1.07824571430683135986e-01) (88, 3.04833445698022842407e-02) (89, 5.75146488845348358154e-02) (90, 4.87617440521717071533e-02) (91, 1.55598372220993041992e-01) (92, 1.51857823133468627930e-01) (93, -5.63828833401203155518e-02) (94, 1.29323929548263549805e-01) (95, -2.97989130020141601562e-01) (96, -4.13113594055175781250e-01) (97, 5.75340054929256439209e-02) (98, 1.20990900322794914246e-02) (99, 4.01020087301731109619e-02) (100, -5.49548026174306869507e-03) (101, -3.19618619978427886963e-02) (102, -1.29415005445480346680e-01) (103, 7.32631608843803405762e-02) (104, 9.00254473090171813965e-02) (105, 1.95860773324966430664e-01) (106, 1.14184357225894927979e-01) (107, -4.11668755114078521729e-02) (108, -2.40173280239105224609e-01) (109, -3.72432060539722442627e-02) (110, 1.18822492659091949463e-01) (111, -1.19939811527729034424e-01) (112, 2.22364813089370727539e-01) (113, 1.49165809154510498047e-01) (114, 5.31292222440242767334e-02) (115, -1.78102236241102218628e-02) (116, -1.57423198223114013672e-01) (117, -4.65199258178472518921e-03) (118, -1.62209179252386093140e-02) (119, 1.78243339061737060547e-01) (120, 2.57099628448486328125e-01) (121, 1.52607440948486328125e-01) (122, -4.69852648675441741943e-02) (123, 9.96478367596864700317e-03) (124, 1.07300572097301483154e-01) (125, -6.30388185381889343262e-02) (126, -1.08392141759395599365e-01) (127, 1.04064829647541046143e-01) (128, -1.12880252301692962646e-01) (129, 2.85874325782060623169e-02) (130, 1.94738179445266723633e-01) (131, 1.49961143732070922852e-01) (132, -1.19170583784580230713e-01) (133, -2.63630568981170654297e-01) (134, 8.04058834910392761230e-02) (135, 9.82333999127149581909e-03) (136, -4.98399548232555389404e-02) (137, -2.70988702774047851562e-01) (138, -8.64503458142280578613e-02) (139, 8.80485102534294128418e-02) (140, 1.32680147886276245117e-01) (141, 6.06157742440700531006e-02) (142, 1.34756594896316528320e-01) (143, 5.21941892802715301514e-02) (144, -1.34112119674682617188e-01) (145, 4.35091219842433929443e-02) (146, 9.52769890427589416504e-02) (147, 3.12179531902074813843e-02) (148, 2.53290799446403980255e-03) (149, 2.25940465927124023438e-01) (150, 3.01424980163574218750e-01) (151, 1.86755686998367309570e-01) (152, -4.75103743374347686768e-02) (153, -2.73020386695861816406e-01) (154, -4.19975876866374164820e-05) (155, -1.77829742431640625000e-01) (156, -2.45940208435058593750e-01) (157, -2.17852648347616195679e-02) (158, -1.47074133157730102539e-01) (159, -1.54332071542739868164e-01) (160, 1.04886507615447044373e-02) (161, -3.37910689413547515869e-02) (162, 1.20164863765239715576e-01) (163, 5.50947822630405426025e-02) (164, 2.95806527137756347656e-01) (165, 2.01540321111679077148e-01) (166, 2.79704570770263671875e-01) (167, -1.48098707199096679688e-01) (168, -1.08994193375110626221e-01) (169, -2.82266270369291305542e-02) (170, 9.96330659836530685425e-03) (171, 2.18985229730606079102e-01) (172, -1.83210492134094238281e-01) (173, -6.21168408542871475220e-03) (174, -4.40082065761089324951e-02) (175, 5.71168698370456695557e-02) (176, -2.78872609138488769531e-01) (177, 8.61640498042106628418e-02) (178, 4.32121790945529937744e-02) (179, 3.68386864662170410156e-01) (180, -2.67465431243181228638e-02) (181, -1.59102290868759155273e-01) (182, -1.84082627296447753906e-01) (183, -8.58255103230476379395e-02) (184, -5.99131472408771514893e-02) (185, -2.75192320346832275391e-01) (186, 7.91964158415794372559e-02) (187, 1.43876522779464721680e-01) (188, 1.37400776147842407227e-01) (189, -2.94696688652038574219e-01) (190, -1.70998513698577880859e-01) (191, -5.37868976593017578125e-01) (192, -2.11396753787994384766e-01) (193, -9.42653939127922058105e-02) (194, 1.52116805315017700195e-01) (195, 3.28028537333011627197e-02) (196, -2.63328731060028076172e-01) (197, -3.51220786571502685547e-01) (198, -1.99506163597106933594e-01) (199, -9.76804718375205993652e-02) (200, -3.56493294239044189453e-01) (201, -4.17636521160602569580e-02) (202, -8.56503173708915710449e-02) (203, 4.59296517074108123779e-02) (204, 1.55455857515335083008e-01) (205, -1.22838266193866729736e-01) (206, -2.84713923931121826172e-01) (207, -8.43597427010536193848e-02) (208, 1.31168337538838386536e-02) (209, 3.54149043560028076172e-01) (210, -2.37298786640167236328e-01) (211, -1.53130829334259033203e-01) (212, -2.96005845069885253906e-01) (213, -9.05038639903068542480e-02) (214, -1.02570711169391870499e-03) (215, -6.42672106623649597168e-02) (216, -2.87936747074127197266e-01) (217, 6.33014068007469177246e-02) (218, -1.95126682519912719727e-01) (219, 5.93426171690225601196e-03) (220, -2.43348836898803710938e-01) (221, -1.19888208806514739990e-01) (222, -1.24002046883106231689e-01) (223, 8.66766348481178283691e-02) (224, 2.70396471023559570312e-01) (225, -1.50085663795471191406e+00) (0, -4.58861067891120910645e-02) (1, -3.58619391918182373047e-01) (2, -4.79449510574340820312e-01) (3, -2.43632838129997253418e-01) (4, -1.82518377900123596191e-01) (5, -5.91854155063629150391e-01) (6, -8.06105658411979675293e-02) (7, -4.01010632514953613281e-01) (8, -4.24956023693084716797e-01) (9, -1.64556726813316345215e-01) (10, 2.21491917967796325684e-01) (11, 1.90873131155967712402e-01) (12, 1.60532310605049133301e-01) (13, -8.12380537390708923340e-02) (14, -4.98093187808990478516e-01) (15, 3.53722274303436279297e-01) (16, 4.50159490108489990234e-01) (17, 3.25888812541961669922e-01) (18, 5.50787270069122314453e-01) (19, 2.07184925675392150879e-01) (20, -2.64916718006134033203e-01) (21, -2.86839067935943603516e-01) (22, 1.14560984075069427490e-01) (23, -4.98159825801849365234e-01) (24, -2.14866295456886291504e-01) (25, -1.57550469040870666504e-01) (26, -2.60987162590026855469e-01) (27, -8.60846508294343948364e-03) (28, -1.18320487439632415771e-01) (29, -2.36547812819480895996e-01) (30, 1.54676005244255065918e-01) (31, -9.53872859477996826172e-01) (32, 1.78374990820884704590e-01) (33, -5.40780484676361083984e-01) (34, -6.08467087149620056152e-02) (35, -9.55894123762845993042e-03) (36, -1.22207753360271453857e-01) (37, 4.49294328689575195312e-01) (38, -6.60672605037689208984e-01) (39, -3.37777853012084960938e-01) (40, 3.00970435142517089844e-01) (41, 2.89502739906311035156e-01) (42, -9.88265052437782287598e-02) (43, 4.08741295337677001953e-01) (44, -2.72928178310394287109e-01) (45, -1.38089498504996299744e-02) (46, 4.03810143470764160156e-01) (47, 1.26890763640403747559e-01) (48, 2.39965304732322692871e-01) (49, -5.87501347064971923828e-01) (50, -5.51536083221435546875e-02) (51, -1.78266838192939758301e-01) (52, -3.60551714897155761719e-01) (53, -2.20040068030357360840e-01) (54, -5.93975007534027099609e-01) (55, 2.58705556392669677734e-01) (56, 1.57831624150276184082e-01) (57, -7.85677507519721984863e-02) (58, 4.68782246112823486328e-01) (59, 1.98935344815254211426e-02) (60, 5.87111786007881164551e-02) (61, 7.74729922413825988770e-02) (62, -2.76816785335540771484e-01) (63, 1.48630931973457336426e-01) (64, -2.01303407549858093262e-01) (65, 2.89706170558929443359e-01) (66, 4.12244021892547607422e-01) (67, 3.36084961891174316406e-02) (68, -3.08493435382843017578e-01) (69, 2.60673165321350097656e-02) (70, -2.08842143416404724121e-01) (71, 1.37317761778831481934e-01) (72, 3.86667668819427490234e-01) (73, 3.75063240528106689453e-01) (74, 5.60359179973602294922e-01) (75, 7.74415954947471618652e-02) (76, -9.43439081311225891113e-02) (77, -4.11426484584808349609e-01) (78, -1.79523266851902008057e-02) (79, -3.31441998481750488281e-01) (80, 3.51437270641326904297e-01) (81, -3.59966695308685302734e-01) (82, 1.23318703845143318176e-02) (83, -2.06927061080932617188e-02) (84, 4.66723814606666564941e-02) (85, 2.34520211815834045410e-01) (86, -1.22170038521289825439e-01) (87, -2.86809325218200683594e-01) (88, 9.10702526569366455078e-01) (89, 1.02465379238128662109e+00) (90, 1.10257349908351898193e-01) (91, -3.39046955108642578125e-01) (92, 4.27374422550201416016e-01) (93, -2.12208256125450134277e-01) (94, -2.05791994929313659668e-01) (95, 2.25929930806159973145e-01) (96, 2.10650220513343811035e-01) (97, 1.48570880293846130371e-01) (98, 2.30670645833015441895e-01) (99, -1.12304992973804473877e-01) (100, 3.33463907241821289062e-01) (101, 3.67890954017639160156e-01) (102, 3.29932451248168945312e-01) (103, 5.06217420101165771484e-01) (104, 3.73960852622985839844e-01) (105, -7.85002335906028747559e-02) (106, -2.04343751072883605957e-01) (107, -9.79398265480995178223e-02) (108, -4.05797958374023437500e-01) (109, -2.19235941767692565918e-01) (110, -1.40905454754829406738e-01) (111, -3.95215824246406555176e-02) (112, 1.38260379433631896973e-01) (113, 4.12527322769165039062e-01) (114, -1.07175791636109352112e-02) (115, 2.90308833122253417969e-01) (116, 3.13429117202758789062e-01) (117, 6.99011310935020446777e-02) (118, 4.77271497249603271484e-01) (119, 2.94001162052154541016e-01) (120, -2.33149006962776184082e-01) (121, -1.96229889988899230957e-01) (122, 1.47660866379737854004e-01) (123, -1.25127822160720825195e-01) (124, 5.05233108997344970703e-02) (125, -3.76353442668914794922e-01) (126, 1.95624694228172302246e-01) (127, 3.53950202465057373047e-01) (128, 3.28757464885711669922e-01) (129, 2.68269717693328857422e-01) (130, 3.09512224048376083374e-02) (131, 3.41220498085021972656e-01) (132, -7.27791562676429748535e-02) (133, -1.23732546344399452209e-02) (134, -2.36126318573951721191e-01) (135, 2.06798598170280456543e-01) (136, 3.63249182701110839844e-01) (137, 5.34246638417243957520e-02) (138, 5.54526984691619873047e-01) (139, 3.18862259387969970703e-01) (140, -4.68586266040802001953e-01) (141, 9.14676710963249206543e-02) (142, 1.26983419060707092285e-01) (143, 6.13729178905487060547e-01) (144, -3.87584418058395385742e-02) (145, 3.32018017768859863281e-01) (146, -1.43802100792527198792e-02) (147, -1.20352201163768768311e-01) (148, -1.55354395508766174316e-01) (149, -5.58157041668891906738e-02) (150, 1.23362116515636444092e-01) (151, -2.16308221220970153809e-01) (152, -1.68091841042041778564e-02) (153, -2.61545002460479736328e-01) (154, -4.99240830540657043457e-02) (155, -2.88134098052978515625e-01) (156, -1.38869419693946838379e-01) (157, 1.99098780751228332520e-01) (158, 7.77081191539764404297e-01) (159, 6.83769524097442626953e-01) (160, 3.50617110729217529297e-01) (161, -6.85764327645301818848e-02) (162, -1.69200316071510314941e-01) (163, -2.34510645270347595215e-01) (164, -2.57432639598846435547e-01) (165, 2.66403675079345703125e-01) (166, 9.38142463564872741699e-02) (167, 1.19930408895015716553e-01) (168, -2.59992778301239013672e-01) (169, -1.09789274632930755615e-01) (170, -7.99286440014839172363e-02) (171, 5.79953491687774658203e-02) (172, 1.62922218441963195801e-01) (173, 1.51586011052131652832e-01) (174, 3.78167033195495605469e-01) (175, 1.75038233399391174316e-01) (176, -4.10401403903961181641e-01) (177, -1.32760509848594665527e-01) (178, -2.04828068614006042480e-01) (179, -2.46824994683265686035e-01) (180, -5.59216886758804321289e-02) (181, -1.30769297480583190918e-01) (182, -4.03251647949218750000e-01) (183, -1.29632458090782165527e-01) (184, 1.30728468298912048340e-01) (185, 2.38496765494346618652e-01) (186, -1.30663409829139709473e-01) (187, 2.61786058545112609863e-02) (188, -4.40768957138061523438e-01) (189, -1.01852692663669586182e-01) (190, -1.96468159556388854980e-01) (191, -4.37419533729553222656e-01) (192, -1.46373853087425231934e-01) (193, -4.34199273586273193359e-01) (194, -1.55735895037651062012e-01) (195, -7.48674809932708740234e-01) (196, -2.18935504555702209473e-01) (197, 5.84295094013214111328e-02) (198, -2.04926475882530212402e-01) (199, -7.65887722373008728027e-02) (200, -1.65814712643623352051e-01) (201, -5.10294735431671142578e-01) (202, -3.41617643833160400391e-01) (203, -8.89666154980659484863e-02) (204, 1.59746065735816955566e-01) (205, -3.48355770111083984375e-01) (206, -1.03323109447956085205e-01) (207, -6.84702619910240173340e-02) (208, -1.72939226031303405762e-01) (209, -1.25882878899574279785e-01) (210, -8.49467694759368896484e-01) (211, -3.47714483737945556641e-01) (212, -1.76867201924324035645e-01) (213, 5.24147897958755493164e-02) (214, -2.55417764186859130859e-01) (215, -3.55333745479583740234e-01) (216, 1.35339824482798576355e-02) (217, 9.55602005124092102051e-02) (218, 2.00686916708946228027e-01) (219, 2.10562154650688171387e-01) (220, 1.00335709750652313232e-01) (221, -9.49677918106317520142e-03) (222, -1.71627715229988098145e-01) (223, -1.09817065298557281494e-01) (224, -3.51843774318695068359e-01) (225, 9.55748260021209716797e-01) (0, 3.31294953823089599609e-01) (1, 2.57945239543914794922e-01) (2, 2.04207047820091247559e-01) (3, 3.98972511291503906250e-01) (4, 2.24794164299964904785e-01) (5, -1.04496866464614868164e-01) (6, 9.64504573494195938110e-03) (7, -4.66089099645614624023e-02) (8, -2.17428013682365417480e-01) (9, -3.21173250675201416016e-01) (10, -2.37851753830909729004e-01) (11, -1.16602018475532531738e-01) (12, -1.22058033943176269531e-01) (13, -6.21562480926513671875e-01) (14, 4.97320070862770080566e-02) (15, -5.09691715240478515625e-01) (16, 5.12944236397743225098e-02) (17, 9.16263759136199951172e-02) (18, -1.77901163697242736816e-01) (19, -1.02878808975219726562e-01) (20, 2.19402506947517395020e-01) (21, 6.69182896614074707031e-01) (22, 1.75848767161369323730e-01) (23, -1.57026961445808410645e-01) (24, 1.92852667532861232758e-03) (25, 4.74724406376481056213e-03) (26, -6.40361988916993141174e-03) (27, 2.17342749238014221191e-02) (28, -6.36202812194824218750e-01) (29, -2.21089854836463928223e-01) (30, -3.54248344898223876953e-01) (31, -1.43710449337959289551e-01) (32, -1.93133190274238586426e-01) (33, -3.18475246429443359375e-01) (34, -2.98250913619995117188e-01) (35, -9.39604192972183227539e-02) (36, -1.51428624987602233887e-01) (37, 2.36078396439552307129e-01) (38, 1.63782224059104919434e-01) (39, -2.48799875378608703613e-01) (40, 2.25111410021781921387e-01) (41, -2.15498074889183044434e-01) (42, -1.15096569061279296875e-01) (43, -5.50802230834960937500e-01) (44, -5.08962720632553100586e-02) (45, 2.19954177737236022949e-01) (46, 3.14798235893249511719e-01) (47, -1.79852738976478576660e-01) (48, 2.60399341583251953125e-01) (49, 8.32905322313308715820e-02) (50, 1.84494569897651672363e-01) (51, 2.17012166976928710938e-02) (52, -2.05575302243232727051e-01) (53, 1.98944404721260070801e-01) (54, -1.08142629265785217285e-01) (55, -2.32186779379844665527e-01) (56, -4.26921725273132324219e-01) (57, -1.46175757050514221191e-01) (58, 1.57524093985557556152e-01) (59, 2.69767716526985168457e-02) (60, 6.35144352912902832031e-01) (61, 1.37102231383323669434e-01) (62, -4.62508559226989746094e-01) (63, 4.66817021369934082031e-01) (64, 1.44783988595008850098e-01) (65, 8.10288488864898681641e-02) (66, -4.26381230354309082031e-01) (67, -5.42420864105224609375e-01) (68, 5.59660568833351135254e-02) (69, -2.43768826127052307129e-01) (70, -7.52383589744567871094e-01) (71, -5.14123201370239257812e-01) (72, -3.31236600875854492188e-01) (73, -6.67511671781539916992e-02) (74, 3.85605394840240478516e-02) (75, 2.04266116023063659668e-01) (76, -1.71149358153343200684e-01) (77, 3.34921658039093017578e-01) (78, 2.71150290966033935547e-01) (79, 7.77735114097595214844e-02) (80, -3.63711789250373840332e-02) (81, -3.03962528705596923828e-01) (82, -2.79363751411437988281e-01) (83, -1.97592571377754211426e-01) (84, 4.99412417411804199219e-02) (85, -2.21856996417045593262e-01) (86, -1.87238141894340515137e-01) (87, 6.13639801740646362305e-02) (88, -4.85489010810852050781e-01) (89, -2.55861163139343261719e-01) (90, 1.66853174567222595215e-01) (91, -6.09715655446052551270e-02) (92, 2.30887159705162048340e-01) (93, 2.03602947294712066650e-02) (94, 2.01364234089851379395e-01) (95, 2.74511575698852539062e-01) (96, 3.67167532444000244141e-01) (97, 5.00995934009552001953e-01) (98, 6.35201811790466308594e-01) (99, 2.89923429489135742188e-01) (100, 3.66428375244140625000e-01) (101, 3.46887782216072082520e-02) (102, -3.52820932865142822266e-01) (103, -4.36879277229309082031e-01) (104, -2.32771076261997222900e-02) (105, -1.68280258774757385254e-01) (106, -4.34705764055252075195e-02) (107, 1.16588314995169639587e-02) (108, -3.71513962745666503906e-02) (109, 3.48659992218017578125e-01) (110, -1.88253596425056457520e-02) (111, 4.27750468254089355469e-01) (112, 7.29597330093383789062e-01) (113, 2.19052925705909729004e-01) (114, -5.78374089673161506653e-03) (115, 5.69005727767944335938e-01) (116, 3.55934560298919677734e-01) (117, 2.88384437561035156250e-01) (118, -2.44198307394981384277e-01) (119, -3.67757752537727355957e-02) (120, 1.62307724356651306152e-01) (121, 1.41165122389793395996e-01) (122, -9.53926146030426025391e-02) (123, -7.75595903396606445312e-02) (124, 2.54261136054992675781e-01) (125, -1.09610155224800109863e-01) (126, 1.03318378329277038574e-01) (127, 3.38354408740997314453e-01) (128, 2.66543269157409667969e-01) (129, 1.89350202679634094238e-01) (130, 8.84432911872863769531e-01) (131, 6.89175009727478027344e-01) (132, 1.85381636023521423340e-01) (133, 3.42544198036193847656e-01) (134, 1.74936965107917785645e-01) (135, 4.70259666442871093750e-01) (136, 3.71224999427795410156e-01) (137, -1.29258677363395690918e-01) (138, -1.69297650456428527832e-01) (139, -2.00877651572227478027e-01) (140, -2.90243208408355712891e-01) (141, -8.69769752025604248047e-02) (142, 1.67691305279731750488e-01) (143, -1.02601081132888793945e-01) (144, 3.92947196960449218750e-01) (145, 2.34601907432079315186e-02) (146, 6.93746924400329589844e-01) (147, 1.57499060034751892090e-01) (148, 1.80157259106636047363e-01) (149, 3.99952590465545654297e-01) (150, 5.50115155056118965149e-03) (151, 9.29144620895385742188e-02) (152, -2.70804345607757568359e-01) (153, 5.00380387529730796814e-03) (154, -7.21389889717102050781e-01) (155, -1.61777570843696594238e-01) (156, -2.57756233215332031250e-01) (157, -2.06265673041343688965e-01) (158, -6.10043406486511230469e-01) (159, -1.86715349555015563965e-01) (160, -2.19981625676155090332e-01) (161, 4.23443496227264404297e-01) (162, 2.21571788191795349121e-01) (163, -2.92960181832313537598e-02) (164, 4.36898231506347656250e-01) (165, 1.90691038966178894043e-01) (166, -2.63162255287170410156e-01) (167, -6.63843393325805664062e-01) (168, -2.23467305302619934082e-01) (169, 3.04534435272216796875e-02) (170, -3.61192762851715087891e-01) (171, -4.92805838584899902344e-01) (172, -3.42162787914276123047e-01) (173, -8.96517634391784667969e-01) (174, -3.08999419212341308594e-01) (175, -3.69684219360351562500e-01) (176, -4.32641267776489257812e-01) (177, -3.34571003913879394531e-02) (178, 1.10477820038795471191e-01) (179, -1.04659333825111389160e-01) (180, 4.35457348823547363281e-01) (181, -2.80303120613098144531e-01) (182, 5.59086129069328308105e-02) (183, -6.43963068723678588867e-02) (184, 1.66450425982475280762e-01) (185, -6.10409304499626159668e-02) (186, -1.73941835761070251465e-01) (187, 9.04377996921539306641e-02) (188, -2.51683294773101806641e-01) (189, 2.03016653656959533691e-01) (190, -8.83325040340423583984e-02) (191, -2.22734376788139343262e-01) (192, -1.29961028695106506348e-01) (193, -1.25536307692527770996e-01) (194, -3.50171089172363281250e-01) (195, 3.35787534713745117188e-02) (196, -1.32873430848121643066e-01) (197, -4.75368201732635498047e-02) (198, 2.42091082036495208740e-02) (199, -1.92435994744300842285e-01) (200, 3.88389527797698974609e-01) (201, 8.55393409729003906250e-02) (202, -3.39065611362457275391e-01) (203, -1.02336719632148742676e-01) (204, 1.43087610602378845215e-01) (205, 4.11127507686614990234e-02) (206, -8.11120420694351196289e-02) (207, -2.23891511559486389160e-01) (208, -2.30114951729774475098e-01) (209, -9.17967706918716430664e-02) (210, -2.92329370975494384766e-01) (211, -1.45229801535606384277e-01) (212, 2.14891120791435241699e-01) (213, -3.36128532886505126953e-01) (214, -1.16809038445353507996e-02) (215, 2.54107177257537841797e-01) (216, 1.52612790465354919434e-01) (217, 1.88262626528739929199e-01) (218, -2.33075514435768127441e-01) (219, -1.25404238700866699219e-01) (220, 1.73144742846488952637e-01) (221, 8.45003724098205566406e-02) (222, -7.57867246866226196289e-02) (223, 3.58001351356506347656e-01) (224, -4.31224703788757324219e-01) (225, -1.50478637218475341797e+00) (0, -1.81318715214729309082e-01) (1, -2.47751429677009582520e-01) (2, -2.82884210348129272461e-01) (3, 1.32504269480705261230e-01) (4, -1.65955558419227600098e-01) (5, 4.14524339139461517334e-02) (6, -1.29708215594291687012e-01) (7, 1.85253217816352844238e-01) (8, -1.11940473318099975586e-01) (9, 1.61120250821113586426e-01) (10, 1.88299104571342468262e-01) (11, -1.35374441742897033691e-01) (12, -9.66242104768753051758e-02) (13, -2.55153864622116088867e-01) (14, 1.24627143144607543945e-01) (15, 2.60908514261245727539e-01) (16, 9.63604152202606201172e-02) (17, -1.09077602624893188477e-01) (18, -3.27446848154067993164e-01) (19, 2.96433061361312866211e-01) (20, 2.28173341602087020874e-02) (21, 3.23806613683700561523e-01) (22, 3.82704943418502807617e-01) (23, 2.17901661992073059082e-01) (24, -2.12598487734794616699e-01) (25, 3.59446369111537933350e-02) (26, -3.75791877508163452148e-01) (27, 3.44502002000808715820e-01) (28, -1.89681962132453918457e-01) (29, -2.00620546936988830566e-01) (30, 6.51070177555084228516e-01) (31, -1.79024174809455871582e-01) (32, -6.31049275398254394531e-02) (33, -5.03258168697357177734e-01) (34, 1.17401946336030960083e-02) (35, -4.11098688840866088867e-01) (36, 4.53223317861557006836e-01) (37, 6.69677108526229858398e-02) (38, 2.61546760797500610352e-01) (39, 4.46112565696239471436e-02) (40, 2.96786099672317504883e-01) (41, -3.50542031228542327881e-02) (42, 3.89120906591415405273e-01) (43, 1.77570864558219909668e-01) (44, 4.08318847417831420898e-01) (45, 1.65822699666023254395e-01) (46, -3.73728014528751373291e-02) (47, -3.14894393086433410645e-02) (48, 6.25188425183296203613e-02) (49, -4.07374352216720581055e-01) (50, -3.72089892625808715820e-01) (51, -1.39795586466789245605e-01) (52, -1.86587706208229064941e-01) (53, -1.13868504762649536133e-01) (54, -4.07521396875381469727e-01) (55, -9.61237102746963500977e-02) (56, 6.93571120500564575195e-02) (57, 3.51410299539566040039e-01) (58, 2.97636538743972778320e-01) (59, 2.71454125642776489258e-01) (60, 3.62584479153156280518e-02) (61, 2.79232293367385864258e-01) (62, 2.59874258190393447876e-02) (63, 1.38066783547401428223e-01) (64, 3.10399979352951049805e-02) (65, -2.53973808139562606812e-02) (66, 3.04286867380142211914e-01) (67, 1.56689539551734924316e-01) (68, -3.10169368982315063477e-01) (69, -2.59564906358718872070e-01) (70, -2.80026584863662719727e-01) (71, -3.58943015336990356445e-01) (72, -1.10164821147918701172e-01) (73, 1.01002200972288846970e-03) (74, 4.07993942499160766602e-01) (75, -1.17947340011596679688e-01) (76, 1.82364121079444885254e-01) (77, -9.91639643907546997070e-02) (78, 3.40142279863357543945e-01) (79, 2.61077675968408584595e-02) (80, 1.47855862975120544434e-01) (81, -3.08704283088445663452e-02) (82, -6.20084442198276519775e-02) (83, 2.06683143973350524902e-01) (84, 3.99399787187576293945e-01) (85, 2.11196109652519226074e-01) (86, -6.11233174800872802734e-01) (87, -1.79999753832817077637e-01) (88, -5.02297699451446533203e-01) (89, 4.50969904661178588867e-01) (90, -1.23917058110237121582e-01) (91, -2.78114169836044311523e-01) (92, 2.46851608157157897949e-01) (93, -2.60528009384870529175e-02) (94, 6.56855702400207519531e-02) (95, 4.16956096887588500977e-01) (96, -7.63590037822723388672e-02) (97, -3.69850359857082366943e-02) (98, -4.92109991610050201416e-02) (99, -6.68755769729614257812e-02) (100, -3.33273440599441528320e-01) (101, -4.22421544790267944336e-01) (102, -2.20537111163139343262e-01) (103, 4.28716033697128295898e-01) (104, 1.29983946681022644043e-02) (105, -5.57260811328887939453e-01) (106, -2.49200742691755294800e-02) (107, -6.25877082347869873047e-02) (108, -1.92705497145652770996e-01) (109, -3.71809273958206176758e-01) (110, -1.09140977263450622559e-01) (111, -3.24107502819970250130e-04) (112, 2.78065174818038940430e-01) (113, -1.94891139864921569824e-01) (114, -1.17877144366502761841e-02) (115, -1.74951419234275817871e-01) (116, -4.27889972925186157227e-01) (117, -5.24043023586273193359e-01) (118, -6.40032470226287841797e-01) (119, -5.75757443904876708984e-01) (120, -2.82462090253829956055e-01) (121, -1.56944796442985534668e-01) (122, 1.70552860945463180542e-02) (123, -2.50629428774118423462e-02) (124, -1.35120853781700134277e-01) (125, -3.35144884884357452393e-02) (126, 2.18047603964805603027e-01) (127, 5.05827486515045166016e-01) (128, 9.42486673593521118164e-02) (129, 7.57108777761459350586e-02) (130, 9.89520102739334106445e-02) (131, -5.14144361019134521484e-01) (132, -1.94389566779136657715e-01) (133, -1.91250905394554138184e-01) (134, -6.31685435771942138672e-01) (135, -2.73385792970657348633e-01) (136, 3.21609586477279663086e-01) (137, 2.06928893923759460449e-01) (138, 4.15562726557254791260e-02) (139, 7.75829404592514038086e-02) (140, 3.70189100503921508789e-01) (141, 1.34456440806388854980e-01) (142, -9.46512073278427124023e-03) (143, -5.89584698900580406189e-03) (144, -1.99239943176507949829e-02) (145, 4.51027341187000274658e-02) (146, -2.40047171711921691895e-01) (147, -4.20715123414993286133e-01) (148, -6.68780863285064697266e-01) (149, -3.66049200296401977539e-01) (150, 2.76291340589523315430e-01) (151, 1.43778279423713684082e-01) (152, -1.58634278923273086548e-02) (153, 2.48091265559196472168e-01) (154, 4.86270695924758911133e-01) (155, 4.05176967382431030273e-01) (156, 2.99088090658187866211e-01) (157, 4.88352924585342407227e-01) (158, 3.59627716243267059326e-02) (159, 8.72489362955093383789e-02) (160, 2.04347416758537292480e-01) (161, -1.58009734004735946655e-02) (162, -1.89749434590339660645e-01) (163, -2.19671472907066345215e-01) (164, -2.25638136267662048340e-01) (165, -2.90881562978029251099e-02) (166, -1.22328013181686401367e-01) (167, 1.99050024151802062988e-01) (168, 3.97984057664871215820e-01) (169, 5.04964292049407958984e-01) (170, 5.75864493846893310547e-01) (171, 7.22666978836059570312e-02) (172, -3.04635792970657348633e-01) (173, -2.57304579019546508789e-01) (174, -7.08296755328774452209e-03) (175, 2.08453312516212463379e-01) (176, 3.79595272243022918701e-02) (177, -4.07152384519577026367e-01) (178, -1.70331314206123352051e-01) (179, -7.89129883050918579102e-02) (180, -9.79716032743453979492e-02) (181, 1.02404519915580749512e-01) (182, -5.19911088049411773682e-02) (183, 2.69981652498245239258e-01) (184, -5.27892522513866424561e-02) (185, -5.81981427967548370361e-02) (186, -2.20890566706657409668e-01) (187, -1.57211288809776306152e-01) (188, 2.52325028181076049805e-01) (189, -6.99140280485153198242e-02) (190, -1.20264813303947448730e-01) (191, -3.50277751684188842773e-01) (192, -1.89098104834556579590e-01) (193, -2.18999400734901428223e-01) (194, -4.45314086973667144775e-02) (195, -3.13677996397018432617e-01) (196, -1.56779214739799499512e-01) (197, 2.28638928383588790894e-02) (198, -3.87072712182998657227e-01) (199, -3.55215221643447875977e-01) (200, -3.91914099454879760742e-01) (201, -1.05521872639656066895e-01) (202, -1.40114232897758483887e-01) (203, 1.95628955960273742676e-01) (204, -1.41461476683616638184e-01) (205, -4.19408269226551055908e-02) (206, -5.21663248538970947266e-01) (207, 1.29079595208168029785e-01) (208, 1.73144146800041198730e-01) (209, -7.64226308092474937439e-03) (210, -2.84912496805191040039e-01) (211, -2.67752140760421752930e-01) (212, -4.81150537729263305664e-01) (213, -1.75187066197395324707e-01) (214, -3.05483549833297729492e-01) (215, 1.13862976431846618652e-01) (216, 6.33736401796340942383e-02) (217, 3.20297390222549438477e-01) (218, -1.00412890315055847168e-01) (219, -3.08903791010379791260e-02) (220, -2.22893115133047103882e-02) (221, 7.27637261152267456055e-02) (222, 2.65665024518966674805e-01) (223, 6.81702196598052978516e-01) (224, 2.02193126082420349121e-01) (225, -3.55068355798721313477e-01) (0, 5.33451855182647705078e-01) (1, 9.87608823925256729126e-03) (2, 1.07029058039188385010e-01) (3, 2.68296767026185989380e-02) (4, 1.25166311860084533691e-01) (5, -5.16793355345726013184e-02) (6, -3.24372351169586181641e-01) (7, 1.99205771088600158691e-01) (8, -2.01142355799674987793e-01) (9, -2.87156224250793457031e-01) (10, 2.74276852607727050781e-01) (11, 4.60534840822219848633e-02) (12, 3.21086347103118896484e-01) (13, 6.96365907788276672363e-03) (14, -2.06057831645011901855e-01) (15, 2.95611381530761718750e-01) (16, 6.73962058499455451965e-04) (17, 1.84474829584360122681e-02) (18, -1.82313784956932067871e-01) (19, -3.15998911857604980469e-01) (20, -1.70677080750465393066e-01) (21, -1.25414609909057617188e-01) (22, -2.72004783153533935547e-01) (23, 5.50221204757690429688e-02) (24, 1.53551921248435974121e-02) (25, 2.67700087279081344604e-02) (26, -3.29726338386535644531e-01) (27, -2.46981251984834671021e-02) (28, -1.60623684525489807129e-01) (29, -6.32675468921661376953e-01) (30, 2.07268491387367248535e-01) (31, -7.68676325678825378418e-02) (32, -9.57339033484458923340e-02) (33, -4.05638217926025390625e-01) (34, 7.82910063862800598145e-02) (35, 7.09780380129814147949e-02) (36, -9.27187968045473098755e-03) (37, -8.30212160944938659668e-02) (38, 2.16193571686744689941e-01) (39, 3.40896666049957275391e-01) (40, -1.61625578999519348145e-01) (41, 1.04427240788936614990e-01) (42, 7.10479095578193664551e-02) (43, 2.18479767441749572754e-01) (44, 8.81351009011268615723e-02) (45, 5.35220324993133544922e-01) (46, 2.82032847404479980469e-01) (47, -2.23836168646812438965e-01) (48, -6.96747824549674987793e-02) (49, -9.74821671843528747559e-02) (50, 2.69090950489044189453e-01) (51, 9.33987870812416076660e-02) (52, -1.04635827243328094482e-01) (53, 2.56192505359649658203e-01) (54, 8.35473015904426574707e-02) (55, 7.75324925780296325684e-02) (56, 2.81979799270629882812e-01) (57, 8.54068323969841003418e-02) (58, -1.97810634970664978027e-01) (59, 2.92783439159393310547e-01) (60, 4.09717321395874023438e-01) (61, -2.25222721695899963379e-01) (62, -4.73576843738555908203e-01) (63, -3.35247874259948730469e-01) (64, 3.76989901065826416016e-01) (65, 5.16390055418014526367e-03) (66, -1.34378358721733093262e-01) (67, -1.63407668471336364746e-01) (68, -4.97455745935440063477e-02) (69, -1.72715827822685241699e-01) (70, 2.38153174519538879395e-01) (71, 3.10103952884674072266e-01) (72, 1.67727604508399963379e-01) (73, 3.01830947399139404297e-01) (74, 2.19223365187644958496e-01) (75, 5.34826219081878662109e-02) (76, -4.12937626242637634277e-02) (77, -8.34832563996315002441e-02) (78, -1.08415521681308746338e-01) (79, -1.23592451214790344238e-01) (80, 2.44593754410743713379e-01) (81, 1.75545230507850646973e-01) (82, 5.74356734752655029297e-01) (83, 4.71707358956336975098e-02) (84, 6.50186762213706970215e-02) (85, 1.82250186800956726074e-01) (86, -4.63828563690185546875e-01) (87, -9.71277151256799697876e-03) (88, -1.02679796516895294189e-01) (89, 1.20620317757129669189e-01) (90, 2.48962685465812683105e-01) (91, -2.98099517822265625000e-01) (92, -4.30467188358306884766e-01) (93, -1.42315551638603210449e-01) (94, 2.89158821105957031250e-01) (95, -5.27868419885635375977e-02) (96, 9.69581231474876403809e-02) (97, 1.15660659968852996826e-01) (98, -1.01542465388774871826e-01) (99, 2.99200806766748428345e-02) (100, 3.60363543033599853516e-01) (101, -3.40517997741699218750e-01) (102, -2.13704798370599746704e-02) (103, 2.83813536167144775391e-01) (104, -5.75836151838302612305e-02) (105, 1.78608253598213195801e-01) (106, -4.87062409520149230957e-02) (107, -1.15884952247142791748e-01) (108, 1.25308101996779441833e-02) (109, -4.06533002853393554688e-01) (110, -1.46367713809013366699e-01) (111, -2.32946768403053283691e-01) (112, 3.80092740058898925781e-01) (113, 8.70590731501579284668e-02) (114, 2.44623407721519470215e-01) (115, 3.23198616504669189453e-01) (116, -3.30101728439331054688e-01) (117, -1.86579063534736633301e-01) (118, 5.38201108574867248535e-02) (119, -1.48679479956626892090e-01) (120, 4.95188355445861816406e-01) (121, -1.58749148249626159668e-01) (122, -1.18547804653644561768e-01) (123, 3.75166162848472595215e-02) (124, 2.29349192231893539429e-02) (125, 6.41394481062889099121e-02) (126, -2.56001558154821395874e-02) (127, 2.38335177302360534668e-01) (128, 2.90778636932373046875e-01) (129, -4.90092262625694274902e-02) (130, -3.19746911525726318359e-01) (131, -4.26501274108886718750e-01) (132, 2.66396224498748779297e-01) (133, 1.56996145844459533691e-01) (134, -1.25700607895851135254e-01) (135, -5.13126671314239501953e-01) (136, -1.72231271862983703613e-01) (137, 1.07965774834156036377e-01) (138, 1.74060329794883728027e-01) (139, 3.76662254333496093750e-01) (140, 1.35564371943473815918e-01) (141, 2.17157881706953048706e-02) (142, 1.17725871503353118896e-01) (143, 2.58357021957635879517e-02) (144, -1.71478196978569030762e-01) (145, -1.96912959218025207520e-01) (146, -4.76391315460205078125e-01) (147, 1.09905548393726348877e-01) (148, 1.49903163313865661621e-01) (149, 1.37288972735404968262e-01) (150, -4.21697378158569335938e-01) (151, -2.82697081565856933594e-01) (152, 2.89441466331481933594e-01) (153, 1.15609936416149139404e-01) (154, 2.08274945616722106934e-01) (155, 2.35253646969795227051e-01) (156, 1.59880116581916809082e-01) (157, 1.92027792334556579590e-01) (158, -4.81847584247589111328e-01) (159, 1.16660423576831817627e-01) (160, 6.89566209912300109863e-02) (161, -1.68171599507331848145e-01) (162, 1.11081026494503021240e-01) (163, 1.52325198054313659668e-01) (164, 1.26850292086601257324e-01) (165, -1.50138810276985168457e-01) (166, 3.45086932182312011719e-01) (167, 1.87548354268074035645e-01) (168, 3.82931411266326904297e-01) (169, 4.02066111564636230469e-03) (170, 1.20458893477916717529e-01) (171, 1.34202735498547554016e-02) (172, -4.20787781476974487305e-02) (173, 1.31024226546287536621e-01) (174, -8.36211964488029479980e-02) (175, 1.81926432996988296509e-02) (176, 1.24163351953029632568e-01) (177, 1.08400054275989532471e-01) (178, -7.28846564888954162598e-02) (179, -7.78170749545097351074e-02) (180, -1.47622480988502502441e-01) (181, -1.78624942898750305176e-01) (182, -1.52880653738975524902e-01) (183, 3.24515581130981445312e-01) (184, 2.18526437878608703613e-01) (185, -3.44095677137374877930e-02) (186, 1.99798241257667541504e-01) (187, 1.37009814381599426270e-01) (188, -1.27811476588249206543e-01) (189, 9.35489758849143981934e-02) (190, -3.39775606989860534668e-02) (191, 1.57637760043144226074e-01) (192, 6.33958056569099426270e-02) (193, -1.45593866705894470215e-01) (194, 1.05363391339778900146e-01) (195, 9.91468802094459533691e-02) (196, -2.72814631462097167969e-01) (197, -3.92960906028747558594e-01) (198, 7.18574300408363342285e-02) (199, -2.35897913575172424316e-01) (200, 3.83059144020080566406e-01) (201, 3.52305293083190917969e-01) (202, -2.53456290811300277710e-02) (203, -2.60064184665679931641e-01) (204, -5.79149182885885238647e-03) (205, 1.83499321341514587402e-01) (206, 3.22508156299591064453e-01) (207, 1.04939244687557220459e-01) (208, -3.23949575424194335938e-01) (209, 2.20721051096916198730e-01) (210, 9.46886613965034484863e-02) (211, -4.85845357179641723633e-02) (212, -1.37477542739361524582e-03) (213, -1.70183286070823669434e-01) (214, -1.85290470719337463379e-01) (215, -1.76278606057167053223e-01) (216, 7.12424442172050476074e-02) (217, -2.40472387522459030151e-02) (218, 9.06278267502784729004e-02) (219, 1.82700917124748229980e-01) (220, 1.33457764983177185059e-01) (221, -1.23454600572586059570e-01) (222, 1.70330449938774108887e-01) (223, 4.80584979057312011719e-01) (224, 3.52217018604278564453e-01) (225, -2.70759963989257812500e+00) (0, -1.33370578289031982422e-01) (1, -7.81297385692596435547e-02) (2, 1.09868302941322326660e-01) (3, -4.79596666991710662842e-02) (4, 1.48091405630111694336e-01) (5, 1.13716557621955871582e-01) (6, -1.68814986944198608398e-01) (7, -1.17836609482765197754e-01) (8, 6.31548464298248291016e-01) (9, 3.07523310184478759766e-01) (10, -4.83982823789119720459e-02) (11, -1.17177069187164306641e-01) (12, -4.11781549453735351562e-01) (13, 3.14603149890899658203e-01) (14, 2.92405366897583007812e-01) (15, -3.77760648727416992188e-01) (16, -6.15174472332000732422e-01) (17, -1.50698930025100708008e-01) (18, 8.12221027445048093796e-04) (19, 9.85993593931198120117e-02) (20, -2.69227325916290283203e-01) (21, 6.66726052761077880859e-01) (22, 6.71081125736236572266e-01) (23, 9.56247627735137939453e-01) (24, 6.03465378284454345703e-01) (25, 2.24523216485977172852e-01) (26, 2.39962548017501831055e-01) (27, 1.96774661540985107422e-01) (28, 2.29748725891113281250e-01) (29, 1.68703168630599975586e-01) (30, 1.56161347404122352600e-02) (31, 1.31965368986129760742e-01) (32, 6.63894563913345336914e-02) (33, 4.27287928760051727295e-02) (34, -1.22451260685920715332e-01) (35, -2.90838718414306640625e-01) (36, -9.36912149190902709961e-02) (37, 2.50594019889831542969e-01) (38, 5.26056826114654541016e-01) (39, 1.78716361522674560547e-01) (40, 1.22284337878227233887e-01) (41, 7.54751563072204589844e-02) (42, -2.21666932106018066406e-01) (43, 1.48411124944686889648e-01) (44, -1.35822474956512451172e-01) (45, -2.65214264392852783203e-01) (46, 2.21885412931442260742e-01) (47, -1.36626422405242919922e-01) (48, -5.41267096996307373047e-01) (49, -7.72258818149566650391e-01) (50, 2.52284526824951171875e-01) (51, -1.07588320970535278320e-01) (52, -3.08781921863555908203e-01) (53, -3.88914048671722412109e-01) (54, -2.66229450702667236328e-01) (55, -8.45913887023925781250e-02) (56, 2.92014956474304199219e-01) (57, -1.69137239456176757812e-01) (58, -4.97955918312072753906e-01) (59, -8.65203794091939926147e-03) (60, -7.97933340072631835938e-02) (61, -3.91578912734985351562e-01) (62, 4.95684385299682617188e-01) (63, -1.38140588998794555664e-01) (64, -2.44773268699645996094e-01) (65, 1.31980091333389282227e-01) (66, -3.97675335407257080078e-01) (67, -2.22996920347213745117e-01) (68, -6.28844276070594787598e-02) (69, -9.66362059116363525391e-02) (70, -3.93947482109069824219e-01) (71, -6.43245428800582885742e-02) (72, -2.86521792411804199219e-01) (73, -6.00809514522552490234e-01) (74, 2.17062413692474365234e-01) (75, 4.13789987564086914062e-01) (76, 1.35337293148040771484e-01) (77, 1.14884793758392333984e-01) (78, -1.20745673775672912598e-01) (79, -3.90664078295230865479e-02) (80, -5.49015700817108154297e-01) (81, -1.35819971561431884766e-01) (82, 1.32124125957489013672e-01) (83, -8.40739607810974121094e-02) (84, -3.48752021789550781250e-01) (85, -1.25738739967346191406e-01) (86, 1.87009245157241821289e-01) (87, 6.76822483539581298828e-01) (88, -2.96244919300079345703e-01) (89, 1.80792808532714843750e-01) (90, -9.04132332652807235718e-03) (91, 1.97407901287078857422e-01) (92, -4.28457379341125488281e-01) (93, 1.31647378206253051758e-01) (94, 1.60780400037765502930e-01) (95, 3.28714370727539062500e-01) (96, 6.22840598225593566895e-02) (97, 1.32018864154815673828e-01) (98, -1.27366781234741210938e-01) (99, -1.38450026512145996094e-01) (100, 8.36763530969619750977e-02) (101, -7.44909048080444335938e-02) (102, -1.51597708463668823242e-01) (103, -2.24326580762863159180e-01) (104, 3.97133588790893554688e-01) (105, -2.96238958835601806641e-01) (106, 1.65170639753341674805e-01) (107, -4.03080165386199951172e-01) (108, 3.41709733009338378906e-01) (109, 1.80785566568374633789e-01) (110, 1.79447889328002929688e-01) (111, 9.24687534570693969727e-02) (112, -1.06461897492408752441e-01) (113, 1.95340931415557861328e-01) (114, 4.89071965217590332031e-01) (115, 4.29299056529998779297e-01) (116, 3.85933876037597656250e-01) (117, -6.13711290061473846436e-02) (118, -1.63466259837150573730e-02) (119, -3.93395602703094482422e-01) (120, -3.87568950653076171875e-01) (121, -8.31997543573379516602e-02) (122, 1.77697446197271347046e-02) (123, 2.94534862041473388672e-01) (124, 1.62588983774185180664e-01) (125, -1.68827503919601440430e-01) (126, -1.35308593511581420898e-01) (127, -1.74835383892059326172e-01) (128, 1.14089369773864746094e-01) (129, 1.02599978446960449219e-01) (130, 6.93074047565460205078e-01) (131, 5.98235428333282470703e-01) (132, 1.03864163975231349468e-04) (133, 1.00527942180633544922e-01) (134, -3.88069786131381988525e-02) (135, -2.04089283943176269531e-01) (136, -1.70147031545639038086e-01) (137, -4.38505411148071289062e-01) (138, 3.37144315242767333984e-01) (139, -7.47340321540832519531e-02) (140, 1.73333317041397094727e-01) (141, -3.18502604961395263672e-01) (142, -8.58517140150070190430e-02) (143, -1.66038930416107177734e-01) (144, -1.89060032367706298828e-01) (145, 4.95224893093109130859e-01) (146, 1.61926746368408203125e-01) (147, -1.90687268972396850586e-01) (148, 2.91354238986968994141e-01) (149, -5.49800973385572433472e-03) (150, -1.36293023824691772461e-01) (151, -1.06966033577919006348e-01) (152, -3.74256491661071777344e-01) (153, 1.45044689998030662537e-02) (154, -1.07030734419822692871e-01) (155, 1.48022860288619995117e-01) (156, 3.74209403991699218750e-01) (157, -2.46020168066024780273e-01) (158, -3.15810680389404296875e-01) (159, 6.96137547492980957031e-02) (160, -3.15528810024261474609e-01) (161, -1.91125929355621337891e-01) (162, 2.67027821391820907593e-02) (163, 1.95424467325210571289e-01) (164, 5.70757351815700531006e-02) (165, -2.64881730079650878906e-01) (166, -2.58638858795166015625e-01) (167, 2.65081107616424560547e-01) (168, 1.13416552543640136719e-01) (169, 1.72181248664855957031e-01) (170, -7.54640996456146240234e-02) (171, -3.81055831909179687500e-01) (172, -1.27816051244735717773e-01) (173, -2.67428994178771972656e-01) (174, -2.41624742746353149414e-01) (175, -2.24022511392831802368e-02) (176, 1.43172293901443481445e-01) (177, 1.30075186491012573242e-01) (178, 1.69128865003585815430e-01) (179, 4.84535191208124160767e-03) (180, 1.08188822865486145020e-01) (181, -2.42575049400329589844e-01) (182, -7.73647248744964599609e-01) (183, -1.97842836380004882812e-01) (184, -2.03963547945022583008e-01) (185, -2.63754487037658691406e-01) (186, -6.00232817232608795166e-02) (187, 6.70812577009201049805e-02) (188, 8.95919799804687500000e-02) (189, -1.46643668413162231445e-01) (190, -4.00623619556427001953e-01) (191, -2.94045746326446533203e-01) (192, 8.99560097604990005493e-03) (193, 3.53501021862030029297e-01) (194, 1.44611060619354248047e-01) (195, -2.12222427129745483398e-01) (196, 1.60968422889709472656e-01) (197, 2.28646676987409591675e-02) (198, -2.40340292453765869141e-01) (199, -1.80331766605377197266e-01) (200, 6.27660378813743591309e-02) (201, 4.33702729642391204834e-02) (202, -1.77838474512100219727e-01) (203, 6.08356654644012451172e-01) (204, 1.54922544956207275391e-01) (205, 4.03181254863739013672e-01) (206, -3.32770287990570068359e-01) (207, -2.37063348293304443359e-01) (208, 1.32853994145989418030e-02) (209, -4.00904595851898193359e-01) (210, -1.75996899604797363281e-01) (211, -2.83406171947717666626e-02) (212, 1.04252457618713378906e-01) (213, -4.02021765708923339844e-01) (214, -5.08663356304168701172e-01) (215, -3.83524857461452484131e-02) (216, 4.04975153505802154541e-02) (217, 2.74405088275671005249e-02) (218, 2.47698038816452026367e-01) (219, 1.63077175617218017578e-01) (220, 3.81509423255920410156e-01) (221, -2.00086027383804321289e-01) (222, 1.26178175210952758789e-01) (223, 6.12420260906219482422e-01) (224, -1.14027440547943115234e-01) (225, 8.43181312084197998047e-01) (0, -1.31275311112403869629e-01) (1, 2.42587044835090637207e-01) (2, -8.78956466913223266602e-02) (3, 1.65608897805213928223e-01) (4, 2.40595534443855285645e-01) (5, -2.69723981618881225586e-01) (6, -1.25786617398262023926e-01) (7, -3.90739459544420242310e-03) (8, 3.04427202790975570679e-02) (9, 1.42751380801200866699e-01) (10, 8.93649309873580932617e-02) (11, -1.72704264521598815918e-01) (12, 2.20999374985694885254e-01) (13, 1.10030770301818847656e-01) (14, 3.29302161931991577148e-01) (15, -7.78333935886621475220e-03) (16, -1.00510463118553161621e-01) (17, -1.73605903983116149902e-01) (18, 1.07572346925735473633e-01) (19, 1.69703587889671325684e-01) (20, -2.65419632196426391602e-01) (21, 5.04872798919677734375e-02) (22, 2.23305389285087585449e-01) (23, 1.02242097258567810059e-01) (24, 7.65939205884933471680e-02) (25, -5.89411333203315734863e-02) (26, 1.88829109072685241699e-01) (27, 1.26600870862603187561e-02) (28, 7.39702224731445312500e-01) (29, 1.33994117379188537598e-01) (30, 3.22301179170608520508e-01) (31, 1.19700819253921508789e-01) (32, -2.40655019879341125488e-01) (33, 3.08727603405714035034e-02) (34, 3.57825487852096557617e-01) (35, 2.26696673780679702759e-02) (36, -1.38427659869194030762e-01) (37, 1.90613403916358947754e-01) (38, 6.32552653551101684570e-02) (39, 2.32145473361015319824e-01) (40, 5.65122812986373901367e-02) (41, 1.22975692152976989746e-01) (42, -3.43279317021369934082e-02) (43, 5.95144391059875488281e-01) (44, 4.44890409708023071289e-01) (45, 1.66627869009971618652e-01) (46, -4.65009734034538269043e-02) (47, -1.72963514924049377441e-01) (48, -3.13340276479721069336e-01) (49, 9.96469259262084960938e-02) (50, -7.34051018953323364258e-02) (51, 4.04429882764816284180e-02) (52, -3.79408597946166992188e-02) (53, 2.92600721120834350586e-01) (54, -1.59564271569252014160e-01) (55, -4.05965894460678100586e-01) (56, 4.42469090223312377930e-01) (57, -3.26001077890396118164e-01) (58, 5.63976168632507324219e-01) (59, 6.65932297706604003906e-01) (60, 1.11631423234939575195e-01) (61, 8.69685262441635131836e-02) (62, 3.90187725424766540527e-02) (63, -2.77003291994333267212e-02) (64, -1.91661879420280456543e-01) (65, 4.58509847521781921387e-02) (66, 3.12879011034965515137e-02) (67, 2.81601041555404663086e-01) (68, 1.03357926011085510254e-01) (69, 4.50702905654907226562e-02) (70, 4.39681559801101684570e-01) (71, -4.65257674455642700195e-01) (72, 1.37367174029350280762e-01) (73, -2.37971499562263488770e-01) (74, 2.75584369897842407227e-01) (75, -2.60686665773391723633e-01) (76, -4.52129840850830078125e-02) (77, -1.63532868027687072754e-01) (78, 4.10171180963516235352e-01) (79, -8.97943377494812011719e-02) (80, 5.93249440193176269531e-01) (81, 7.05530285835266113281e-01) (82, 1.99434116482734680176e-01) (83, 2.20470443367958068848e-01) (84, 3.38735550642013549805e-01) (85, -1.30028381943702697754e-01) (86, 5.65456077456474304199e-02) (87, -1.00905269384384155273e-01) (88, 2.23061088472604751587e-02) (89, -2.36585184931755065918e-01) (90, -2.80928701162338256836e-01) (91, 3.69198352098464965820e-01) (92, -2.74337440729141235352e-01) (93, -4.70988243818283081055e-01) (94, 1.67465850710868835449e-01) (95, 3.36169451475143432617e-01) (96, 6.03856444358825683594e-01) (97, -6.05000555515289306641e-02) (98, 3.35095375776290893555e-01) (99, 9.70735251903533935547e-02) (100, 2.96438019722700119019e-02) (101, -3.11532229185104370117e-01) (102, 2.35273335129022598267e-02) (103, -3.31950932741165161133e-01) (104, -7.87570834159851074219e-01) (105, 5.47456741333007812500e-01) (106, 2.93570067733526229858e-02) (107, 9.23870950937271118164e-02) (108, 6.94453269243240356445e-02) (109, -1.75911024212837219238e-01) (110, 1.86398461461067199707e-01) (111, 5.97760826349258422852e-02) (112, 5.94925999641418457031e-01) (113, 3.94203871488571166992e-01) (114, 2.62514371424913406372e-02) (115, 4.28425103425979614258e-01) (116, -1.47777244448661804199e-01) (117, -4.68728512525558471680e-01) (118, -6.78961277008056640625e-01) (119, -5.65454721450805664062e-01) (120, 7.95168429613113403320e-02) (121, 1.24143645167350769043e-01) (122, -3.61886769533157348633e-01) (123, 2.19618543982505798340e-01) (124, 6.38528307899832725525e-03) (125, 3.51477175951004028320e-01) (126, 7.72142887115478515625e-01) (127, 3.72823387384414672852e-01) (128, 6.03553891181945800781e-01) (129, -2.32249453663825988770e-01) (130, -6.96817040443420410156e-02) (131, 9.05080586671829223633e-02) (132, -1.03103324770927429199e-01) (133, -3.13402026891708374023e-01) (134, -4.13146406412124633789e-01) (135, 5.25088787078857421875e-01) (136, 6.46485805511474609375e-01) (137, 2.57192343473434448242e-01) (138, 2.64553099870681762695e-01) (139, -1.47815003991127014160e-01) (140, -2.97910124063491821289e-01) (141, -3.00092846155166625977e-01) (142, -3.23138982057571411133e-01) (143, 4.04981598258018493652e-02) (144, 3.31901043653488159180e-01) (145, 1.94120720028877258301e-01) (146, -3.78312617540359497070e-02) (147, -1.81728288531303405762e-01) (148, -2.69922643899917602539e-01) (149, -5.04172801971435546875e-01) (150, 3.73997062444686889648e-01) (151, 3.74971002340316772461e-01) (152, 3.44870835542678833008e-01) (153, 2.67722457647323608398e-01) (154, -3.70095700025558471680e-01) (155, -2.62077003717422485352e-01) (156, -6.69245600700378417969e-01) (157, -6.83837413787841796875e-01) (158, -4.50978726148605346680e-02) (159, 3.59272509813308715820e-02) (160, -7.43886977434158325195e-02) (161, -3.96552234888076782227e-01) (162, -3.34316819906234741211e-01) (163, -1.02984204888343811035e-01) (164, -3.37486416101455688477e-01) (165, -2.91912227869033813477e-01) (166, -2.88587063550949096680e-01) (167, 8.01421608775854110718e-03) (168, -3.03527384996414184570e-01) (169, -5.62853440642356872559e-02) (170, -2.62122184038162231445e-01) (171, -2.15354129672050476074e-01) (172, -1.69128403067588806152e-01) (173, -2.52296533435583114624e-02) (174, -3.23916524648666381836e-01) (175, -6.03891685605049133301e-02) (176, -3.77696007490158081055e-02) (177, 1.66330471634864807129e-01) (178, -2.03226611018180847168e-01) (179, -6.53794646263122558594e-01) (180, -6.11393332481384277344e-01) (181, -6.59285306930541992188e-01) (182, -2.37994138151407241821e-02) (183, -9.15400385856628417969e-02) (184, -6.14745914936065673828e-02) (185, -3.09068828821182250977e-01) (186, -3.65278810262680053711e-01) (187, -1.20802475139498710632e-02) (188, -5.19423559308052062988e-02) (189, -3.51208478212356567383e-01) (190, 6.68177455663681030273e-02) (191, -1.99921771883964538574e-01) (192, 2.50394552946090698242e-01) (193, -1.04483231902122497559e-01) (194, -7.34322965145111083984e-02) (195, -1.67087033390998840332e-01) (196, -1.93860933184623718262e-01) (197, -3.32171291112899780273e-01) (198, -2.28335276246070861816e-01) (199, 6.56338632106781005859e-02) (200, -7.95248746871948242188e-02) (201, -2.35735759139060974121e-01) (202, 9.16156172752380371094e-02) (203, 4.09850478172302246094e-02) (204, -4.20530214905738830566e-02) (205, 4.37990099191665649414e-01) (206, -4.42516833543777465820e-01) (207, 6.38692378997802734375e-02) (208, 3.91026169061660766602e-01) (209, 1.71499952673912048340e-01) (210, -3.31172734498977661133e-01) (211, -5.62929272651672363281e-01) (212, -3.08398991823196411133e-01) (213, -3.73301118612289428711e-01) (214, -2.27913662791252136230e-01) (215, -3.22027176618576049805e-01) (216, -1.63819715380668640137e-02) (217, -8.29190015792846679688e-02) (218, 5.07007718086242675781e-01) (219, 3.12622815370559692383e-01) (220, -2.36969664692878723145e-01) (221, 1.81001741439104080200e-02) (222, 3.32694649696350097656e-02) (223, 1.35221138596534729004e-01) (224, -3.12783211469650268555e-01) (225, 3.02023738622665405273e-01) (0, -1.32016316056251525879e-01) (1, 5.50046302378177642822e-02) (2, -5.34485317766666412354e-02) (3, -8.43727886676788330078e-02) (4, 7.38289654254913330078e-02) (5, 7.23376125097274780273e-02) (6, 4.90057952702045440674e-02) (7, -1.79233744740486145020e-01) (8, 3.11485305428504943848e-02) (9, 1.50775805115699768066e-01) (10, 1.27745047211647033691e-01) (11, 6.18117712438106536865e-02) (12, -2.11368963122367858887e-01) (13, -1.32743671536445617676e-01) (14, -3.20876955986022949219e-01) (15, 2.69754827022552490234e-01) (16, 1.76709100604057312012e-01) (17, -4.20314788818359375000e-01) (18, 2.90849328041076660156e-01) (19, 7.09763765335083007812e-02) (20, -7.10076242685317993164e-02) (21, -3.14007960259914398193e-02) (22, -3.05147707462310791016e-01) (23, -1.71598449349403381348e-01) (24, 2.22787514328956604004e-01) (25, -3.66273403167724609375e-01) (26, -2.30491653084754943848e-01) (27, -2.13390395045280456543e-01) (28, -5.11094152927398681641e-01) (29, -1.89397677779197692871e-01) (30, 4.23611521720886230469e-01) (31, -2.26596873253583908081e-02) (32, 7.00883418321609497070e-02) (33, 1.67174324393272399902e-01) (34, -1.93905606865882873535e-01) (35, -1.97449401021003723145e-01) (36, 2.57700979709625244141e-01) (37, 8.10546148568391799927e-03) (38, 1.14776805043220520020e-01) (39, -1.48957893252372741699e-01) (40, -3.14761817455291748047e-01) (41, 6.02862350642681121826e-02) (42, 8.55367034673690795898e-02) (43, -3.25831055641174316406e-01) (44, -1.75053104758262634277e-01) (45, 1.21121332049369812012e-01) (46, 2.71879553794860839844e-01) (47, -9.51241552829742431641e-02) (48, 7.86755532026290893555e-02) (49, 2.21805974841117858887e-01) (50, 1.16629198193550109863e-01) (51, -1.18748500943183898926e-01) (52, 4.30495999753475189209e-02) (53, 5.82456728443503379822e-03) (54, -1.69158890843391418457e-01) (55, 1.11359074711799621582e-01) (56, 6.95215016603469848633e-02) (57, 3.55300307273864746094e-01) (58, 2.07777038216590881348e-01) (59, -1.19261527433991432190e-02) (60, 2.20278099179267883301e-01) (61, -3.06156337261199951172e-01) (62, -1.87779262661933898926e-01) (63, 1.32137790322303771973e-01) (64, 2.05751374363899230957e-01) (65, 2.04974010586738586426e-01) (66, 6.96138292551040649414e-02) (67, 2.78847575187683105469e-01) (68, -2.17163953930139541626e-02) (69, 3.23943747207522392273e-03) (70, -1.41719475388526916504e-01) (71, 1.55204936861991882324e-01) (72, -5.81383049488067626953e-01) (73, -5.11343218386173248291e-02) (74, 7.36353173851966857910e-03) (75, 3.40810298919677734375e-01) (76, 1.45978303626179695129e-02) (77, 4.04291927814483642578e-01) (78, 7.46183991432189941406e-02) (79, 5.79020798206329345703e-01) (80, -3.40943276882171630859e-01) (81, 1.18664978072047233582e-02) (82, 9.36752557754516601562e-02) (83, 2.10893616080284118652e-01) (84, -1.41995683312416076660e-01) (85, 2.86806505173444747925e-02) (86, -4.15884889662265777588e-02) (87, -4.28744912147521972656e-01) (88, 1.85138329863548278809e-01) (89, 9.61744934320449829102e-02) (90, 2.54995133727788925171e-02) (91, -1.02556049823760986328e-01) (92, 3.29017937183380126953e-01) (93, 3.73565889894962310791e-02) (94, -1.23229160904884338379e-01) (95, -8.15429445356130599976e-03) (96, 1.96739193052053451538e-02) (97, -1.20187088847160339355e-01) (98, 2.06446852535009384155e-02) (99, 9.75305587053298950195e-02) (100, 1.33247658610343933105e-01) (101, 1.67631670832633972168e-01) (102, 1.18828222155570983887e-01) (103, 8.15815329551696777344e-02) (104, 2.93236851692199707031e-01) (105, 9.29012149572372436523e-02) (106, -3.05242706090211868286e-02) (107, -6.35116100311279296875e-02) (108, -6.06971643865108489990e-02) (109, -3.04474830627441406250e-01) (110, 7.50258564949035644531e-02) (111, -2.19026282429695129395e-01) (112, -5.29619492590427398682e-02) (113, -2.27112229913473129272e-02) (114, 3.97451128810644149780e-03) (115, 1.51792213320732116699e-01) (116, -8.37641209363937377930e-02) (117, 3.99143278598785400391e-01) (118, 8.41272473335266113281e-02) (119, 2.40701630711555480957e-01) (120, 1.38956472277641296387e-01) (121, 1.54446586966514587402e-01) (122, -2.08272114396095275879e-01) (123, 9.16103273630142211914e-02) (124, -1.88831701874732971191e-01) (125, -2.51579303294420242310e-02) (126, -1.79986998438835144043e-01) (127, -1.22939065098762512207e-01) (128, 4.30609174072742462158e-02) (129, 2.43332013487815856934e-01) (130, 4.94709052145481109619e-02) (131, 4.80302572250366210938e-01) (132, 3.93254101276397705078e-01) (133, -2.22977902740240097046e-02) (134, 4.00117218494415283203e-01) (135, 3.22198532521724700928e-02) (136, -1.57236028462648391724e-02) (137, -6.18352591991424560547e-01) (138, 3.53101253509521484375e-01) (139, -8.14336389303207397461e-02) (140, 6.15730918943881988525e-02) (141, 3.75475771725177764893e-02) (142, 9.28786844015121459961e-02) (143, -1.18376063182950019836e-02) (144, 3.28374445438385009766e-01) (145, 4.04333509504795074463e-02) (146, 2.76344716548919677734e-01) (147, -2.25236769765615463257e-02) (148, -7.14908540248870849609e-02) (149, 4.44780945777893066406e-01) (150, 8.83585363626480102539e-02) (151, -5.10715208947658538818e-02) (152, -5.08259870111942291260e-02) (153, -2.61415660381317138672e-01) (154, 2.82561760395765304565e-02) (155, 4.00865793228149414062e-01) (156, 2.36721053719520568848e-01) (157, -1.01308614015579223633e-01) (158, 4.37561511993408203125e-01) (159, 5.37664033472537994385e-02) (160, 2.46254786849021911621e-01) (161, 2.41221562027931213379e-01) (162, 2.86660254001617431641e-01) (163, 1.42586156725883483887e-01) (164, 3.42041850090026855469e-01) (165, 5.80595552921295166016e-01) (166, 2.60401427745819091797e-01) (167, -2.87282824516296386719e-01) (168, 6.10092245042324066162e-02) (169, 3.34043502807617187500e-01) (170, 3.30105543136596679688e-01) (171, -2.41116229444742202759e-02) (172, 1.78224846720695495605e-01) (173, 1.50579407811164855957e-01) (174, 1.80643185973167419434e-01) (175, 9.72606986761093139648e-02) (176, -1.79498925805091857910e-01) (177, 5.99469849839806556702e-03) (178, -1.08522430062294006348e-01) (179, 3.59267175197601318359e-01) (180, 3.22171926498413085938e-01) (181, 5.25854527950286865234e-01) (182, 8.07591378688812255859e-02) (183, 4.09771084785461425781e-01) (184, -2.64502642676234245300e-03) (185, 5.08410036563873291016e-01) (186, 3.14251720905303955078e-01) (187, 1.87252059578895568848e-01) (188, -1.63093015551567077637e-01) (189, -4.74434085190296173096e-02) (190, 1.02276548743247985840e-01) (191, 1.95511922240257263184e-01) (192, 8.98562371730804443359e-02) (193, -2.31042757630348205566e-01) (194, -5.42511008679866790771e-02) (195, -1.50116458535194396973e-01) (196, -7.27438628673553466797e-02) (197, -2.82999515533447265625e-01) (198, -1.25633239746093750000e-01) (199, -2.03680202364921569824e-01) (200, 3.74513506889343261719e-01) (201, 1.35026976466178894043e-01) (202, -3.48634779453277587891e-01) (203, 